{"learner":{"attributes":{"scikit_learn":"{\"_estimator_type\": \"classifier\"}"},"feature_names":[],"feature_types":[],"gradient_booster":{"model":{"gbtree_model_param":{"num_parallel_tree":"1","num_trees":"1500"},"iteration_indptr":[0,3,6,9,12,15,18,21,24,27,30,33,36,39,42,45,48,51,54,57,60,63,66,69,72,75,78,81,84,87,90,93,96,99,102,105,108,111,114,117,120,123,126,129,132,135,138,141,144,147,150,153,156,159,162,165,168,171,174,177,180,183,186,189,192,195,198,201,204,207,210,213,216,219,222,225,228,231,234,237,240,243,246,249,252,255,258,261,264,267,270,273,276,279,282,285,288,291,294,297,300,303,306,309,312,315,318,321,324,327,330,333,336,339,342,345,348,351,354,357,360,363,366,369,372,375,378,381,384,387,390,393,396,399,402,405,408,411,414,417,420,423,426,429,432,435,438,441,444,447,450,453,456,459,462,465,468,471,474,477,480,483,486,489,492,495,498,501,504,507,510,513,516,519,522,525,528,531,534,537,540,543,546,549,552,555,558,561,564,567,570,573,576,579,582,585,588,591,594,597,600,603,606,609,612,615,618,621,624,627,630,633,636,639,642,645,648,651,654,657,660,663,666,669,672,675,678,681,684,687,690,693,696,699,702,705,708,711,714,717,720,723,726,729,732,735,738,741,744,747,750,753,756,759,762,765,768,771,774,777,780,783,786,789,792,795,798,801,804,807,810,813,816,819,822,825,828,831,834,837,840,843,846,849,852,855,858,861,864,867,870,873,876,879,882,885,888,891,894,897,900,903,906,909,912,915,918,921,924,927,930,933,936,939,942,945,948,951,954,957,960,963,966,969,972,975,978,981,984,987,990,993,996,999,1002,1005,1008,1011,1014,1017,1020,1023,1026,1029,1032,1035,1038,1041,1044,1047,1050,1053,1056,1059,1062,1065,1068,1071,1074,1077,1080,1083,1086,1089,1092,1095,1098,1101,1104,1107,1110,1113,1116,1119,1122,1125,1128,1131,1134,1137,1140,1143,1146,1149,1152,1155,1158,1161,1164,1167,1170,1173,1176,1179,1182,1185,1188,1191,1194,1197,1200,1203,1206,1209,1212,1215,1218,1221,1224,1227,1230,1233,1236,1239,1242,1245,1248,1251,1254,1257,1260,1263,1266,1269,1272,1275,1278,1281,1284,1287,1290,1293,1296,1299,1302,1305,1308,1311,1314,1317,1320,1323,1326,1329,1332,1335,1338,1341,1344,1347,1350,1353,1356,1359,1362,1365,1368,1371,1374,1377,1380,1383,1386,1389,1392,1395,1398,1401,1404,1407,1410,1413,1416,1419,1422,1425,1428,1431,1434,1437,1440,1443,1446,1449,1452,1455,1458,1461,1464,1467,1470,1473,1476,1479,1482,1485,1488,1491,1494,1497,1500],"tree_info":[0,1,2,0,1,2,0,1,2,0,1,2,0,1,2,0,1,2,0,1,2,0,1,2,0,1,2,0,1,2,0,1,2,0,1,2,0,1,2,0,1,2,0,1,2,0,1,2,0,1,2,0,1,2,0,1,2,0,1,2,0,1,2,0,1,2,0,1,2,0,1,2,0,1,2,0,1,2,0,1,2,0,1,2,0,1,2,0,1,2,0,1,2,0,1,2,0,1,2,0,1,2,0,1,2,0,1,2,0,1,2,0,1,2,0,1,2,0,1,2,0,1,2,0,1,2,0,1,2,0,1,2,0,1,2,0,1,2,0,1,2,0,1,2,0,1,2,0,1,2,0,1,2,0,1,2,0,1,2,0,1,2,0,1,2,0,1,2,0,1,2,0,1,2,0,1,2,0,1,2,0,1,2,0,1,2,0,1,2,0,1,2,0,1,2,0,1,2,0,1,2,0,1,2,0,1,2,0,1,2,0,1,2,0,1,2,0,1,2,0,1,2,0,1,2,0,1,2,0,1,2,0,1,2,0,1,2,0,1,2,0,1,2,0,1,2,0,1,2,0,1,2,0,1,2,0,1,2,0,1,2,0,1,2,0,1,2,0,1,2,0,1,2,0,1,2,0,1,2,0,1,2,0,1,2,0,1,2,0,1,2,0,1,2,0,1,2,0,1,2,0,1,2,0,1,2,0,1,2,0,1,2,0,1,2,0,1,2,0,1,2,0,1,2,0,1,2,0,1,2,0,1,2,0,1,2,0,1,2,0,1,2,0,1,2,0,1,2,0,1,2,0,1,2,0,1,2,0,1,2,0,1,2,0,1,2,0,1,2,0,1,2,0,1,2,0,1,2,0,1,2,0,1,2,0,1,2,0,1,2,0,1,2,0,1,2,0,1,2,0,1,2,0,1,2,0,1,2,0,1,2,0,1,2,0,1,2,0,1,2,0,1,2,0,1,2,0,1,2,0,1,2,0,1,2,0,1,2,0,1,2,0,1,2,0,1,2,0,1,2,0,1,2,0,1,2,0,1,2,0,1,2,0,1,2,0,1,2,0,1,2,0,1,2,0,1,2,0,1,2,0,1,2,0,1,2,0,1,2,0,1,2,0,1,2,0,1,2,0,1,2,0,1,2,0,1,2,0,1,2,0,1,2,0,1,2,0,1,2,0,1,2,0,1,2,0,1,2,0,1,2,0,1,2,0,1,2,0,1,2,0,1,2,0,1,2,0,1,2,0,1,2,0,1,2,0,1,2,0,1,2,0,1,2,0,1,2,0,1,2,0,1,2,0,1,2,0,1,2,0,1,2,0,1,2,0,1,2,0,1,2,0,1,2,0,1,2,0,1,2,0,1,2,0,1,2,0,1,2,0,1,2,0,1,2,0,1,2,0,1,2,0,1,2,0,1,2,0,1,2,0,1,2,0,1,2,0,1,2,0,1,2,0,1,2,0,1,2,0,1,2,0,1,2,0,1,2,0,1,2,0,1,2,0,1,2,0,1,2,0,1,2,0,1,2,0,1,2,0,1,2,0,1,2,0,1,2,0,1,2,0,1,2,0,1,2,0,1,2,0,1,2,0,1,2,0,1,2,0,1,2,0,1,2,0,1,2,0,1,2,0,1,2,0,1,2,0,1,2,0,1,2,0,1,2,0,1,2,0,1,2,0,1,2,0,1,2,0,1,2,0,1,2,0,1,2,0,1,2,0,1,2,0,1,2,0,1,2,0,1,2,0,1,2,0,1,2,0,1,2,0,1,2,0,1,2,0,1,2,0,1,2,0,1,2,0,1,2,0,1,2,0,1,2,0,1,2,0,1,2,0,1,2,0,1,2,0,1,2,0,1,2,0,1,2,0,1,2,0,1,2,0,1,2,0,1,2,0,1,2,0,1,2,0,1,2,0,1,2,0,1,2,0,1,2,0,1,2,0,1,2,0,1,2,0,1,2,0,1,2,0,1,2,0,1,2,0,1,2,0,1,2,0,1,2,0,1,2,0,1,2,0,1,2,0,1,2,0,1,2,0,1,2,0,1,2,0,1,2,0,1,2,0,1,2,0,1,2,0,1,2,0,1,2,0,1,2,0,1,2,0,1,2,0,1,2,0,1,2,0,1,2,0,1,2,0,1,2,0,1,2,0,1,2,0,1,2,0,1,2,0,1,2,0,1,2,0,1,2,0,1,2,0,1,2,0,1,2,0,1,2,0,1,2,0,1,2,0,1,2,0,1,2,0,1,2,0,1,2,0,1,2,0,1,2,0,1,2,0,1,2,0,1,2,0,1,2,0,1,2,0,1,2,0,1,2,0,1,2,0,1,2,0,1,2,0,1,2,0,1,2,0,1,2,0,1,2,0,1,2,0,1,2,0,1,2,0,1,2,0,1,2,0,1,2,0,1,2,0,1,2,0,1,2,0,1,2,0,1,2,0,1,2,0,1,2,0,1,2,0,1,2,0,1,2,0,1,2,0,1,2,0,1,2,0,1,2,0,1,2,0,1,2,0,1,2,0,1,2,0,1,2,0,1,2,0,1,2,0,1,2,0,1,2,0,1,2,0,1,2,0,1,2,0,1,2,0,1,2,0,1,2,0,1,2,0,1,2,0,1,2,0,1,2,0,1,2,0,1,2,0,1,2,0,1,2,0,1,2,0,1,2,0,1,2,0,1,2,0,1,2,0,1,2,0,1,2,0,1,2,0,1,2,0,1,2,0,1,2,0,1,2,0,1,2,0,1,2,0,1,2,0,1,2,0,1,2,0,1,2,0,1,2,0,1,2,0,1,2,0,1,2,0,1,2,0,1,2,0,1,2,0,1,2,0,1,2,0,1,2,0,1,2,0,1,2,0,1,2,0,1,2,0,1,2,0,1,2,0,1,2,0,1,2,0,1,2,0,1,2,0,1,2,0,1,2,0,1,2,0,1,2,0,1,2,0,1,2,0,1,2,0,1,2,0,1,2,0,1,2,0,1,2,0,1,2,0,1,2,0,1,2,0,1,2,0,1,2,0,1,2,0,1,2,0,1,2,0,1,2,0,1,2,0,1,2,0,1,2,0,1,2,0,1,2,0,1,2,0,1,2,0,1,2,0,1,2,0,1,2,0,1,2,0,1,2,0,1,2,0,1,2,0,1,2,0,1,2,0,1,2,0,1,2,0,1,2,0,1,2,0,1,2,0,1,2,0,1,2,0,1,2,0,1,2,0,1,2,0,1,2,0,1,2,0,1,2,0,1,2,0,1,2,0,1,2,0,1,2,0,1,2,0,1,2,0,1,2,0,1,2,0,1,2,0,1,2,0,1,2,0,1,2,0,1,2,0,1,2,0,1,2,0,1,2,0,1,2,0,1,2,0,1,2,0,1,2,0,1,2],"trees":[{"base_weights":[9.377484E-4,1.4893473E0,-6.6100174E-1,7.47708E-2,-1.2772424E-9,1.2127659E0,-7.006292E-1,6.942149E-2,5.1724124E-3,1.1294117E0,-7.238007E-1,-1.2772424E-9,6.575342E-2,4.8E-2,-7.293386E-1,-3.576279E-8,-7.334482E-1,4.285714E-2,-2.727273E-2,-3.6810253E-2,-4.054056E-3],"categories":[],"categories_nodes":[],"categories_segments":[],"categories_sizes":[],"default_left":[0,0,0,0,0,0,0,0,0,0,0,0,0,0,0,0,0,0,0,0,0],"id":0,"left_children":[1,3,5,-1,-1,7,9,-1,-1,11,13,-1,-1,-1,15,17,19,-1,-1,-1,-1],"loss_changes":[1.0515754E3,2.9696045E0,5.570587E1,0E0,0E0,2.9092846E0,3.1523315E1,0E0,0E0,1.9803381E0,7.373474E0,0E0,0E0,0E0,2.13974E0,2.8051949E0,1.2170715E0,0E0,0E0,0E0,0E0],"parents":[2147483647,0,0,1,1,2,2,5,5,6,6,9,9,10,10,14,14,15,15,16,16],"right_children":[2,4,6,-1,-1,8,10,-1,-1,12,14,-1,-1,-1,16,18,20,-1,-1,-1,-1],"split_conditions":[-6.614824E-1,-5.3788733E-1,-8.393775E-1,7.47708E-2,-1.2772424E-9,-8.405779E-1,3.2134855E-1,6.942149E-2,5.1724124E-3,-1.2141305E0,-7.294125E-1,-1.2772424E-9,6.575342E-2,4.8E-2,-6.295575E-1,-6.607422E-1,1.0864967E0,4.285714E-2,-2.727273E-2,-3.6810253E-2,-4.054056E-3],"split_indices":[76,6,107,0,0,149,206,0,0,21,139,0,0,0,34,83,208,0,0,0,0],"split_type":[0,0,0,0,0,0,0,0,0,0,0,0,0,0,0,0,0,0,0,0,0],"sum_hessian":[1.0653333E3,3.2755554E2,7.377777E2,3.262222E2,1.3333333E0,1.4666666E1,7.231111E2,1.2444444E1,2.222222E0,8.444444E0,7.146666E2,1.3333333E0,7.1111107E0,1.7777777E0,7.1288885E2,3.9999998E0,7.0888885E2,1.3333333E0,2.6666665E0,7.057777E2,3.111111E0],"tree_param":{"num_deleted":"0","num_feature":"210","num_nodes":"21","size_leaf_vector":"1"}},{"base_weights":[1.228342E-2,-4.93258E-1,1.334471E0,-5.297505E-1,6.992482E-2,-3.311689E-2,1.3896458E0,-3.739242E-2,-3.407408E-1,-4.9180332E-1,1.4302741E0,1.0744467E0,-5.625594E-1,-3.0612249E-2,-1.2772424E-9,-4.2857146E-1,1.461849E0,1.4244604E0,-3.370787E-2,-5.969043E-1,5.7692308E-2,-2.837838E-2,-1.2772424E-9,-2.1428574E-2,1.4726167E0,7.2222225E-2,2.142857E-2,6.2264152E-2,-3.1354275E-2,2.142857E-2,7.380759E-2],"categories":[],"categories_nodes":[],"categories_segments":[],"categories_sizes":[],"default_left":[0,0,0,0,0,0,0,0,0,0,0,0,0,0,0,0,0,0,0,0,0,0,0,0,0,0,0,0,0,0,0],"id":1,"left_children":[1,3,5,7,-1,-1,9,-1,11,13,15,17,19,-1,-1,21,23,25,-1,27,-1,-1,-1,-1,29,-1,-1,-1,-1,-1,-1],"loss_changes":[7.0807E2,5.3644623E1,3.3201233E1,3.0767471E1,0E0,0E0,2.2522827E1,0E0,1.27740005E2,4.014721E-1,1.7040955E1,3.475827E1,2.1366959E1,0E0,0E0,3.2432437E-1,6.2333374E0,3.030777E-1,0E0,1.9937965E1,0E0,0E0,0E0,0E0,3.7823486E-1,0E0,0E0,0E0,0E0,0E0,0E0],"parents":[2147483647,0,0,1,1,2,2,3,3,6,6,8,8,9,9,10,10,11,11,12,12,15,15,16,16,17,17,19,19,24,24],"right_children":[2,4,6,8,-1,-1,10,-1,12,14,16,18,20,-1,-1,22,24,26,-1,28,-1,-1,-1,-1,30,-1,-1,-1,-1,-1,-1],"split_conditions":[5.1982105E-1,1.8805408E0,5.208988E-1,-7.1714354E-1,6.992482E-2,-3.311689E-2,-8.3491737E-1,-3.739242E-2,-3.960919E-1,8.748151E-1,-7.4722815E-1,-6.513939E-2,1.3691117E0,-3.0612249E-2,-1.2772424E-9,1.1036185E0,-6.8160564E-1,1.1176583E0,-3.370787E-2,-4.8358908E-1,5.7692308E-2,-2.837838E-2,-1.2772424E-9,-2.1428574E-2,-3.5602203E-1,7.2222225E-2,2.142857E-2,6.2264152E-2,-3.1354275E-2,2.142857E-2,7.380759E-2],"split_indices":[108,148,3,22,0,0,114,0,85,26,174,114,49,0,0,5,90,67,0,6,0,0,0,0,0,0,0,0,0,0,0],"split_type":[0,0,0,0,0,0,0,0,0,0,0,0,0,0,0,0,0,0,0,0,0,0,0,0,0,0,0,0,0,0,0],"sum_hessian":[1.0573333E3,7.653333E2,2.9199997E2,7.515555E2,1.3777777E1,7.5555553E0,2.8444443E2,3.4755554E2,4.0399997E2,5.7777777E0,2.7866666E2,5.4222218E1,3.4977777E2,4.444444E0,1.3333333E0,4.444444E0,2.742222E2,4.5333332E1,8.888888E0,3.4355554E2,6.222222E0,3.111111E0,1.3333333E0,1.3333333E0,2.728889E2,4.3999996E1,1.3333333E0,4.8888884E0,3.3866666E2,1.3333333E0,2.7155554E2],"tree_param":{"num_deleted":"0","num_feature":"210","num_nodes":"31","size_leaf_vector":"1"}},{"base_weights":[-9.784369E-3,1.0874902E0,-3.744064E-2,-3.6421727E-2,1.2459575E0,-8.108112E-2,1.3159152E0,6.393443E-2,-3.4962412E-2,1.3434191E0,-3.1132078E-2,1.3690659E0,-3.0612249E-2,6.976744E-2,-3.0612249E-2],"categories":[],"categories_nodes":[],"categories_segments":[],"categories_sizes":[],"default_left":[0,0,0,0,0,0,0,0,0,0,0,0,0,0,0],"id":2,"left_children":[1,3,-1,-1,5,7,9,-1,-1,11,-1,13,-1,-1,-1],"loss_changes":[8.572327E2,1.2333539E2,0E0,0E0,3.6467712E1,1.8172394E1,2.0676636E1,0E0,0E0,1.9256775E1,0E0,1.974591E1,0E0,0E0,0E0],"parents":[2147483647,0,0,1,1,4,4,5,5,6,6,9,9,11,11],"right_children":[2,4,-1,-1,6,8,10,-1,-1,12,-1,14,-1,-1,-1],"split_conditions":[-5.2699065E-1,-5.9593296E-1,-3.744064E-2,-3.6421727E-2,-4.7649103E-1,-1.3192323E0,-1.5107097E-1,6.393443E-2,-3.4962412E-2,1.3691117E0,-3.1132078E-2,1.605473E0,-3.0612249E-2,6.976744E-2,-3.0612249E-2],"split_indices":[110,197,0,0,18,12,23,0,0,49,0,144,0,0,0],"split_type":[0,0,0,0,0,0,0,0,0,0,0,0,0,0,0],"sum_hessian":[1.0551111E3,4.2444443E2,6.306666E2,3.3777775E1,3.9066666E2,1.9555553E1,3.7111108E2,5.7777777E0,1.3777777E1,3.662222E2,4.8888884E0,3.6177777E2,4.444444E0,3.573333E2,4.444444E0],"tree_param":{"num_deleted":"0","num_feature":"210","num_nodes":"15","size_leaf_vector":"1"}},{"base_weights":[8.157097E-3,1.3518475E0,-6.637799E-1,6.953139E-2,-1.624467E-1,8.8744247E-1,-7.0007443E-1,-3.2044213E-2,4.9569495E-2,-2.8777638E-2,6.580254E-2,6.008337E-2,-7.181419E-1,4.1945945E-2,-7.223888E-1,-7.0919156E-2,-7.251946E-1,1.2145324E-2,-2.0859404E-2,-1.1382747E-2,-3.640164E-2],"categories":[],"categories_nodes":[],"categories_segments":[],"categories_sizes":[],"default_left":[0,0,0,0,0,0,0,0,0,0,0,0,0,0,0,0,0,0,0,0,0],"id":3,"left_children":[1,3,5,-1,7,9,11,-1,-1,-1,-1,-1,13,-1,15,17,19,-1,-1,-1,-1],"loss_changes":[9.69681E2,2.1250854E1,4.093103E1,0E0,6.0648575E0,1.1298095E1,2.4920288E1,0E0,0E0,0E0,0E0,0E0,5.1965027E0,0E0,1.2149658E0,5.4465634E-1,8.083496E-1,0E0,0E0,0E0,0E0],"parents":[2147483647,0,0,1,1,2,2,4,4,5,5,6,6,12,12,14,14,15,15,16,16],"right_children":[2,4,6,-1,8,10,12,-1,-1,-1,-1,-1,14,-1,16,18,20,-1,-1,-1,-1],"split_conditions":[-6.489519E-1,5.452793E-1,3.83846E-1,6.953139E-2,6.0205996E-1,-3.2386997E-1,-8.3491737E-1,-3.2044213E-2,4.9569495E-2,-2.8777638E-2,6.580254E-2,6.008337E-2,-7.637341E-1,4.1945945E-2,-6.325637E-1,-7.2782534E-1,-7.390244E-1,1.2145324E-2,-2.0859404E-2,-1.1382747E-2,-3.640164E-2],"split_indices":[69,199,199,0,38,61,114,0,0,0,0,0,202,0,48,1,167,0,0,0,0],"split_type":[0,0,0,0,0,0,0,0,0,0,0,0,0,0,0,0,0,0,0,0,0],"sum_hessian":[1.0719983E3,3.5702795E2,7.149703E2,3.4819263E2,8.835344E0,1.5809832E1,6.9916046E2,6.5598636E0,2.2754807E0,3.504583E0,1.2305249E1,5.9633365E0,6.931971E2,1.3509489E0,6.918461E2,3.079567E0,6.887666E2,1.7720504E0,1.3075166E0,4.3674574E0,6.843991E2],"tree_param":{"num_deleted":"0","num_feature":"210","num_nodes":"21","size_leaf_vector":"1"}},{"base_weights":[2.3452705E-3,-4.913677E-1,1.2465289E0,-5.2594984E-1,6.559948E-2,-3.3089697E-2,1.3050461E0,-3.670847E-2,-3.4651116E-1,-4.630472E-1,1.3386441E0,9.3477416E-1,-5.573256E-1,3.7974567E-4,-2.951699E-2,-2.9606527E-2,1.3673159E0,1.2864605E0,-3.358316E-2,-6.6860807E-1,6.177111E-2,3.8350236E-1,1.3769013E0,-7.5029925E-4,6.623729E-2,5.5276938E-2,-3.472724E-2,6.949743E-2,-2.1301134E-2,4.518706E-2,-2.1017266E-2,1.942926E-2,6.90177E-2],"categories":[],"categories_nodes":[],"categories_segments":[],"categories_sizes":[],"default_left":[0,0,0,0,0,0,0,0,0,0,0,0,0,0,0,0,0,0,0,0,0,0,0,0,0,0,0,0,0,0,0,0,0],"id":4,"left_children":[1,3,5,7,-1,-1,9,-1,11,13,15,17,19,-1,-1,-1,21,23,-1,25,27,29,31,-1,-1,-1,-1,-1,-1,-1,-1,-1,-1],"loss_changes":[6.592095E2,4.8603806E1,3.4908386E1,2.7937607E1,0E0,0E0,1.821167E1,0E0,1.10505585E2,3.7983537E-1,1.6911804E1,3.357691E1,2.4173477E1,0E0,0E0,0E0,2.1776123E0,2.4039078E0,0E0,1.4434082E1,3.5761795E1,2.11727E0,4.3200684E-1,0E0,0E0,0E0,0E0,0E0,0E0,0E0,0E0,0E0,0E0],"parents":[2147483647,0,0,1,1,2,2,3,3,6,6,8,8,9,9,10,10,11,11,12,12,16,16,17,17,19,19,20,20,21,21,22,22],"right_children":[2,4,6,8,-1,-1,10,-1,12,14,16,18,20,-1,-1,-1,22,24,-1,26,28,30,32,-1,-1,-1,-1,-1,-1,-1,-1,-1,-1],"split_conditions":[5.1982105E-1,1.8805408E0,5.1816714E-1,-7.1030277E-1,6.559948E-2,-3.3089697E-2,-8.3491737E-1,-3.670847E-2,-4.094783E-1,-5.8186734E-1,-7.580149E-1,-6.513939E-2,1.2912387E0,3.7974567E-4,-2.951699E-2,-2.9606527E-2,-6.718437E-1,-6.678979E-1,-3.358316E-2,-4.9784175E-1,-1.0982138E0,-1.0994861E0,-1.0552387E0,-7.5029925E-4,6.623729E-2,5.5276938E-2,-3.472724E-2,6.949743E-2,-2.1301134E-2,4.518706E-2,-2.1017266E-2,1.942926E-2,6.90177E-2],"split_indices":[108,148,10,15,0,0,114,0,92,6,181,114,77,0,0,0,90,6,0,6,131,46,102,0,0,0,0,0,0,0,0,0,0],"split_type":[0,0,0,0,0,0,0,0,0,0,0,0,0,0,0,0,0,0,0,0,0,0,0,0,0,0,0,0,0,0,0,0,0],"sum_hessian":[1.0711627E3,7.67293E2,3.0386972E2,7.535509E2,1.3742137E1,8.733989E0,2.9513574E2,3.4737158E2,4.0617935E2,5.2653384E0,2.898704E2,5.690271E1,3.4927664E2,1.3211075E0,3.9442308E0,3.953997E0,2.859164E2,4.684618E1,1.005653E1,2.9599216E2,5.328447E1,3.1545115E0,2.827619E2,1.3560699E0,4.549011E1,3.6650856E0,2.923271E2,1.381612E1,3.946835E1,1.8396482E0,1.3148633E0,1.3797362E0,2.8138214E2],"tree_param":{"num_deleted":"0","num_feature":"210","num_nodes":"33","size_leaf_vector":"1"}},{"base_weights":[-1.144486E-2,1.0172509E0,-3.674952E-2,-3.580401E-2,1.1587288E0,-3.387718E-2,1.2105703E0,-3.195256E-2,1.2391808E0,1.2681328E0,-3.1459656E-2,6.4668484E-2,-3.0699154E-2],"categories":[],"categories_nodes":[],"categories_segments":[],"categories_sizes":[],"default_left":[0,0,0,0,0,0,0,0,0,0,0,0,0],"id":5,"left_children":[1,3,-1,-1,5,-1,7,-1,9,11,-1,-1,-1],"loss_changes":[8.018121E2,1.0991516E2,0E0,0E0,4.0006836E1,0E0,2.1996582E1,0E0,2.2161316E1,1.9282776E1,0E0,0E0,0E0],"parents":[2147483647,0,0,1,1,4,4,6,6,8,8,9,9],"right_children":[2,4,-1,-1,6,-1,8,-1,10,12,-1,-1,-1],"split_conditions":[-5.2699065E-1,-5.570557E-1,-3.674952E-2,-3.580401E-2,-1.6361555E-1,-3.387718E-2,-1.3071569E0,-3.195256E-2,1.3691117E0,-1.5107097E-1,-3.1459656E-2,6.4668484E-2,-3.0699154E-2],"split_indices":[110,204,0,0,106,0,138,0,49,23,0,0,0],"split_type":[0,0,0,0,0,0,0,0,0,0,0,0,0],"sum_hessian":[1.0752537E3,4.438323E2,6.314214E2,3.3186264E1,4.1064606E2,1.0943611E1,3.9970245E2,5.763535E0,3.939389E2,3.8824402E2,5.6948905E0,3.8341568E2,4.8283253E0],"tree_param":{"num_deleted":"0","num_feature":"210","num_nodes":"13","size_leaf_vector":"1"}},{"base_weights":[1.1157399E-2,1.2571434E0,-6.485665E-1,1.2921973E0,-3.1556115E-1,8.3471024E-1,-6.849611E-1,6.507675E-2,5.2265364E-1,-3.160535E-2,4.070079E-2,-2.8341828E-2,6.1515797E-2,5.5720538E-2,-7.0036286E-1,-2.3510294E-2,5.2039158E-2,-7.0468265E-1,4.156042E-2,-7.0759624E-1,2.2541836E-2,-1.3359454E-2,-3.5662007E-2],"categories":[],"categories_nodes":[],"categories_segments":[],"categories_sizes":[],"default_left":[0,0,0,0,0,0,0,0,0,0,0,0,0,0,0,0,0,0,0,0,0,0,0],"id":6,"left_children":[1,3,5,7,9,11,13,-1,15,-1,-1,-1,-1,-1,17,-1,-1,19,-1,21,-1,-1,-1],"loss_changes":[8.7572064E2,2.0739563E1,3.817383E1,1.9135132E0,3.677079E0,1.0196631E1,1.963733E1,0E0,3.5751305E0,0E0,0E0,0E0,0E0,0E0,5.053314E0,0E0,0E0,2.58786E0,0E0,1.4812317E0,0E0,0E0,0E0],"parents":[2147483647,0,0,1,1,2,2,3,3,4,4,5,5,6,6,8,8,14,14,17,17,19,19],"right_children":[2,4,6,8,10,12,14,-1,16,-1,-1,-1,-1,-1,18,-1,-1,20,-1,22,-1,-1,-1],"split_conditions":[-7.539341E-1,5.77162E-1,3.7749666E-1,5.751472E-1,-3.3090293E-1,-3.2386997E-1,-8.3491737E-1,6.507675E-2,5.866249E-1,-3.160535E-2,4.070079E-2,-2.8341828E-2,6.1515797E-2,5.5720538E-2,9.752237E-1,-2.3510294E-2,5.2039158E-2,1.0864967E0,4.156042E-2,-6.658604E-1,2.2541836E-2,-1.3359454E-2,-3.5662007E-2],"split_indices":[209,0,171,73,2,61,114,0,3,0,0,0,0,0,12,0,0,208,0,90,0,0,0],"split_type":[0,0,0,0,0,0,0,0,0,0,0,0,0,0,0,0,0,0,0,0,0,0,0],"sum_hessian":[1.063353E3,3.67801E2,6.95552E2,3.599563E2,7.844692E0,1.6132425E1,6.794196E2,3.5495792E2,4.998384E0,6.471548E0,1.3731443E0,3.4559383E0,1.2676487E1,5.1605697E0,6.7425903E2,1.7457004E0,3.2526836E0,6.72901E2,1.3580292E0,6.715952E2,1.3057514E0,9.109437E0,6.624858E2],"tree_param":{"num_deleted":"0","num_feature":"210","num_nodes":"23","size_leaf_vector":"1"}},{"base_weights":[-7.7426475E-3,-4.7608337E-1,1.1790792E0,-5.121382E-1,6.205634E-2,-3.190636E-2,1.2261294E0,-3.6055394E-2,-3.4359205E-1,-2.8543264E-2,1.2495023E0,9.1876286E-1,-5.443043E-1,1.270681E0,-3.6717075E-1,1.2064546E0,-3.253104E-2,-5.815984E-1,5.830242E-2,-2.0599104E-2,1.2797198E0,-2.5856603E-2,-1.663994E-4,-1.2523254E-3,6.2115468E-2,-3.3370882E-2,-3.31795E-3,2.713547E-2,6.462065E-2],"categories":[],"categories_nodes":[],"categories_segments":[],"categories_sizes":[],"default_left":[0,0,0,0,0,0,0,0,0,0,0,0,0,0,0,0,0,0,0,0,0,0,0,0,0,0,0,0,0],"id":7,"left_children":[1,3,5,7,-1,-1,9,-1,11,-1,13,15,17,19,21,23,-1,25,-1,-1,27,-1,-1,-1,-1,-1,-1,-1,-1],"loss_changes":[5.9372015E2,4.8055344E1,2.6624329E1,2.6198227E1,0E0,0E0,1.3101868E1,0E0,1.0629211E2,0E0,1.0446747E1,2.6815002E1,2.3697731E1,4.9065857E0,2.4626237E-1,2.1978836E0,0E0,1.5602196E1,0E0,0E0,1.9801941E0,0E0,0E0,0E0,0E0,0E0,0E0,0E0,0E0],"parents":[2147483647,0,0,1,1,2,2,3,3,6,6,8,8,10,10,11,11,12,12,13,13,14,14,15,15,17,17,20,20],"right_children":[2,4,6,8,-1,-1,10,-1,12,-1,14,16,18,20,22,24,-1,26,-1,-1,28,-1,-1,-1,-1,-1,-1,-1,-1],"split_conditions":[5.1982105E-1,1.8805408E0,5.1816714E-1,-7.1030277E-1,6.205634E-2,-3.190636E-2,-6.171127E-1,-3.6055394E-2,-3.9686036E-1,-2.8543264E-2,9.474684E-1,-6.369041E-2,-1.5107097E-1,-9.022983E-1,9.21331E-1,-6.1985475E-1,-3.253104E-2,1.2912387E0,5.830242E-2,-2.0599104E-2,-7.390244E-1,-2.5856603E-2,-1.663994E-4,-1.2523254E-3,6.2115468E-2,-3.3370882E-2,-3.31795E-3,2.713547E-2,6.462065E-2],"split_indices":[108,148,10,15,0,0,147,0,99,0,117,121,23,65,54,83,0,77,0,0,167,0,0,0,0,0,0,0,0],"split_type":[0,0,0,0,0,0,0,0,0,0,0,0,0,0,0,0,0,0,0,0,0,0,0,0,0,0,0,0,0],"sum_hessian":[1.0661453E3,7.649008E2,3.0124445E2,7.4985846E2,1.5042375E1,7.2857685E0,2.9395868E2,3.3331897E2,4.165395E2,3.4735723E0,2.904851E2,5.6652576E1,3.598869E2,2.8694016E2,3.5449543E0,4.8071587E1,8.580992E0,3.5285294E2,7.0339775E0,1.2949473E0,2.856452E2,2.211965E0,1.3329892E0,1.3685168E0,4.6703068E1,3.0221933E2,5.063358E1,5.5770397E0,2.8006815E2],"tree_param":{"num_deleted":"0","num_feature":"210","num_nodes":"29","size_leaf_vector":"1"}},{"base_weights":[5.9632794E-3,9.5174587E-1,-3.6092613E-2,-3.528672E-2,1.0894886E0,-1.2845062E-1,1.1577145E0,-3.443925E-2,5.711327E-2,1.1843703E0,-3.1120578E-2,1.2115655E0,-3.092815E-2,-1.7334026E-3,6.1862435E-2],"categories":[],"categories_nodes":[],"categories_segments":[],"categories_sizes":[],"default_left":[0,0,0,0,0,0,0,0,0,0,0,0,0,0,0],"id":8,"left_children":[1,3,-1,-1,5,7,9,-1,-1,11,-1,13,-1,-1,-1],"loss_changes":[7.329044E2,1.0647977E2,0E0,0E0,3.5704132E1,1.7589104E1,1.9968445E1,0E0,0E0,2.0345032E1,0E0,1.2655518E1,0E0,0E0,0E0],"parents":[2147483647,0,0,1,1,4,4,5,5,6,6,9,9,11,11],"right_children":[2,4,-1,-1,6,8,10,-1,-1,12,-1,14,-1,-1,-1],"split_conditions":[-5.2699065E-1,-5.570557E-1,-3.6092613E-2,-3.528672E-2,-8.057591E-1,9.917426E-1,1.3691117E0,-3.443925E-2,5.711327E-2,-1.5107097E-1,-3.1120578E-2,-1.0771955E0,-3.092815E-2,-1.7334026E-3,6.1862435E-2],"split_indices":[110,204,0,0,25,11,49,0,0,23,0,172,0,0,0],"split_type":[0,0,0,0,0,0,0,0,0,0,0,0,0,0,0],"sum_hessian":[1.0627202E3,4.6202267E2,6.0069745E2,3.5133415E1,4.2688928E2,2.2597914E1,4.0429135E2,1.6000359E1,6.5975556E0,3.9865652E2,5.6348467E0,3.9305573E2,5.600802E0,7.9297023E0,3.85126E2],"tree_param":{"num_deleted":"0","num_feature":"210","num_nodes":"15","size_leaf_vector":"1"}},{"base_weights":[5.1659886E-3,1.20845E0,-6.287652E-1,1.2197682E0,-2.438507E-2,1.0843399E0,-6.607202E-1,-8.79496E-4,6.1223466E-2,1.7396191E-2,5.7230514E-2,-6.8135375E-1,5.5309903E-2,4.7319964E-2,-6.8976355E-1,1.8710226E-2,-6.925499E-1,-3.4769982E-2,1.1277198E-3],"categories":[],"categories_nodes":[],"categories_segments":[],"categories_sizes":[],"default_left":[0,0,0,0,0,0,0,0,0,0,0,0,0,0,0,0,0,0,0],"id":9,"left_children":[1,3,5,7,-1,9,11,-1,-1,-1,-1,13,-1,-1,15,-1,17,-1,-1],"loss_changes":[8.0069745E2,7.5480347E0,3.83515E1,2.11615E0,0E0,1.7732716E-1,2.5381927E1,0E0,0E0,0E0,0E0,9.801849E0,0E0,0E0,2.2320862E0,0E0,1.3690491E0,0E0,0E0],"parents":[2147483647,0,0,1,1,2,2,3,3,5,5,6,6,11,11,14,14,16,16],"right_children":[2,4,6,8,-1,10,12,-1,-1,-1,-1,14,-1,-1,16,-1,18,-1,-1],"split_conditions":[-6.3075E-1,-5.585371E-1,-8.3491737E-1,-2.9605514E-1,-2.438507E-2,-6.0091287E-1,-1.2544362E-1,-8.79496E-4,6.1223466E-2,1.7396191E-2,5.7230514E-2,-7.637341E-1,5.5309903E-2,4.7319964E-2,-6.614824E-1,1.8710226E-2,9.46815E-1,-3.4769982E-2,1.1277198E-3],"split_indices":[41,6,114,75,0,20,156,0,0,0,0,202,0,0,76,0,5,0,0],"split_type":[0,0,0,0,0,0,0,0,0,0,0,0,0,0,0,0,0,0,0],"sum_hessian":[1.047687E3,3.611918E2,6.864953E2,3.5907657E2,2.1152122E0,1.1967824E1,6.7452747E2,1.3487285E0,3.5772784E2,1.4177467E0,1.0550077E1,6.6734875E2,7.178709E0,2.8568492E0,6.644919E2,1.3874736E0,6.6310443E2,6.604998E2,2.604596E0],"tree_param":{"num_deleted":"0","num_feature":"210","num_nodes":"19","size_leaf_vector":"1"}},{"base_weights":[1.3604027E-2,-4.6043998E-1,1.1086478E0,-3.543335E-2,-2.6370364E-1,-3.0829895E-2,1.1457781E0,8.720786E-1,-4.5201305E-1,-4.8496354E-1,1.1798378E0,1.1386933E0,-3.1936366E-2,-5.1216066E-1,5.7476956E-2,8.083549E-4,-3.0086726E-2,-2.782363E-2,1.1993171E0,-9.6579356E-4,1.1714588E0,-6.512862E-1,-2.8062914E-2,-2.097874E-2,1.2078272E0,2.85345E-2,6.0518093E-2,5.5390455E-2,-3.3492878E-2,6.664284E-2,-3.172314E-2,1.6482428E-2,6.0548123E-2],"categories":[],"categories_nodes":[],"categories_segments":[],"categories_sizes":[],"default_left":[0,0,0,0,0,0,0,0,0,0,0,0,0,0,0,0,0,0,0,0,0,0,0,0,0,0,0,0,0,0,0,0,0],"id":10,"left_children":[1,3,5,-1,7,-1,9,11,13,15,17,19,-1,21,-1,-1,-1,-1,23,-1,25,27,29,-1,31,-1,-1,-1,-1,-1,-1,-1,-1],"loss_changes":[5.424856E2,3.5431E1,2.0931244E1,0E0,8.7756256E1,0E0,1.7758148E1,2.4264114E1,3.4403633E1,4.216354E-1,1.0928345E1,1.9207764E0,0E0,2.2814766E1,0E0,0E0,0E0,0E0,4.6445007E0,0E0,4.466858E-1,9.343552E0,6.416474E1,0E0,4.2407227E-1,0E0,0E0,0E0,0E0,0E0,0E0,0E0,0E0],"parents":[2147483647,0,0,1,1,2,2,4,4,6,6,7,7,8,8,9,9,10,10,11,11,13,13,18,18,20,20,21,21,22,22,24,24],"right_children":[2,4,6,-1,8,-1,10,12,14,16,18,20,-1,22,-1,-1,-1,-1,24,-1,26,28,30,-1,32,-1,-1,-1,-1,-1,-1,-1,-1],"split_conditions":[5.1982105E-1,-7.1434605E-1,5.208988E-1,-3.543335E-2,-4.094783E-1,-3.0829895E-2,-8.3491737E-1,-6.513939E-2,1.8805408E0,-1.0339092E0,-7.4181557E-1,-6.678979E-1,-3.1936366E-2,1.263564E0,5.7476956E-2,8.083549E-4,-3.0086726E-2,-2.782363E-2,-6.8160564E-1,-9.6579356E-4,-3.4732366E-1,-1.289491E0,-9.903083E-1,-2.097874E-2,-1.061635E0,2.85345E-2,6.0518093E-2,5.5390455E-2,-3.3492878E-2,6.664284E-2,-3.172314E-2,1.6482428E-2,6.0548123E-2],"split_indices":[108,15,3,0,92,0,114,114,148,109,167,6,0,98,0,0,0,0,90,0,23,103,124,0,116,0,0,0,0,0,0,0,0],"split_type":[0,0,0,0,0,0,0,0,0,0,0,0,0,0,0,0,0,0,0,0,0,0,0,0,0,0,0,0,0,0,0,0,0],"sum_hessian":[1.043069E3,7.283473E2,3.147217E2,3.2088138E2,4.0746588E2,6.3018374E0,3.0841986E2,5.74325E1,3.500334E2,6.0390396E0,3.0238083E2,4.9026924E1,8.405573E0,3.38019E2,1.2014377E1,1.3040724E0,4.734967E0,3.0488603E0,2.9933197E2,1.3603239E0,4.7666603E1,2.6229294E2,7.5726074E1,1.3127131E0,2.9801926E2,3.851922E0,4.381468E1,2.127455E0,2.601655E2,2.2972284E1,5.275379E1,1.4377625E0,2.9658148E2],"tree_param":{"num_deleted":"0","num_feature":"210","num_nodes":"33","size_leaf_vector":"1"}},{"base_weights":[-1.0097863E-2,-6.646556E-1,9.4300884E-1,5.800615E-2,-3.5489284E-2,-3.4524303E-2,1.0613773E0,1.1804427E-1,1.1327883E0,5.743373E-2,-3.6025792E-2,-3.229374E-2,1.1508111E0,1.1681637E0,-2.7746184E-2,-2.9194612E-2,5.924476E-2],"categories":[],"categories_nodes":[],"categories_segments":[],"categories_sizes":[],"default_left":[0,0,0,0,0,0,0,0,0,0,0,0,0,0,0,0,0],"id":11,"left_children":[1,3,5,-1,-1,-1,7,9,11,-1,-1,-1,13,15,-1,-1,-1],"loss_changes":[6.5649817E2,5.219934E1,8.357568E1,0E0,0E0,0E0,2.6804962E1,2.6114054E1,1.2656677E1,0E0,0E0,0E0,1.1548553E1,1.1388275E1,0E0,0E0,0E0],"parents":[2147483647,0,0,1,1,2,2,6,6,7,7,8,8,12,12,13,13],"right_children":[2,4,6,-1,-1,-1,8,10,12,-1,-1,-1,14,16,-1,-1,-1],"split_conditions":[7.207342E-2,-1.3666866E0,-5.570557E-1,5.800615E-2,-3.5489284E-2,-3.4524303E-2,1.8604892E-1,-1.2417067E0,-4.9597642E-1,5.743373E-2,-3.6025792E-2,-3.229374E-2,-1.5107097E-1,-1.3422152E0,-2.7746184E-2,-2.9194612E-2,5.924476E-2],"split_indices":[120,47,204,0,0,0,186,12,44,0,0,0,23,159,0,0,0],"split_type":[0,0,0,0,0,0,0,0,0,0,0,0,0,0,0,0,0],"sum_hessian":[1.050306E3,6.228552E2,4.2745087E2,1.44362545E1,6.0841895E2,2.8555065E1,3.9889578E2,2.8258371E1,3.7063742E2,1.251142E1,1.574695E1,3.3684592E0,3.6726895E2,3.6388232E2,3.386642E0,3.1214385E0,3.6076086E2],"tree_param":{"num_deleted":"0","num_feature":"210","num_nodes":"17","size_leaf_vector":"1"}},{"base_weights":[6.397476E-3,1.126246E0,-6.329613E-1,1.1543622E0,-3.7211165E-1,7.425534E-1,-6.638865E-1,5.7835907E-2,1.6056126E-2,-3.0006243E-2,2.0531625E-2,-2.6617793E-2,5.4623492E-2,4.990458E-2,-6.778842E-1,3.7138995E-2,-6.82188E-1,-6.88087E-1,-2.0404774E-1,-3.4478776E-2,1.5253455E-3,4.8273303E-2,-3.0352248E-2],"categories":[],"categories_nodes":[],"categories_segments":[],"categories_sizes":[],"default_left":[0,0,0,0,0,0,0,0,0,0,0,0,0,0,0,0,0,0,0,0,0,0,0],"id":12,"left_children":[1,3,5,7,9,11,13,-1,-1,-1,-1,-1,-1,-1,15,-1,17,19,21,-1,-1,-1,-1],"loss_changes":[7.5008386E2,1.6469482E1,2.8861084E1,3.626709E-1,1.6330363E0,7.3338156E0,1.5862183E1,0E0,0E0,0E0,0E0,0E0,0E0,0E0,4.4680786E0,0E0,1.6829529E0,7.036133E-1,4.9692645E0,0E0,0E0,0E0,0E0],"parents":[2147483647,0,0,1,1,2,2,3,3,4,4,5,5,6,6,14,14,16,16,17,17,18,18],"right_children":[2,4,6,8,10,12,14,-1,-1,-1,-1,-1,-1,-1,16,-1,18,20,22,-1,-1,-1,-1],"split_conditions":[-7.539341E-1,5.77162E-1,3.8560995E-1,1.4095781E0,-2.7036437E-1,-3.2386997E-1,-8.3491737E-1,5.7835907E-2,1.6056126E-2,-3.0006243E-2,2.0531625E-2,-2.6617793E-2,5.4623492E-2,4.990458E-2,-6.270703E-1,3.7138995E-2,9.930905E-1,-1.0031011E-1,-3.223928E-1,-3.4478776E-2,1.5253455E-3,4.8273303E-2,-3.0352248E-2],"split_indices":[209,0,185,46,67,61,114,0,0,0,0,0,0,0,27,0,208,23,6,0,0,0,0],"split_type":[0,0,0,0,0,0,0,0,0,0,0,0,0,0,0,0,0,0,0,0,0,0,0],"sum_hessian":[1.0456295E3,3.797423E2,6.6588715E2,3.7297318E2,6.7691417E0,1.4135745E1,6.517514E2,3.715345E2,1.4386994E0,5.4227905E0,1.3463513E0,2.9319391E0,1.1203806E1,4.856255E0,6.4689514E2,1.4355412E0,6.454596E2,6.371596E2,8.299986E0,6.358829E2,1.2767823E0,1.7694008E0,6.5305853E0],"tree_param":{"num_deleted":"0","num_feature":"210","num_nodes":"23","size_leaf_vector":"1"}},{"base_weights":[7.560777E-3,-4.387E-1,1.0348916E0,-4.7513223E-1,5.5611696E-2,-3.1195229E-2,1.0786797E0,-3.4861337E-2,-2.9367974E-1,-2.9904881E-2,1.1063426E0,8.3128744E-1,-4.9626204E-1,-4.5863628E-1,1.1366864E0,1.0999516E0,-3.1700432E-2,5.8782767E-3,-6.399275E-1,1.0949944E-3,-2.9079115E-2,-2.3019893E-2,1.1474347E0,1.029802E-2,5.6426436E-2,6.449781E-2,-3.1153623E-2,-3.2742232E-2,5.2176517E-2,1.5149148E-2,5.7528295E-2],"categories":[],"categories_nodes":[],"categories_segments":[],"categories_sizes":[],"default_left":[0,0,0,0,0,0,0,0,0,0,0,0,0,0,0,0,0,0,0,0,0,0,0,0,0,0,0,0,0,0,0],"id":13,"left_children":[1,3,5,7,-1,-1,9,-1,11,-1,13,15,17,19,21,23,-1,25,27,-1,-1,-1,29,-1,-1,-1,-1,-1,-1,-1,-1],"loss_changes":[4.8165414E2,4.191469E1,2.3782654E1,2.866336E1,0E0,0E0,1.5056824E1,0E0,9.06531E1,0E0,1.5036194E1,2.463192E1,2.4255173E1,3.9830816E-1,5.680298E0,1.089489E0,0E0,6.200135E1,7.2476044E0,0E0,0E0,0E0,4.404297E-1,0E0,0E0,0E0,0E0,0E0,0E0,0E0,0E0],"parents":[2147483647,0,0,1,1,2,2,3,3,6,6,8,8,10,10,11,11,12,12,13,13,14,14,15,15,17,17,18,18,22,22],"right_children":[2,4,6,8,-1,-1,10,-1,12,-1,14,16,18,20,22,24,-1,26,28,-1,-1,-1,30,-1,-1,-1,-1,-1,-1,-1,-1],"split_conditions":[5.1982105E-1,1.8805408E0,5.1816714E-1,-7.217494E-1,5.5611696E-2,-3.1195229E-2,-7.4181557E-1,-3.4861337E-2,-3.960919E-1,-2.9904881E-2,-8.3491737E-1,-6.513939E-2,4.7680134E-1,5.9179574E-1,-6.8160564E-1,-6.678979E-1,-3.1700432E-2,-9.821697E-1,1.7012981E0,1.0949944E-3,-2.9079115E-2,-2.3019893E-2,-1.0552387E0,1.029802E-2,5.6426436E-2,6.449781E-2,-3.1153623E-2,-3.2742232E-2,5.2176517E-2,1.5149148E-2,5.7528295E-2],"split_indices":[108,148,10,22,0,0,167,0,85,0,114,114,10,31,90,6,0,117,137,0,0,0,102,0,0,0,0,0,0,0,0],"split_type":[0,0,0,0,0,0,0,0,0,0,0,0,0,0,0,0,0,0,0,0,0,0,0,0,0,0,0,0,0,0,0],"sum_hessian":[1.0486069E3,7.314475E2,3.1715945E2,7.153375E2,1.6110012E1,7.816165E0,3.093433E2,3.2036914E2,3.9496838E2,4.685936E0,3.0465735E2,5.9798065E1,3.3517032E2,5.5262628E0,2.9913107E2,5.07435E1,9.054566E0,7.477509E1,2.603952E2,1.2932911E0,4.2329717E0,1.7200171E0,2.9741107E2,1.8260267E0,4.8917473E1,2.4238445E1,5.0536644E1,2.5871375E2,1.6814548E0,1.4598843E0,2.9595117E2],"tree_param":{"num_deleted":"0","num_feature":"210","num_nodes":"31","size_leaf_vector":"1"}},{"base_weights":[-7.6554897E-3,8.502121E-1,-3.4896236E-2,-3.4049075E-2,9.5825857E-1,-3.256426E-2,1.002199E0,1.0289437E0,-3.168169E-2,-3.1077916E-2,1.0495417E0,5.6190867E-2,3.065528E-2],"categories":[],"categories_nodes":[],"categories_segments":[],"categories_sizes":[],"default_left":[0,0,0,0,0,0,0,0,0,0,0,0,0],"id":14,"left_children":[1,3,-1,-1,5,-1,7,9,-1,-1,11,-1,-1],"loss_changes":[6.205269E2,7.795187E1,0E0,0E0,3.1548737E1,0E0,1.927353E1,1.4902954E1,0E0,0E0,1.2743683E1,0E0,0E0],"parents":[2147483647,0,0,1,1,4,4,6,6,7,7,10,10],"right_children":[2,4,-1,-1,6,-1,8,10,-1,-1,12,-1,-1],"split_conditions":[-5.2699065E-1,-5.570557E-1,-3.4896236E-2,-3.4049075E-2,-1.6361555E-1,-3.256426E-2,1.3691117E0,-1.3422152E0,-3.168169E-2,-3.1077916E-2,1.6272649E0,5.6190867E-2,3.065528E-2],"split_indices":[110,204,0,0,106,0,49,159,0,0,123,0,0],"split_type":[0,0,0,0,0,0,0,0,0,0,0,0,0],"sum_hessian":[1.0459026E3,4.6623428E2,5.7966833E2,3.0381165E1,4.3585312E2,1.1215245E1,4.2463788E2,4.1817206E2,6.4658203E0,4.7947702E0,4.133773E2,3.519116E2,6.1465714E1],"tree_param":{"num_deleted":"0","num_feature":"210","num_nodes":"13","size_leaf_vector":"1"}},{"base_weights":[-1.3106762E-2,1.0822337E0,-6.071267E-1,1.0943259E0,-2.4965355E-2,7.8884465E-1,-6.458827E-1,1.0982226E0,2.3665628E-4,-2.594245E-2,5.2901056E-2,8.8144666E-1,-6.6338515E-1,5.4998625E-2,1.8569825E-2,1.5177587E-2,4.8241064E-2,3.9052736E-2,-6.68943E-1,-6.730857E-1,-8.910975E-2,2.1270344E-3,-3.3798072E-2,-2.7368862E-2,3.854404E-2],"categories":[],"categories_nodes":[],"categories_segments":[],"categories_sizes":[],"default_left":[0,0,0,0,0,0,0,0,0,0,0,0,0,0,0,0,0,0,0,0,0,0,0,0,0],"id":15,"left_children":[1,3,5,7,-1,9,11,13,-1,-1,-1,15,17,-1,-1,-1,-1,-1,19,21,23,-1,-1,-1,-1],"loss_changes":[6.7621765E2,7.5352783E0,3.6965485E1,1.5359802E0,0E0,7.114586E0,1.8125854E1,5.1483154E-2,0E0,0E0,0E0,8.6016655E-2,5.735199E0,0E0,0E0,0E0,0E0,0E0,1.4950562E0,1.3512573E0,2.6860926E0,0E0,0E0,0E0,0E0],"parents":[2147483647,0,0,1,1,2,2,3,3,5,5,6,6,7,7,11,11,12,12,18,18,19,19,20,20],"right_children":[2,4,6,8,-1,10,12,14,-1,-1,-1,16,18,-1,-1,-1,-1,-1,20,22,24,-1,-1,-1,-1],"split_conditions":[-6.6277236E-1,-5.207576E-1,3.7749666E-1,5.852468E-1,-2.4965355E-2,-3.2386997E-1,-8.3491737E-1,-6.6836333E-1,2.3665628E-4,-2.594245E-2,5.2901056E-2,-1.0560216E0,-7.6267904E-1,5.4998625E-2,1.8569825E-2,1.5177587E-2,4.8241064E-2,3.9052736E-2,9.46815E-1,-1.0520838E0,-7.054237E-1,2.1270344E-3,-3.3798072E-2,-2.7368862E-2,3.854404E-2],"split_indices":[83,13,171,164,0,61,114,90,0,0,0,81,181,0,0,0,0,0,5,102,2,0,0,0,0],"split_type":[0,0,0,0,0,0,0,0,0,0,0,0,0,0,0,0,0,0,0,0,0,0,0,0,0],"sum_hessian":[1.0372792E3,3.6444348E2,6.7283575E2,3.6198386E2,2.459627E0,1.7652348E1,6.551834E2,3.6068604E2,1.297822E0,2.8549738E0,1.4797373E1,6.8637657E0,6.4831964E2,3.593076E2,1.3784378E0,1.4505279E0,5.4132376E0,1.9501857E0,6.4636945E2,6.4162445E2,4.744981E0,2.5128903E0,6.391116E2,3.3326194E0,1.4123616E0],"tree_param":{"num_deleted":"0","num_feature":"210","num_nodes":"25","size_leaf_vector":"1"}},{"base_weights":[3.5848995E-3,-4.2477533E-1,9.9212486E-1,-4.587244E-1,5.2791145E-2,-2.9741412E-2,1.02565E0,-3.4314767E-2,-2.835466E-1,-2.952267E-2,1.0546294E0,8.369399E-1,-4.9345392E-1,-4.1252196E-1,1.0774834E0,1.0487621E0,-3.068243E-2,-6.301564E-1,1.9533366E-3,-2.7316287E-2,-1.6944397E-4,-1.3863636E-3,1.0826751E0,1.2625778E-2,5.477361E-2,5.5185832E-2,-3.2430984E-2,6.149682E-2,-3.136272E-2,5.428494E-2,1.4394606E-2],"categories":[],"categories_nodes":[],"categories_segments":[],"categories_sizes":[],"default_left":[0,0,0,0,0,0,0,0,0,0,0,0,0,0,0,0,0,0,0,0,0,0,0,0,0,0,0,0,0,0,0],"id":16,"left_children":[1,3,5,7,-1,-1,9,-1,11,-1,13,15,17,19,21,23,-1,25,27,-1,-1,-1,29,-1,-1,-1,-1,-1,-1,-1,-1],"loss_changes":[4.3335748E2,3.6373764E1,1.707071E1,2.7659256E1,0E0,0E0,1.4830139E1,0E0,9.366897E1,0E0,1.0449066E1,1.9979847E1,2.2659393E1,2.8827167E-1,1.7174377E0,1.7794113E0,0E0,9.110245E0,5.74475E1,0E0,0E0,0E0,3.9086914E-1,0E0,0E0,0E0,0E0,0E0,0E0,0E0,0E0],"parents":[2147483647,0,0,1,1,2,2,3,3,6,6,8,8,10,10,11,11,12,12,13,13,14,14,15,15,17,17,18,18,22,22],"right_children":[2,4,6,8,-1,-1,10,-1,12,-1,14,16,18,20,22,24,-1,26,28,-1,-1,-1,30,-1,-1,-1,-1,-1,-1,-1,-1],"split_conditions":[5.1982105E-1,1.8805408E0,5.208988E-1,-7.1714354E-1,5.2791145E-2,-2.9741412E-2,-8.3491737E-1,-3.4314767E-2,-2.6275557E-1,-2.952267E-2,-7.4722815E-1,-6.513939E-2,1.263564E0,-5.396627E-1,-6.770616E-1,-1.1232853E0,-3.068243E-2,-1.289491E0,-9.821697E-1,-2.7316287E-2,-1.6944397E-4,-1.3863636E-3,9.353482E-1,1.2625778E-2,5.477361E-2,5.5185832E-2,-3.2430984E-2,6.149682E-2,-3.136272E-2,5.428494E-2,1.4394606E-2],"split_indices":[108,148,3,22,0,0,114,0,106,0,174,114,98,88,90,25,0,103,117,0,0,0,117,0,0,0,0,0,0,0,0],"split_type":[0,0,0,0,0,0,0,0,0,0,0,0,0,0,0,0,0,0,0,0,0,0,0,0,0,0,0,0,0,0,0],"sum_hessian":[1.0213989E3,7.130053E2,3.0839355E2,6.976978E2,1.5307551E1,6.033801E0,3.0235977E2,3.021985E2,3.954993E2,4.984995E0,2.973748E2,6.192991E1,3.3356937E2,4.2996736E0,2.930751E2,5.4280594E1,7.6493163E0,2.6121722E2,7.2352165E1,2.9873567E0,1.3123169E0,1.349988E0,2.917251E2,3.3627787E0,5.0917816E1,2.1329644E0,2.5908426E2,2.418912E1,4.8163044E1,2.9025485E2,1.4702641E0],"tree_param":{"num_deleted":"0","num_feature":"210","num_nodes":"31","size_leaf_vector":"1"}},{"base_weights":[-5.995822E-3,8.087818E-1,-3.4343157E-2,-3.3498604E-2,9.177078E-1,-3.2341965E-2,9.658439E-1,9.8989064E-1,-3.0886373E-2,-3.174523E-2,1.0119957E0,5.1398933E-2,-2.8207857E-2],"categories":[],"categories_nodes":[],"categories_segments":[],"categories_sizes":[],"default_left":[0,0,0,0,0,0,0,0,0,0,0,0,0],"id":17,"left_children":[1,3,-1,-1,5,-1,7,9,-1,-1,11,-1,-1],"loss_changes":[5.6855035E2,7.576538E1,0E0,0E0,3.3382843E1,0E0,1.6695831E1,1.5599976E1,0E0,0E0,1.0940002E1,0E0,0E0],"parents":[2147483647,0,0,1,1,4,4,6,6,7,7,10,10],"right_children":[2,4,-1,-1,6,-1,8,10,-1,-1,12,-1,-1],"split_conditions":[-5.2699065E-1,-5.570557E-1,-3.4343157E-2,-3.3498604E-2,-1.6361555E-1,-3.2341965E-2,1.3691117E0,-1.3071569E0,-3.0886373E-2,-3.174523E-2,-1.5107097E-1,5.1398933E-2,-2.8207857E-2],"split_indices":[110,204,0,0,106,0,49,138,0,0,23,0,0],"split_type":[0,0,0,0,0,0,0,0,0,0,0,0,0],"sum_hessian":[1.0228653E3,4.655568E2,5.5730853E2,3.1587103E1,4.3396967E2,1.2582085E1,4.213876E2,4.154538E2,5.933801E0,5.204219E0,4.1024957E2,4.064755E2,3.7740793E0],"tree_param":{"num_deleted":"0","num_feature":"210","num_nodes":"13","size_leaf_vector":"1"}},{"base_weights":[-1.502015E-3,1.0192693E0,-5.990554E-1,1.0404315E0,-2.1359304E-1,7.233086E-1,-6.342555E-1,5.2454382E-2,4.3781435E-1,3.547177E-2,-2.8471619E-2,-2.5888536E-2,5.0214883E-2,4.784197E-2,-6.5217173E-1,-2.4652071E-2,4.715557E-2,-6.5657854E-1,3.7312917E-2,3.420117E-2,-6.608521E-1,-3.3194665E-2,2.1924652E-2],"categories":[],"categories_nodes":[],"categories_segments":[],"categories_sizes":[],"default_left":[0,0,0,0,0,0,0,0,0,0,0,0,0,0,0,0,0,0,0,0,0,0,0],"id":18,"left_children":[1,3,5,7,9,11,13,-1,15,-1,-1,-1,-1,-1,17,-1,-1,19,-1,-1,21,-1,-1],"loss_changes":[6.265651E2,1.0117981E1,3.0617844E1,1.4866943E0,2.7787914E0,6.541546E0,1.8630249E1,0E0,3.7570758E0,0E0,0E0,0E0,0E0,0E0,4.3428955E0,0E0,0E0,4.0257874E0,0E0,0E0,2.371704E0,0E0,0E0],"parents":[2147483647,0,0,1,1,2,2,3,3,4,4,5,5,6,6,8,8,14,14,17,17,20,20],"right_children":[2,4,6,8,10,12,14,-1,16,-1,-1,-1,-1,-1,18,-1,-1,20,-1,-1,22,-1,-1],"split_conditions":[-7.539341E-1,5.77162E-1,3.8560995E-1,5.57735E-1,-7.522635E-1,-3.2386997E-1,-8.3491737E-1,5.2454382E-2,5.866249E-1,3.547177E-2,-2.8471619E-2,-2.5888536E-2,5.0214883E-2,4.784197E-2,9.752237E-1,-2.4652071E-2,4.715557E-2,-6.8160564E-1,3.7312917E-2,3.420117E-2,1.0864967E0,-3.3194665E-2,2.1924652E-2],"split_indices":[209,0,185,185,1,61,114,0,3,0,0,0,0,0,12,0,0,90,0,0,208,0,0],"split_type":[0,0,0,0,0,0,0,0,0,0,0,0,0,0,0,0,0,0,0,0,0,0,0],"sum_hessian":[1.0252133E3,3.7829114E2,6.4692206E2,3.7206076E2,6.230376E0,1.6267105E1,6.3065497E2,3.6606168E2,5.999091E0,1.4570833E0,4.7732925E0,2.847504E0,1.3419601E1,6.438758E0,6.242162E2,2.1192582E0,3.8798332E0,6.227842E2,1.4320557E0,1.4735591E0,6.213106E2,6.199916E2,1.3190142E0],"tree_param":{"num_deleted":"0","num_feature":"210","num_nodes":"23","size_leaf_vector":"1"}},{"base_weights":[-3.3114466E-3,-4.0408143E-1,9.504663E-1,-4.4432765E-1,5.0942738E-2,9.8100996E-1,-2.8906895E-2,-3.379833E-2,-2.6147383E-1,-4.156987E-1,1.0061892E0,7.920495E-1,-4.6045205E-1,-2.7406817E-2,2.0926404E-3,-2.7304798E-2,1.0260592E0,9.9387586E-1,-3.0195354E-2,2.0322355E-2,-6.009901E-1,-1.9955415E-2,1.0337815E0,1.9146848E-2,5.1396947E-2,5.938369E-2,-2.9130826E-2,-3.165931E-2,5.4294493E-2,1.3317727E-2,5.184287E-2],"categories":[],"categories_nodes":[],"categories_segments":[],"categories_sizes":[],"default_left":[0,0,0,0,0,0,0,0,0,0,0,0,0,0,0,0,0,0,0,0,0,0,0,0,0,0,0,0,0,0,0],"id":19,"left_children":[1,3,5,7,-1,9,-1,-1,11,13,15,17,19,-1,-1,-1,21,23,-1,25,27,-1,29,-1,-1,-1,-1,-1,-1,-1,-1],"loss_changes":[3.869094E2,4.126834E1,1.4549683E1,2.921022E1,0E0,1.0757141E1,0E0,0E0,8.198654E1,3.8128912E-1,9.47641E0,1.8131226E1,2.2183739E1,0E0,0E0,0E0,3.5576172E0,7.455673E-1,0E0,5.361468E1,1.4479797E1,0E0,3.9541626E-1,0E0,0E0,0E0,0E0,0E0,0E0,0E0,0E0],"parents":[2147483647,0,0,1,1,2,2,3,3,5,5,8,8,9,9,10,10,11,11,12,12,16,16,17,17,19,19,20,20,22,22],"right_children":[2,4,6,8,-1,10,-1,-1,12,14,16,18,20,-1,-1,-1,22,24,-1,26,28,-1,30,-1,-1,-1,-1,-1,-1,-1,-1],"split_conditions":[5.2151835E-1,1.8805408E0,5.9251606E-1,-7.167987E-1,5.0942738E-2,-8.3491737E-1,-2.8906895E-2,-3.379833E-2,-2.6275557E-1,-4.3435204E-1,-7.4181557E-1,-6.513939E-2,4.7680134E-1,-2.7406817E-2,2.0926404E-3,-2.7304798E-2,-6.8160564E-1,-3.6019474E-1,-3.0195354E-2,-9.821697E-1,1.7012981E0,-1.9955415E-2,-3.5602203E-1,1.9146848E-2,5.1396947E-2,5.938369E-2,-2.9130826E-2,-3.165931E-2,5.4294493E-2,1.3317727E-2,5.184287E-2],"split_indices":[94,148,169,15,0,114,0,0,106,46,167,114,10,0,0,0,90,2,0,117,137,0,0,0,0,0,0,0,0,0,0],"split_type":[0,0,0,0,0,0,0,0,0,0,0,0,0,0,0,0,0,0,0,0,0,0,0,0,0,0,0,0,0,0,0],"sum_hessian":[1.0101965E3,7.117155E2,2.98481E2,6.928079E2,1.8907589E1,2.9298495E2,5.496019E0,3.044431E2,3.8836478E2,4.9136224E0,2.8807135E2,6.122392E1,3.2714087E2,3.6571016E0,1.2565205E0,3.3061204E0,2.8476523E2,5.3741978E1,7.4819407E0,7.419125E1,2.529496E2,1.2615657E0,2.8350366E2,3.4846697E0,5.025731E1,2.4938316E1,4.925294E1,2.4882513E2,4.1244774E0,1.4814385E0,2.8202222E2],"tree_param":{"num_deleted":"0","num_feature":"210","num_nodes":"31","size_leaf_vector":"1"}},{"base_weights":[7.7759456E-3,7.836169E-1,-3.383678E-2,-3.3117205E-2,8.884899E-1,-3.0929198E-2,9.198649E-1,-3.1593774E-2,9.4103175E-1,9.597201E-1,-3.125439E-2,-2.99489E-2,4.8633263E-2],"categories":[],"categories_nodes":[],"categories_segments":[],"categories_sizes":[],"default_left":[0,0,0,0,0,0,0,0,0,0,0,0,0],"id":20,"left_children":[1,3,-1,-1,5,-1,7,-1,9,11,-1,-1,-1],"loss_changes":[5.44705E2,7.349179E1,0E0,0E0,2.1784332E1,0E0,1.50442505E1,0E0,1.3314209E1,9.252472E0,0E0,0E0,0E0],"parents":[2147483647,0,0,1,1,4,4,6,6,8,8,9,9],"right_children":[2,4,-1,-1,6,-1,8,-1,10,12,-1,-1,-1],"split_conditions":[-5.2699065E-1,-5.570557E-1,-3.383678E-2,-3.3117205E-2,-2.6303002E-1,-3.0929198E-2,-1.3071569E0,-3.1593774E-2,1.3785783E0,-1.3422152E0,-3.125439E-2,-2.99489E-2,4.8633263E-2],"split_indices":[110,204,0,0,99,0,138,0,63,159,0,0,0],"split_type":[0,0,0,0,0,0,0,0,0,0,0,0,0],"sum_hessian":[1.02367206E3,4.7975827E2,5.4391376E2,3.2083527E1,4.4767474E2,8.748149E0,4.389266E2,5.5184393E0,4.3340814E2,4.2867996E2,4.728188E0,3.1580298E0,4.2552194E2],"tree_param":{"num_deleted":"0","num_feature":"210","num_nodes":"13","size_leaf_vector":"1"}},{"base_weights":[4.12701E-3,9.778788E-1,-5.8958274E-1,1.0005219E0,-1.713665E-1,7.085348E-1,-6.2669295E-1,-8.8135956E-4,5.0207794E-2,-2.9003842E-2,3.6728714E-2,-2.4957541E-2,4.8122507E-2,5.481341E-1,-6.4613295E-1,-2.4639172E-2,4.6081014E-2,-6.5060204E-1,3.4915496E-2,-6.5349984E-1,-1.5498447E-1,-3.2751735E-2,2.121533E-3,1.09170005E-2,-2.2685803E-2],"categories":[],"categories_nodes":[],"categories_segments":[],"categories_sizes":[],"default_left":[0,0,0,0,0,0,0,0,0,0,0,0,0,0,0,0,0,0,0,0,0,0,0,0,0],"id":21,"left_children":[1,3,5,7,9,11,13,-1,-1,-1,-1,-1,-1,15,17,-1,-1,19,-1,21,23,-1,-1,-1,-1],"loss_changes":[5.774594E2,1.0016632E1,3.0336441E1,1.3909912E0,3.4489334E0,5.912856E0,1.414415E1,0E0,0E0,0E0,0E0,0E0,0E0,4.4855185E0,4.025955E0,0E0,0E0,7.5035095E-1,0E0,6.571808E-1,6.296715E-1,0E0,0E0,0E0,0E0],"parents":[2147483647,0,0,1,1,2,2,3,3,4,4,5,5,6,6,13,13,14,14,17,17,19,19,20,20],"right_children":[2,4,6,8,10,12,14,-1,-1,-1,-1,-1,-1,16,18,-1,-1,20,-1,22,24,-1,-1,-1,-1],"split_conditions":[-6.121015E-1,5.727395E-1,3.8488576E-1,-2.6599836E-1,-7.5563824E-1,-3.242309E-1,-8.7937444E-1,-8.8135956E-4,5.0207794E-2,-2.9003842E-2,3.6728714E-2,-2.4957541E-2,4.8122507E-2,-6.0091287E-1,1.1348562E0,-2.4639172E-2,4.6081014E-2,9.46815E-1,3.4915496E-2,9.591912E-1,-7.525054E-1,-3.2751735E-2,2.121533E-3,1.09170005E-2,-2.2685803E-2],"split_indices":[27,87,192,75,2,19,72,0,0,0,0,0,0,20,201,0,0,5,0,61,1,0,0,0,0],"split_type":[0,0,0,0,0,0,0,0,0,0,0,0,0,0,0,0,0,0,0,0,0,0,0,0,0],"sum_hessian":[9.968498E2,3.773332E2,6.195166E2,3.701693E2,7.1638956E0,1.6715479E1,6.0280115E2,1.3027915E0,3.6886652E2,5.184592E0,1.979304E0,2.736096E0,1.3979383E1,9.369568E0,5.934316E2,2.3897755E0,6.9797926E0,5.919798E2,1.451731E0,5.8822205E2,3.757792E0,5.869862E2,1.235815E0,1.7899739E0,1.9678183E0],"tree_param":{"num_deleted":"0","num_feature":"210","num_nodes":"25","size_leaf_vector":"1"}},{"base_weights":[3.087978E-3,-4.2787015E-1,9.2082477E-1,-6.421839E-1,-2.1434917E-1,-4.7100255E-1,9.511827E-1,-6.4973235E-1,3.1659942E-2,-4.4522354E-1,6.417779E-1,2.1269845E-3,-2.9067576E-2,-2.810727E-2,9.7760224E-1,-3.309177E-2,-2.8996444E-1,-5.1430523E-1,5.238807E-2,9.0269256E-1,-3.13378E-2,-2.5605569E-2,9.9305767E-1,-3.0505115E-2,3.647256E-2,-5.86252E-1,4.7417246E-2,9.982472E-1,-2.627464E-2,6.526038E-3,9.9808013E-1,-3.0198848E-2,4.2272903E-2,5.16704E-2,2.1116398E-2,5.0033737E-2,2.0070132E-2],"categories":[],"categories_nodes":[],"categories_segments":[],"categories_sizes":[],"default_left":[0,0,0,0,0,0,0,0,0,0,0,0,0,0,0,0,0,0,0,0,0,0,0,0,0,0,0,0,0,0,0,0,0,0,0,0,0],"id":22,"left_children":[1,3,5,7,9,11,13,15,-1,17,19,-1,-1,-1,21,-1,23,25,-1,27,-1,-1,29,-1,-1,31,-1,33,-1,-1,35,-1,-1,-1,-1,-1,-1],"loss_changes":[3.943289E2,3.0908203E1,1.390921E1,3.666275E0,6.775636E1,4.48009E-1,1.3028381E1,1.2737122E0,0E0,2.8328335E1,2.4697784E1,0E0,0E0,0E0,7.579834E0,0E0,4.601065E0,2.7726547E1,0E0,8.833206E0,0E0,0E0,1.1880493E0,0E0,0E0,6.771332E0,0E0,7.260895E-1,0E0,0E0,6.64978E-2,0E0,0E0,0E0,0E0,0E0,0E0],"parents":[2147483647,0,0,1,1,2,2,3,3,4,4,5,5,6,6,7,7,9,9,10,10,14,14,16,16,17,17,19,19,22,22,25,25,27,27,30,30],"right_children":[2,4,6,8,10,12,14,16,-1,18,20,-1,-1,-1,22,-1,24,26,-1,28,-1,-1,30,-1,-1,32,-1,34,-1,-1,36,-1,-1,-1,-1,-1,-1],"split_conditions":[5.1982105E-1,-5.3422284E-1,-8.3491737E-1,-2.3744881E-1,-3.2098165E-1,-7.493551E-1,-1.3088844E0,-4.1967887E-1,3.1659942E-2,-2.6748952E-1,1.4433364E0,2.1269845E-3,-2.9067576E-2,-2.810727E-2,-7.637341E-1,-3.309177E-2,6.9687164E-1,1.8805408E0,5.238807E-2,-1.0460261E-1,-3.13378E-2,-2.5605569E-2,-7.4722815E-1,-3.0505115E-2,3.647256E-2,1.3691117E0,4.7417246E-2,-8.7994464E-2,-2.627464E-2,6.526038E-3,9.353482E-1,-3.0198848E-2,4.2272903E-2,5.16704E-2,2.1116398E-2,5.0033737E-2,2.0070132E-2],"split_indices":[108,22,114,1,198,202,82,6,0,72,119,0,0,0,202,0,0,148,0,107,0,0,174,0,0,49,0,5,0,0,117,0,0,0,0,0,0],"split_type":[0,0,0,0,0,0,0,0,0,0,0,0,0,0,0,0,0,0,0,0,0,0,0,0,0,0,0,0,0,0,0,0,0,0,0,0,0],"sum_hessian":[9.950273E2,6.774423E2,3.17585E2,3.370916E2,3.403507E2,6.469332E0,3.1111563E2,3.3559592E2,1.4956881E0,2.6843973E2,7.1910995E1,1.2529318E0,5.2164E0,4.9902964E0,3.0612534E2,3.238612E2,1.1734733E1,2.571946E2,1.1245101E1,5.988261E1,1.2028383E1,2.8134012E0,3.0331195E2,9.235826E0,2.4989066E0,2.4570761E2,1.1487003E1,5.6409496E1,3.4731145E0,1.91217E0,3.0139978E2,2.4327396E2,2.4336529E0,5.2415115E1,3.9943826E0,2.9942072E2,1.9790485E0],"tree_param":{"num_deleted":"0","num_feature":"210","num_nodes":"37","size_leaf_vector":"1"}},{"base_weights":[-5.312294E-3,7.4663496E-1,-3.3351522E-2,-3.2499384E-2,8.323E-1,-3.1196931E-2,8.7109655E-1,9.073922E-1,-6.0414724E-2,9.29984E-1,-3.0373115E-2,-3.5450723E-2,4.4435907E-2,-2.9570926E-2,4.73405E-2],"categories":[],"categories_nodes":[],"categories_segments":[],"categories_sizes":[],"default_left":[0,0,0,0,0,0,0,0,0,0,0,0,0,0,0],"id":23,"left_children":[1,3,-1,-1,5,-1,7,9,11,13,-1,-1,-1,-1,-1],"loss_changes":[5.0659015E2,5.7558533E1,0E0,0E0,2.593695E1,0E0,1.4870972E1,1.5001862E1,1.1324512E1,1.1210358E1,0E0,0E0,0E0,0E0,0E0],"parents":[2147483647,0,0,1,1,4,4,6,6,7,7,8,8,9,9],"right_children":[2,4,-1,-1,6,-1,8,10,12,14,-1,-1,-1,-1,-1],"split_conditions":[-5.2699065E-1,-5.570557E-1,-3.3351522E-2,-3.2499384E-2,-1.6361555E-1,-3.1196931E-2,1.605473E0,1.3691117E0,1.6743715E0,-1.3422152E0,-3.0373115E-2,-3.5450723E-2,4.4435907E-2,-2.9570926E-2,4.73405E-2],"split_indices":[110,204,0,0,106,0,144,49,1,159,0,0,0,0,0],"split_type":[0,0,0,0,0,0,0,0,0,0,0,0,0,0,0],"sum_hessian":[1.0161129E3,4.75569E2,5.4054395E2,2.7103592E1,4.484654E2,1.1246388E1,4.37219E2,4.208469E2,1.6372108E1,4.1504324E2,5.8036575E0,9.876136E0,6.495972E0,4.166443E0,4.108768E2],"tree_param":{"num_deleted":"0","num_feature":"210","num_nodes":"15","size_leaf_vector":"1"}},{"base_weights":[7.783313E-3,9.074749E-1,-6.058591E-1,9.6079403E-1,-1.3327083E-1,4.2686794E-2,-6.22428E-1,-2.7377673E-3,4.8227463E-2,-3.1354837E-2,8.214728E-1,-6.351097E-1,4.088875E-2,1.3921029E-2,4.5326687E-2,3.307413E-1,-6.4247805E-1,3.885936E-2,-2.0500796E-2,-6.458066E-1,1.0595358E-2,-1.6768834E-2,-3.254008E-2],"categories":[],"categories_nodes":[],"categories_segments":[],"categories_sizes":[],"default_left":[0,0,0,0,0,0,0,0,0,0,0,0,0,0,0,0,0,0,0,0,0,0,0],"id":24,"left_children":[1,3,5,7,9,-1,11,-1,-1,-1,13,15,-1,-1,-1,17,19,-1,-1,21,-1,-1,-1],"loss_changes":[5.4403235E2,2.2300812E1,1.469931E1,1.5028076E0,1.0110258E1,0E0,1.1109756E1,0E0,0E0,0E0,8.807516E-2,4.307068E0,0E0,0E0,0E0,1.9775455E0,1.7616425E0,0E0,0E0,6.645813E-1,0E0,0E0,0E0],"parents":[2147483647,0,0,1,1,2,2,3,3,4,4,6,6,10,10,11,11,15,15,16,16,19,19],"right_children":[2,4,6,8,10,-1,12,-1,-1,-1,14,16,-1,-1,-1,18,20,-1,-1,22,-1,-1,-1],"split_conditions":[-6.17021E-1,5.452793E-1,-8.9791614E-1,-6.3569367E-1,7.2763795E-1,4.2686794E-2,-1.0254831E-1,-2.7377673E-3,4.8227463E-2,-3.1354837E-2,-1.0393758E0,-7.671908E-1,4.088875E-2,1.3921029E-2,4.5326687E-2,5.7951945E-1,1.0536364E0,3.885936E-2,-2.0500796E-2,-7.250616E-1,1.0595358E-2,-1.6768834E-2,-3.254008E-2],"split_indices":[48,199,72,61,40,0,114,0,0,0,67,209,0,0,0,3,201,0,0,114,0,0,0],"split_type":[0,0,0,0,0,0,0,0,0,0,0,0,0,0,0,0,0,0,0,0,0,0,0],"sum_hessian":[9.8341125E2,3.9856967E2,5.8484155E2,3.792185E2,1.9351177E1,5.9973016E0,5.7884424E2,1.3470454E0,3.7787146E2,1.29804325E1,6.3707438E0,5.743459E2,4.498383E0,1.4414321E0,4.9293113E0,4.0161657E0,5.703297E2,2.475207E0,1.5409584E0,5.683596E2,1.970126E0,1.0079344E1,5.582803E2],"tree_param":{"num_deleted":"0","num_feature":"210","num_nodes":"23","size_leaf_vector":"1"}},{"base_weights":[-6.450085E-3,-4.2975208E-1,8.6684865E-1,-4.5873037E-1,4.603285E-2,-2.9021222E-2,8.9917076E-1,-3.285557E-2,-3.0255443E-1,-2.8721958E-2,9.213976E-1,7.335267E-1,-4.884477E-1,-3.2840127E-1,9.368735E-1,9.3265826E-1,-2.915208E-2,-6.212468E-2,-6.0763997E-1,2.4032874E-3,-2.4073387E-2,-2.4135305E-2,9.479506E-1,8.779528E-3,4.7913667E-2,5.5323966E-2,-2.9144613E-2,5.9171017E-2,-3.155461E-2,8.804905E-3,4.759784E-2],"categories":[],"categories_nodes":[],"categories_segments":[],"categories_sizes":[],"default_left":[0,0,0,0,0,0,0,0,0,0,0,0,0,0,0,0,0,0,0,0,0,0,0,0,0,0,0,0,0,0,0],"id":25,"left_children":[1,3,5,7,-1,-1,9,-1,11,-1,13,15,17,19,21,23,-1,25,27,-1,-1,-1,29,-1,-1,-1,-1,-1,-1,-1,-1],"loss_changes":[3.6999625E2,2.68022E1,1.5807495E1,2.0268768E1,0E0,0E0,1.1010956E1,0E0,7.190604E1,0E0,6.412781E0,1.5464319E1,1.5997803E1,2.8828204E-1,5.364441E0,7.9785156E-1,0E0,4.328419E1,1.1101196E1,0E0,0E0,0E0,7.908325E-1,0E0,0E0,0E0,0E0,0E0,0E0,0E0,0E0],"parents":[2147483647,0,0,1,1,2,2,3,3,6,6,8,8,10,10,11,11,12,12,13,13,14,14,15,15,17,17,18,18,22,22],"right_children":[2,4,6,8,-1,-1,10,-1,12,-1,14,16,18,20,22,24,-1,26,28,-1,-1,-1,30,-1,-1,-1,-1,-1,-1,-1,-1],"split_conditions":[5.1982105E-1,1.8805408E0,5.208988E-1,-7.1030277E-1,4.603285E-2,-2.9021222E-2,-6.171127E-1,-3.285557E-2,-4.0267906E-1,-2.8721958E-2,-8.3491737E-1,-6.513939E-2,4.7680134E-1,6.0098165E-1,-6.6371065E-1,-6.678979E-1,-2.915208E-2,-9.903083E-1,-1.289491E0,2.4032874E-3,-2.4073387E-2,-2.4135305E-2,-7.627611E-1,8.779528E-3,4.7913667E-2,5.5323966E-2,-2.9144613E-2,5.9171017E-2,-3.155461E-2,8.804905E-3,4.759784E-2],"split_indices":[108,148,3,15,0,0,147,0,99,0,114,114,10,45,69,6,0,124,103,0,0,0,202,0,0,0,0,0,0,0,0],"split_type":[0,0,0,0,0,0,0,0,0,0,0,0,0,0,0,0,0,0,0,0,0,0,0,0,0,0,0,0,0,0,0],"sum_hessian":[9.988773E2,6.7311536E2,3.2576196E2,6.596209E2,1.3494443E1,6.7459188E0,3.1901605E2,2.8913824E2,3.7048267E2,4.3711424E0,3.1464493E2,5.5911648E1,3.14571E2,3.6011686E0,3.1104376E2,4.8819305E1,7.0923424E0,6.9064514E1,2.455065E2,1.2392397E0,2.361929E0,2.0786524E0,3.089651E2,1.8547969E0,4.6964508E1,2.09432E1,4.8121315E1,2.533853E0,2.4297266E2,1.8274969E0,3.071376E2],"tree_param":{"num_deleted":"0","num_feature":"210","num_nodes":"31","size_leaf_vector":"1"}},{"base_weights":[-7.0126234E-3,7.200382E-1,-3.2894902E-2,-3.2058924E-2,8.092929E-1,-3.0424163E-2,8.4226006E-1,8.6446685E-1,-3.0062566E-2,8.822454E-1,-2.973679E-2,4.492442E-2,-3.377268E-2],"categories":[],"categories_nodes":[],"categories_segments":[],"categories_sizes":[],"default_left":[0,0,0,0,0,0,0,0,0,0,0,0,0],"id":26,"left_children":[1,3,-1,-1,5,-1,7,9,-1,11,-1,-1,-1],"loss_changes":[4.65955E2,5.7027237E1,0E0,0E0,2.0934692E1,0E0,1.4221008E1,1.1455719E1,0E0,1.114975E1,0E0,0E0,0E0],"parents":[2147483647,0,0,1,1,4,4,6,6,7,7,9,9],"right_children":[2,4,-1,-1,6,-1,8,10,-1,12,-1,-1,-1],"split_conditions":[-5.2699065E-1,-5.570557E-1,-3.2894902E-2,-3.2058924E-2,-1.6361555E-1,-3.0424163E-2,1.3691117E0,-1.5107097E-1,-3.0062566E-2,1.7012981E0,-2.973679E-2,4.492442E-2,-3.377268E-2],"split_indices":[110,204,0,0,106,0,49,23,0,137,0,0,0],"split_type":[0,0,0,0,0,0,0,0,0,0,0,0,0],"sum_hessian":[9.826326E2,4.641086E2,5.18524E2,2.8178392E1,4.359302E2,9.509522E0,4.264207E2,4.2035516E2,6.0655503E0,4.1568594E2,4.669218E0,4.118149E2,3.8710139E0],"tree_param":{"num_deleted":"0","num_feature":"210","num_nodes":"13","size_leaf_vector":"1"}},{"base_weights":[1.1168547E-2,9.009416E-1,-5.746059E-1,9.193308E-1,-4.235896E-1,6.715728E-1,-6.097558E-1,4.6418097E-2,3.2853043E-1,2.2841911E-4,-2.6709158E-2,-2.3959842E-2,4.4533696E-2,6.8262553E-1,-6.250482E-1,-2.1876542E-2,6.2065357E-1,4.1464206E-2,-4.9270876E-4,3.0573463E-2,-6.2936187E-1,3.991693E-2,-4.4539917E-4,-6.4027965E-1,-3.357332E-1,-3.2185346E-2,1.9972574E-3,-2.6083598E-2,3.6101315E-2],"categories":[],"categories_nodes":[],"categories_segments":[],"categories_sizes":[],"default_left":[0,0,0,0,0,0,0,0,0,0,0,0,0,0,0,0,0,0,0,0,0,0,0,0,0,0,0,0,0],"id":27,"left_children":[1,3,5,7,9,11,13,-1,15,-1,-1,-1,-1,17,19,-1,21,-1,-1,-1,23,-1,-1,25,27,-1,-1,-1,-1],"loss_changes":[5.140985E2,9.926849E0,2.6463577E1,1.7573853E0,2.8875113E-1,4.6608267E0,1.186998E1,0E0,1.9202316E0,0E0,0E0,0E0,0E0,7.443774E-1,3.4398804E0,0E0,6.499829E-1,0E0,0E0,0E0,1.6163788E0,0E0,0E0,1.30719E0,4.8179846E0,0E0,0E0,0E0,0E0],"parents":[2147483647,0,0,1,1,2,2,3,3,4,4,5,5,6,6,8,8,13,13,14,14,16,16,20,20,23,23,24,24],"right_children":[2,4,6,8,10,12,14,-1,16,-1,-1,-1,-1,18,20,-1,22,-1,-1,-1,24,-1,-1,26,28,-1,-1,-1,-1],"split_conditions":[-7.539341E-1,6.9687164E-1,3.7749666E-1,5.685259E-1,-1.051208E0,-3.2386997E-1,-8.393775E-1,4.6418097E-2,5.866249E-1,2.2841911E-4,-2.6709158E-2,-2.3959842E-2,4.4533696E-2,8.0596244E-1,-6.270703E-1,-2.1876542E-2,-1.5139563E-1,4.1464206E-2,-4.9270876E-4,3.0573463E-2,6.384215E-1,3.991693E-2,-4.4539917E-4,1.0536364E0,-1.0205988E0,-3.2185346E-2,1.9972574E-3,-2.6083598E-2,3.6101315E-2],"split_indices":[209,0,171,101,81,61,107,0,3,0,0,0,0,131,27,0,53,0,0,0,68,0,0,201,74,0,0,0,0],"split_type":[0,0,0,0,0,0,0,0,0,0,0,0,0,0,0,0,0,0,0,0,0,0,0,0,0,0,0,0,0],"sum_hessian":[9.8436957E2,3.9056915E2,5.9380035E2,3.8552267E2,5.0464964E0,1.5792672E1,5.780077E2,3.791554E2,6.36726E0,1.2327299E0,3.8137665E0,2.3360572E0,1.34566145E1,6.249109E0,5.717586E2,1.620338E0,4.746922E0,4.993905E0,1.255204E0,1.4983718E0,5.7026025E2,3.492988E0,1.2539337E0,5.486786E2,2.1581648E1,5.459814E2,2.697218E0,1.8786133E1,2.795514E0],"tree_param":{"num_deleted":"0","num_feature":"210","num_nodes":"29","size_leaf_vector":"1"}},{"base_weights":[-1.0945996E-2,-4.1425666E-1,8.3026946E-1,-4.4634303E-1,4.5051154E-2,-2.8356561E-2,8.602422E-1,-3.2427542E-2,-2.923636E-1,-2.8632035E-2,8.8773656E-1,6.812947E-1,-4.6540698E-1,-2.6701514E-2,9.061589E-1,8.710579E-1,-2.869974E-2,-5.853327E-1,-5.534668E-2,-2.1752324E-2,9.134317E-1,9.261063E-3,4.515333E-2,5.7761025E-2,-3.044949E-2,5.3576764E-2,-2.9725531E-2,4.593064E-2,-5.425909E-3],"categories":[],"categories_nodes":[],"categories_segments":[],"categories_sizes":[],"default_left":[0,0,0,0,0,0,0,0,0,0,0,0,0,0,0,0,0,0,0,0,0,0,0,0,0,0,0,0,0],"id":28,"left_children":[1,3,5,7,-1,-1,9,-1,11,-1,13,15,17,-1,19,21,-1,23,25,-1,27,-1,-1,-1,-1,-1,-1,-1,-1],"loss_changes":[3.295314E2,2.8108551E1,1.3671616E1,1.9785393E1,0E0,0E0,1.2664307E1,0E0,6.1987007E1,0E0,8.423828E0,1.3754137E1,1.528051E1,0E0,3.320053E0,9.0252686E-1,0E0,1.0619621E1,4.4117996E1,0E0,1.6793823E0,0E0,0E0,0E0,0E0,0E0,0E0,0E0,0E0],"parents":[2147483647,0,0,1,1,2,2,3,3,6,6,8,8,10,10,11,11,12,12,14,14,15,15,17,17,18,18,20,20],"right_children":[2,4,6,8,-1,-1,10,-1,12,-1,14,16,18,-1,20,22,-1,24,26,-1,28,-1,-1,-1,-1,-1,-1,-1,-1],"split_conditions":[5.1982105E-1,1.8805408E0,5.208988E-1,-7.1714354E-1,4.5051154E-2,-2.8356561E-2,-8.3491737E-1,-3.2427542E-2,-3.960919E-1,-2.8632035E-2,-6.6371065E-1,-6.513939E-2,1.263564E0,-2.6701514E-2,-4.164279E-1,-1.1232853E0,-2.869974E-2,-1.289491E0,-9.903083E-1,-2.1752324E-2,9.353482E-1,9.261063E-3,4.515333E-2,5.7761025E-2,-3.044949E-2,5.3576764E-2,-2.9725531E-2,4.593064E-2,-5.425909E-3],"split_indices":[108,148,3,22,0,0,114,0,85,0,69,114,98,0,0,25,0,103,124,0,117,0,0,0,0,0,0,0,0],"split_type":[0,0,0,0,0,0,0,0,0,0,0,0,0,0,0,0,0,0,0,0,0,0,0,0,0,0,0,0,0],"sum_hessian":[9.692784E2,6.5550964E2,3.137687E2,6.405442E2,1.4965487E1,6.21235E0,3.0755634E2,2.7551816E2,3.6502603E2,5.417038E0,3.021393E2,5.4641132E1,3.103849E2,3.5068471E0,2.9863248E2,4.7731594E1,6.909539E0,2.3982E2,7.056487E1,1.293386E0,2.9733908E2,2.4309611E0,4.5300632E1,2.5744557E0,2.3724556E2,2.2516584E1,4.8048286E1,2.9593982E2,1.3992426E0],"tree_param":{"num_deleted":"0","num_feature":"210","num_nodes":"29","size_leaf_vector":"1"}},{"base_weights":[-8.117713E-3,6.946818E-1,-3.246207E-2,-3.1748954E-2,7.8517866E-1,-3.0303288E-2,8.21524E-1,8.398986E-1,-2.888363E-2,-3.0824115E-2,8.562197E-1,4.3606374E-2,-2.8820992E-2],"categories":[],"categories_nodes":[],"categories_segments":[],"categories_sizes":[],"default_left":[0,0,0,0,0,0,0,0,0,0,0,0,0],"id":29,"left_children":[1,3,-1,-1,5,-1,7,9,-1,-1,11,-1,-1],"loss_changes":[4.4048813E2,5.661731E1,0E0,0E0,2.2600067E1,0E0,1.1447693E1,1.0541534E1,0E0,0E0,1.0006805E1,0E0,0E0],"parents":[2147483647,0,0,1,1,4,4,6,6,7,7,10,10],"right_children":[2,4,-1,-1,6,-1,8,10,-1,-1,12,-1,-1],"split_conditions":[-5.2699065E-1,-5.570557E-1,-3.246207E-2,-3.1748954E-2,-1.6361555E-1,-3.0303288E-2,1.3691117E0,-1.3071569E0,-2.888363E-2,-3.0824115E-2,-1.5107097E-1,4.3606374E-2,-2.8820992E-2],"split_indices":[110,204,0,0,106,0,49,138,0,0,23,0,0],"split_type":[0,0,0,0,0,0,0,0,0,0,0,0,0],"sum_hessian":[9.7559845E2,4.6537308E2,5.1022537E2,2.9271616E1,4.3610147E2,1.0703743E1,4.2539774E2,4.202783E2,5.1194463E0,4.2501955E0,4.1602808E2,4.1184628E2,4.181817E0],"tree_param":{"num_deleted":"0","num_feature":"210","num_nodes":"13","size_leaf_vector":"1"}},{"base_weights":[6.1824657E-3,8.739395E-1,-5.608013E-1,4.480061E-2,-1.2664479E-1,4.2591136E-2,-5.881891E-1,-2.8244471E-2,3.6586743E-2,-6.0552055E-1,4.000048E-2,3.6568087E-2,-6.151309E-1,-6.2108314E-1,1.9046348E-1,1.0607568E-2,-3.1202523E-2,3.6984403E-2,-2.1975307E-2],"categories":[],"categories_nodes":[],"categories_segments":[],"categories_sizes":[],"default_left":[0,0,0,0,0,0,0,0,0,0,0,0,0,0,0,0,0,0,0],"id":30,"left_children":[1,3,5,-1,7,-1,9,-1,-1,11,-1,-1,13,15,17,-1,-1,-1,-1],"loss_changes":[4.7184943E2,8.483734E0,2.2942337E1,0E0,3.8201015E0,0E0,1.41888275E1,0E0,0E0,7.6852417E0,0E0,0E0,2.8020172E0,1.5065765E0,2.0101705E0,0E0,0E0,0E0,0E0],"parents":[2147483647,0,0,1,1,2,2,4,4,6,6,9,9,12,12,13,13,14,14],"right_children":[2,4,6,-1,8,-1,10,-1,-1,12,-1,-1,14,16,18,-1,-1,-1,-1],"split_conditions":[-6.489519E-1,5.452793E-1,-8.8922364E-1,4.480061E-2,6.1682385E-1,4.2591136E-2,-6.369041E-2,-2.8244471E-2,3.6586743E-2,-7.637341E-1,4.000048E-2,3.6568087E-2,9.368132E-1,-7.6632655E-1,5.3688604E-1,1.0607568E-2,-3.1202523E-2,3.6984403E-2,-2.1975307E-2],"split_indices":[69,199,86,0,3,0,121,0,0,202,0,0,12,209,3,0,0,0,0],"split_type":[0,0,0,0,0,0,0,0,0,0,0,0,0,0,0,0,0,0,0],"sum_hessian":[9.5703925E2,3.7799078E2,5.7904846E2,3.699346E2,8.05617E0,1.044049E1,5.68608E2,5.5596237E0,2.4965467E0,5.6215344E2,6.4545593E0,3.4762535E0,5.586772E2,5.5480695E2,3.8702264E0,1.7185884E0,5.530884E2,1.9745743E0,1.895652E0],"tree_param":{"num_deleted":"0","num_feature":"210","num_nodes":"19","size_leaf_vector":"1"}},{"base_weights":[1.3408327E-2,-3.9234942E-1,8.088363E-1,-6.067341E-1,-1.8133433E-1,-2.7408108E-2,8.330582E-1,-3.20456E-2,-2.9453593E-1,5.9501636E-1,-3.9480707E-1,-2.8073931E-2,8.5363674E-1,3.8015123E-2,-3.1245345E-2,8.152669E-1,-2.9631514E-2,1.5146568E-1,-5.0595206E-1,-3.838366E-1,8.7315416E-1,4.5944255E-2,-2.6041618E-2,9.907407E-1,-3.13528E-2,4.4230536E-2,-5.5646455E-1,2.9861515E-3,-2.5957331E-2,-1.9756405E-2,8.795104E-1,1.4019608E-2,5.1209737E-2,-2.8959354E-2,5.3972464E-2,9.56414E-3,4.421548E-2],"categories":[],"categories_nodes":[],"categories_segments":[],"categories_sizes":[],"default_left":[0,0,0,0,0,0,0,0,0,0,0,0,0,0,0,0,0,0,0,0,0,0,0,0,0,0,0,0,0,0,0,0,0,0,0,0,0],"id":31,"left_children":[1,3,5,7,9,-1,11,-1,13,15,17,-1,19,-1,-1,21,-1,23,25,27,29,-1,-1,31,-1,-1,33,-1,-1,-1,35,-1,-1,-1,-1,-1,-1],"loss_changes":[3.126087E2,2.8906563E1,1.1210663E1,3.2015991E0,5.4043056E1,0E0,9.715179E0,0E0,1.2045853E1,1.890374E1,1.5574474E1,0E0,8.004791E0,0E0,0E0,8.760998E0,0E0,2.9320602E1,1.5406479E1,3.686254E-1,2.870224E0,0E0,0E0,2.2433472E-1,0E0,0E0,8.264122E0,0E0,0E0,0E0,8.6027527E-1,0E0,0E0,0E0,0E0,0E0,0E0],"parents":[2147483647,0,0,1,1,2,2,3,3,4,4,6,6,8,8,9,9,10,10,12,12,15,15,17,17,18,18,19,19,20,20,23,23,26,26,30,30],"right_children":[2,4,6,8,10,-1,12,-1,14,16,18,-1,20,-1,-1,22,-1,24,26,28,30,-1,-1,32,-1,-1,34,-1,-1,-1,36,-1,-1,-1,-1,-1,-1],"split_conditions":[5.1982105E-1,-5.3422284E-1,5.208988E-1,6.8495536E-1,1.7850097E-1,-2.7408108E-2,-7.4181557E-1,-3.20456E-2,7.367751E-1,1.0390468E0,4.7135296E-1,-2.8073931E-2,-8.3491737E-1,3.8015123E-2,-3.1245345E-2,-1.00822024E-1,-2.9631514E-2,1.4608811E0,-5.570557E-1,-6.086208E-1,-6.8160564E-1,4.5944255E-2,-2.6041618E-2,2.756097E-1,-3.13528E-2,4.4230536E-2,1.7012981E0,2.9861515E-3,-2.5957331E-2,-1.9756405E-2,-3.206603E-1,1.4019608E-2,5.1209737E-2,-2.8959354E-2,5.3972464E-2,9.56414E-3,4.421548E-2],"split_indices":[108,22,3,203,11,0,167,0,0,6,17,0,114,0,0,30,0,133,204,27,90,0,0,11,0,0,137,0,0,0,0,0,0,0,0,0,0],"split_type":[0,0,0,0,0,0,0,0,0,0,0,0,0,0,0,0,0,0,0,0,0,0,0,0,0,0,0,0,0,0,0,0,0,0,0,0,0],"sum_hessian":[9.66592E2,6.40415E2,3.2617697E2,3.1674094E2,3.2367407E2,5.3407044E0,3.2083627E2,2.8453824E2,3.2202682E1,6.942051E1,2.5425354E2,4.2833533E0,3.1655292E2,7.3699327E0,2.483275E1,5.88249E1,1.059561E1,4.292352E1,2.1133003E2,4.6253138E0,3.1192758E2,5.4880993E1,3.9439092E0,2.0524624E1,2.2398893E1,6.8287253E0,2.045013E2,1.2117379E0,3.4135761E0,1.2504929E0,3.106771E2,1.345086E0,1.9179539E1,2.0233684E2,2.1644657E0,2.4343576E0,3.0824274E2],"tree_param":{"num_deleted":"0","num_feature":"210","num_nodes":"37","size_leaf_vector":"1"}},{"base_weights":[3.5975824E-4,6.735076E-1,-3.2058787E-2,-3.135662E-2,7.45669E-1,-2.951375E-2,7.776799E-1,8.020449E-1,-2.9421533E-2,8.2286996E-1,-2.9421056E-2,4.1813027E-2,-2.7487937E-2],"categories":[],"categories_nodes":[],"categories_segments":[],"categories_sizes":[],"default_left":[0,0,0,0,0,0,0,0,0,0,0,0,0],"id":32,"left_children":[1,3,-1,-1,5,-1,7,9,-1,11,-1,-1,-1],"loss_changes":[4.128464E2,4.4251984E1,0E0,0E0,1.9379929E1,0E0,1.4868408E1,1.2801178E1,0E0,8.17038E0,0E0,0E0,0E0],"parents":[2147483647,0,0,1,1,4,4,6,6,7,7,9,9],"right_children":[2,4,-1,-1,6,-1,8,10,-1,12,-1,-1,-1],"split_conditions":[-5.2699065E-1,-5.9593296E-1,-3.2058787E-2,-3.135662E-2,-1.6361555E-1,-2.951375E-2,1.8805408E0,1.3691117E0,-2.9421533E-2,-1.3422729E-1,-2.9421056E-2,4.1813027E-2,-2.7487937E-2],"split_indices":[110,197,0,0,106,0,148,49,0,2,0,0,0],"split_type":[0,0,0,0,0,0,0,0,0,0,0,0,0],"sum_hessian":[9.5399884E2,4.655054E2,4.8849347E2,2.406507E1,4.414403E2,9.921857E0,4.3151846E2,4.2436273E2,7.1557326E0,4.1850302E2,5.8597174E0,4.1484674E2,3.6562643E0],"tree_param":{"num_deleted":"0","num_feature":"210","num_nodes":"13","size_leaf_vector":"1"}},{"base_weights":[4.172358E-4,7.9042697E-1,-6.009723E-1,8.6399704E-1,-1.2842248E-1,-6.1521006E-1,3.8412478E-2,4.335459E-2,-1.5432837E-3,7.2040325E-1,-4.0266398E-1,3.3049885E-2,-6.1986494E-1,1.1158743E-2,3.9873358E-2,-3.0593738E-2,3.9147642E-1,-6.2339276E-1,3.230157E-3,4.677819E-2,-2.2188721E-2,8.308343E-3,-6.262049E-1,-6.627764E-3,-3.139851E-2],"categories":[],"categories_nodes":[],"categories_segments":[],"categories_sizes":[],"default_left":[0,0,0,0,0,0,0,0,0,0,0,0,0,0,0,0,0,0,0,0,0,0,0,0,0],"id":33,"left_children":[1,3,5,7,9,11,-1,-1,-1,13,15,-1,17,-1,-1,-1,19,21,-1,-1,-1,-1,23,-1,-1],"loss_changes":[4.465977E2,2.757582E1,1.0877197E1,1.0689087E0,7.503896E0,3.5510101E0,0E0,0E0,0E0,1.2573004E-1,4.2375236E0,0E0,1.3136597E0,0E0,0E0,0E0,2.9725373E0,1.2692413E0,0E0,0E0,0E0,0E0,3.725891E-1,0E0,0E0],"parents":[2147483647,0,0,1,1,2,2,3,3,4,4,5,5,9,9,10,10,12,12,16,16,17,17,22,22],"right_children":[2,4,6,8,10,12,-1,-1,-1,14,16,-1,18,-1,-1,-1,20,22,-1,-1,-1,-1,24,-1,-1],"split_conditions":[-5.8765024E-1,5.525192E-1,-1.1893587E-1,-5.506349E-1,-8.3491737E-1,-7.255507E-1,3.8412478E-2,4.335459E-2,-1.5432837E-3,-5.975581E-1,7.485052E-1,3.3049885E-2,1.0536364E0,1.1158743E-2,3.9873358E-2,-3.0593738E-2,5.053364E-1,-5.98229E-1,3.230157E-3,4.677819E-2,-2.2188721E-2,8.308343E-3,-1.097175E0,-6.627764E-3,-3.139851E-2],"split_indices":[48,185,44,78,114,205,0,0,0,20,68,0,201,0,0,0,0,27,0,0,0,0,4,0,0],"split_type":[0,0,0,0,0,0,0,0,0,0,0,0,0,0,0,0,0,0,0,0,0,0,0,0,0],"sum_hessian":[9.380008E2,4.0528613E2,5.3271466E2,3.7529672E2,2.9989414E1,5.277773E2,4.93737E0,3.740342E2,1.262507E0,6.9258366E0,2.3063578E1,1.4056166E0,5.2637164E2,1.4521701E0,5.473666E0,1.8436201E1,4.627376E0,5.237614E2,2.6102705E0,2.7293572E0,1.8980187E0,1.6526983E0,5.221087E2,2.1314535E0,5.1997723E2],"tree_param":{"num_deleted":"0","num_feature":"210","num_nodes":"25","size_leaf_vector":"1"}},{"base_weights":[1.0072852E-2,-3.9157745E-1,7.936947E-1,-3.1625796E-2,-2.2346538E-1,-2.6993273E-2,8.174806E-1,5.873495E-1,-3.6975005E-1,-3.9585736E-1,8.3462936E-1,7.9677874E-1,-2.8628064E-2,-4.3036374E-1,4.191483E-2,1.2120709E-3,-2.6597366E-2,-3.546919E-1,8.5200197E-1,-1.8749622E-3,8.215614E-1,-5.6286085E-1,5.672934E-3,3.1821192E-3,-2.4848111E-2,3.268667E-3,8.5673046E-1,1.236198E-2,4.306356E-2,5.5095848E-2,-2.9168844E-2,5.1143732E-2,-2.8794125E-2,4.3086894E-2,1.2299631E-2],"categories":[],"categories_nodes":[],"categories_segments":[],"categories_sizes":[],"default_left":[0,0,0,0,0,0,0,0,0,0,0,0,0,0,0,0,0,0,0,0,0,0,0,0,0,0,0,0,0,0,0,0,0,0,0],"id":34,"left_children":[1,3,5,-1,7,-1,9,11,13,15,17,19,-1,21,-1,-1,-1,23,25,-1,27,29,31,-1,-1,-1,33,-1,-1,-1,-1,-1,-1,-1,-1],"loss_changes":[2.9676633E2,2.5108871E1,1.0576187E1,0E0,4.395275E1,0E0,6.870285E0,1.4240513E1,2.3279255E1,3.021053E-1,6.712433E0,1.0332413E0,0E0,1.7260021E1,0E0,0E0,0E0,3.3948886E-1,1.082489E0,0E0,8.618927E-1,8.467514E0,4.235409E1,0E0,0E0,0E0,7.182007E-1,0E0,0E0,0E0,0E0,0E0,0E0,0E0,0E0],"parents":[2147483647,0,0,1,1,2,2,4,4,6,6,7,7,8,8,9,9,10,10,11,11,13,13,17,17,18,18,20,20,21,21,22,22,26,26],"right_children":[2,4,6,-1,8,-1,10,12,14,16,18,20,-1,22,-1,-1,-1,24,26,-1,28,30,32,-1,-1,-1,34,-1,-1,-1,-1,-1,-1,-1,-1],"split_conditions":[5.1982105E-1,-7.1714354E-1,5.208988E-1,-3.1625796E-2,-3.960919E-1,-2.6993273E-2,-7.4722815E-1,-6.513939E-2,1.8805408E0,5.9537745E-1,-8.3491737E-1,-6.698998E-1,-2.8628064E-2,1.263564E0,4.191483E-2,1.2120709E-3,-2.6597366E-2,-1.038558E0,-3.7475753E-1,-1.8749622E-3,-3.4732366E-1,-1.289491E0,-9.903083E-1,3.1821192E-3,-2.4848111E-2,3.268667E-3,9.289252E-1,1.236198E-2,4.306356E-2,5.5095848E-2,-2.9168844E-2,5.1143732E-2,-2.8794125E-2,4.3086894E-2,1.2299631E-2],"split_indices":[108,22,3,0,85,0,174,114,148,166,114,13,0,98,0,0,0,102,21,0,23,103,124,0,0,0,68,0,0,0,0,0,0,0,0],"split_type":[0,0,0,0,0,0,0,0,0,0,0,0,0,0,0,0,0,0,0,0,0,0,0,0,0,0,0,0,0,0,0,0,0,0,0],"sum_hessian":[9.409004E2,6.223905E2,3.1850986E2,2.5465544E2,3.6773505E2,5.201315E0,3.1330856E2,5.5744392E1,3.1199066E2,4.0586634E0,3.0924988E2,4.7483932E1,8.260459E0,2.9769745E2,1.4293208E1,1.1941844E0,2.8644788E0,4.1726947E0,3.050772E2,1.355038E0,4.6128895E1,2.2809583E2,6.960163E1,1.1992028E0,2.973492E0,1.9114612E0,3.0316574E2,3.4505002E0,4.2678394E1,2.1350665E0,2.2596075E2,2.5041882E1,4.455975E1,3.002927E2,2.8730466E0],"tree_param":{"num_deleted":"0","num_feature":"210","num_nodes":"35","size_leaf_vector":"1"}},{"base_weights":[-9.577627E-3,6.367583E-1,-3.16852E-2,-3.1123832E-2,7.1375287E-1,-2.9445404E-2,7.4663794E-1,7.659587E-1,-2.818427E-2,7.839291E-1,-2.8270468E-2,4.2258635E-2,2.0033002E-2],"categories":[],"categories_nodes":[],"categories_segments":[],"categories_sizes":[],"default_left":[0,0,0,0,0,0,0,0,0,0,0,0,0],"id":35,"left_children":[1,3,-1,-1,5,-1,7,9,-1,11,-1,-1,-1],"loss_changes":[3.84157E2,4.580316E1,0E0,0E0,1.9346146E1,0E0,1.1341141E1,1.0613434E1,0E0,9.516205E0,0E0,0E0,0E0],"parents":[2147483647,0,0,1,1,4,4,6,6,7,7,9,9],"right_children":[2,4,-1,-1,6,-1,8,10,-1,12,-1,-1,-1],"split_conditions":[-5.2699065E-1,-5.9593296E-1,-3.16852E-2,-3.1123832E-2,-1.6361555E-1,-2.9445404E-2,1.8805408E0,1.3691117E0,-2.818427E-2,1.6272649E0,-2.8270468E-2,4.2258635E-2,2.0033002E-2],"split_indices":[110,197,0,0,106,0,148,49,0,123,0,0,0],"split_type":[0,0,0,0,0,0,0,0,0,0,0,0,0],"sum_hessian":[9.503088E2,4.66838E2,4.8347076E2,2.649133E1,4.4034668E2,1.0426294E1,4.2992038E2,4.240827E2,5.837684E0,4.1884048E2,5.242196E0,3.6009485E2,5.8745647E1],"tree_param":{"num_deleted":"0","num_feature":"210","num_nodes":"13","size_leaf_vector":"1"}},{"base_weights":[9.030987E-3,7.99237E-1,-5.658746E-1,8.3599627E-1,-7.269136E-2,5.2196926E-1,-5.8883613E-1,4.202735E-2,-1.7529754E-2,-5.238333E-1,4.0665176E-2,-2.1712743E-2,3.908483E-2,3.7583943E-2,-6.032693E-1,6.142791E-4,-2.9229362E-2,-6.0947174E-1,1.6802023E-1,-2.7462128E-1,-6.1683124E-1,3.4432303E-2,-2.1693036E-2,5.410356E-2,-2.8573925E-2,1.8617522E-3,-3.0925319E-2],"categories":[],"categories_nodes":[],"categories_segments":[],"categories_sizes":[],"default_left":[0,0,0,0,0,0,0,0,0,0,0,0,0,0,0,0,0,0,0,0,0,0,0,0,0,0,0],"id":36,"left_children":[1,3,5,7,9,11,13,-1,-1,15,-1,-1,-1,-1,17,-1,-1,19,21,23,25,-1,-1,-1,-1,-1,-1],"loss_changes":[4.1260553E2,1.2320145E1,1.3439804E1,2.2769775E0,6.978452E0,3.170208E0,1.0424377E1,0E0,0E0,3.80785E-1,0E0,0E0,0E0,0E0,2.5441742E0,0E0,0E0,1.0789337E0,1.820349E0,5.731805E0,5.652466E-1,0E0,0E0,0E0,0E0,0E0,0E0],"parents":[2147483647,0,0,1,1,2,2,3,3,4,4,5,5,6,6,9,9,14,14,17,17,18,18,19,19,20,20],"right_children":[2,4,6,8,10,12,14,-1,-1,16,-1,-1,-1,-1,18,-1,-1,20,22,24,26,-1,-1,-1,-1,-1,-1],"split_conditions":[-6.004238E-1,5.452793E-1,3.7749666E-1,-5.506349E-1,7.2763795E-1,-3.1534678E-1,-8.393775E-1,4.202735E-2,-1.7529754E-2,-1.130856E0,4.0665176E-2,-2.1712743E-2,3.908483E-2,3.7583943E-2,9.368132E-1,6.142791E-4,-2.9229362E-2,-1.1227808E0,4.9958208E-1,-3.223928E-1,-7.3498935E-1,3.4432303E-2,-2.1693036E-2,5.410356E-2,-2.8573925E-2,1.8617522E-3,-3.0925319E-2],"split_indices":[34,199,171,78,40,12,107,0,0,25,0,0,0,0,12,0,0,18,3,6,146,0,0,0,0,0,0],"split_type":[0,0,0,0,0,0,0,0,0,0,0,0,0,0,0,0,0,0,0,0,0,0,0,0,0,0,0],"sum_hessian":[9.062394E2,3.8149097E2,5.247484E2,3.6609802E2,1.539295E1,1.0397891E1,5.143505E2,3.6498984E2,1.1081654E0,1.047031E1,4.9226403E0,2.0774586E0,8.320432E0,4.9348307E0,5.094157E2,1.1469464E0,9.323364E0,5.0555997E2,3.8557506E0,1.16964655E1,4.938635E2,1.990133E0,1.8656174E0,1.6249688E0,1.0071497E1,1.2073975E0,4.926561E2],"tree_param":{"num_deleted":"0","num_feature":"210","num_nodes":"27","size_leaf_vector":"1"}},{"base_weights":[-1.2935779E-2,-3.8828045E-1,7.551727E-1,-4.2197138E-1,4.087241E-2,-2.7333751E-2,7.837884E-1,-3.128433E-2,-2.7054122E-1,-4.3223318E-1,8.103818E-1,6.3237256E-1,-4.425906E-1,3.26912E-3,-2.7320478E-2,-2.479392E-2,8.2548505E-1,7.960458E-1,-2.7489884E-2,-8.8391744E-4,-5.553185E-1,-7.475022E-3,8.3175176E-1,7.913779E-3,4.0872153E-2,-3.105759E-2,4.931875E-2,-2.8568147E-2,5.0175127E-2,7.6501444E-3,4.1739177E-2],"categories":[],"categories_nodes":[],"categories_segments":[],"categories_sizes":[],"default_left":[0,0,0,0,0,0,0,0,0,0,0,0,0,0,0,0,0,0,0,0,0,0,0,0,0,0,0,0,0,0,0],"id":37,"left_children":[1,3,5,7,-1,-1,9,-1,11,13,15,17,19,-1,-1,-1,21,23,-1,25,27,-1,29,-1,-1,-1,-1,-1,-1,-1,-1],"loss_changes":[2.646676E2,2.5394424E1,1.1654648E1,1.8356667E1,0E0,0E0,9.899033E0,0E0,5.4066795E1,4.3181503E-1,6.1169586E0,1.1239784E1,1.4509689E1,0E0,0E0,0E0,1.8740692E0,5.454006E-1,0E0,3.7508675E1,6.3797913E0,0E0,4.5814514E-1,0E0,0E0,0E0,0E0,0E0,0E0,0E0,0E0],"parents":[2147483647,0,0,1,1,2,2,3,3,6,6,8,8,9,9,10,10,11,11,12,12,16,16,17,17,19,19,20,20,22,22],"right_children":[2,4,6,8,-1,-1,10,-1,12,14,16,18,20,-1,-1,-1,22,24,-1,26,28,-1,30,-1,-1,-1,-1,-1,-1,-1,-1],"split_conditions":[5.1982105E-1,1.8805408E0,5.208988E-1,-7.1434605E-1,4.087241E-2,-2.7333751E-2,-8.3491737E-1,-3.128433E-2,-3.6388767E-1,6.502888E-1,-7.4181557E-1,-6.513939E-2,4.7360003E-1,3.26912E-3,-2.7320478E-2,-2.479392E-2,-6.614824E-1,-6.678979E-1,-2.7489884E-2,3.8137424E-1,1.7012981E0,-7.475022E-3,-1.0552387E0,7.913779E-3,4.0872153E-2,-3.105759E-2,4.931875E-2,-2.8568147E-2,5.0175127E-2,7.6501444E-3,4.1739177E-2],"split_indices":[108,148,3,15,0,0,114,0,99,47,167,114,24,0,0,0,76,6,0,3,137,0,102,0,0,0,0,0,0,0,0],"split_type":[0,0,0,0,0,0,0,0,0,0,0,0,0,0,0,0,0,0,0,0,0,0,0,0,0,0,0,0,0,0,0],"sum_hessian":[9.15994E2,6.1564624E2,3.003478E2,5.995436E2,1.6102648E1,6.0705013E0,2.942773E2,2.5430362E2,3.4523996E2,5.9714475E0,2.8830585E2,5.4827927E1,2.9041205E2,1.1941843E0,4.777263E0,2.9314952E0,2.8537436E2,4.8446995E1,6.3809342E0,5.925163E1,2.3116042E2,1.6765554E0,2.836978E2,1.845217E0,4.6601776E1,3.6616997E1,2.2634632E1,2.294324E2,1.7280036E0,1.4904473E0,2.8220737E2],"tree_param":{"num_deleted":"0","num_feature":"210","num_nodes":"31","size_leaf_vector":"1"}},{"base_weights":[4.098101E-3,6.3577074E-1,-3.1312145E-2,-3.047116E-2,7.0940846E-1,-2.8703628E-2,7.3742795E-1,7.537315E-1,-2.7957598E-2,7.669903E-1,-3.5250284E-2,-2.9602913E-2,3.9010596E-2],"categories":[],"categories_nodes":[],"categories_segments":[],"categories_sizes":[],"default_left":[0,0,0,0,0,0,0,0,0,0,0,0,0],"id":38,"left_children":[1,3,-1,-1,5,-1,7,9,-1,11,-1,-1,-1],"loss_changes":[3.652138E2,4.2439667E1,0E0,0E0,1.5995514E1,0E0,9.388504E0,8.651581E0,0E0,7.937973E0,0E0,0E0,0E0],"parents":[2147483647,0,0,1,1,4,4,6,6,7,7,9,9],"right_children":[2,4,-1,-1,6,-1,8,10,-1,12,-1,-1,-1],"split_conditions":[-5.2699065E-1,-5.570557E-1,-3.1312145E-2,-3.047116E-2,-1.6361555E-1,-2.8703628E-2,1.3691117E0,1.7751993E0,-2.7957598E-2,-1.3422152E0,-3.5250284E-2,-2.9602913E-2,3.9010596E-2],"split_indices":[110,204,0,0,106,0,49,123,0,159,0,0,0],"split_type":[0,0,0,0,0,0,0,0,0,0,0,0,0],"sum_hessian":[9.152328E2,4.571292E2,4.5810355E2,2.5117819E1,4.320114E2,8.813335E0,4.2319806E2,4.1835623E2,4.841838E0,4.1505786E2,3.2983558E0,3.5772033E0,4.1148068E2],"tree_param":{"num_deleted":"0","num_feature":"210","num_nodes":"13","size_leaf_vector":"1"}},{"base_weights":[-8.809316E-3,7.9517627E-1,-5.3903544E-1,4.079761E-2,-2.4476072E-1,4.927322E-1,-5.7019037E-1,-2.6453778E-2,2.7076298E-2,-2.4884025E-2,3.912614E-2,-6.052819E-1,-1.1529411E-2,-6.091301E-1,4.021462E-3,-2.5166768E-1,4.339948E-2,9.02832E-3,-6.1119014E-1,3.439368E-2,-4.5730343E-1,-1.7245582E-3,-3.0659303E-2,3.045092E-2,-2.9912038E-2],"categories":[],"categories_nodes":[],"categories_segments":[],"categories_sizes":[],"default_left":[0,0,0,0,0,0,0,0,0,0,0,0,0,0,0,0,0,0,0,0,0,0,0,0,0],"id":39,"left_children":[1,3,5,-1,7,9,11,-1,-1,-1,-1,13,15,17,-1,19,-1,-1,21,-1,23,-1,-1,-1,-1],"loss_changes":[3.68158E2,7.6151123E0,1.700914E1,0E0,1.961304E0,4.9213047E0,9.905197E0,0E0,0E0,0E0,0E0,1.3042755E0,6.7451086E0,8.8012695E-1,0E0,5.154197E0,0E0,0E0,5.2233887E-1,0E0,3.5431647E0,0E0,0E0,0E0,0E0],"parents":[2147483647,0,0,1,1,2,2,4,4,5,5,6,6,11,11,12,12,13,13,15,15,18,18,20,20],"right_children":[2,4,6,-1,8,10,12,-1,-1,-1,-1,14,16,18,-1,20,-1,-1,22,-1,24,-1,-1,-1,-1],"split_conditions":[-6.489519E-1,5.525192E-1,3.837162E-1,4.079761E-2,6.1682385E-1,-3.2386997E-1,6.3465494E-1,-2.6453778E-2,2.7076298E-2,-2.4884025E-2,3.912614E-2,1.0536364E0,-8.32246E-1,-7.745041E-1,4.021462E-3,-8.9791614E-1,4.339948E-2,9.02832E-3,-1.125845E0,3.439368E-2,4.7560084E-1,-1.7245582E-3,-3.0659303E-2,3.045092E-2,-2.9912038E-2],"split_indices":[69,185,206,0,3,61,5,0,0,0,0,201,25,177,0,72,0,0,18,0,3,0,0,0,0],"split_type":[0,0,0,0,0,0,0,0,0,0,0,0,0,0,0,0,0,0,0,0,0,0,0,0,0],"sum_hessian":[8.6161884E2,3.4221545E2,5.194034E2,3.3572372E2,6.4917173E0,1.4789772E1,5.0461362E2,5.0079904E0,1.4837273E0,3.1854677E0,1.1604304E1,4.7471176E2,2.9901861E1,4.721736E2,2.53814E0,2.404942E1,5.8524427E0,1.0030804E0,4.7117053E2,3.897374E0,2.0152046E1,1.6881144E0,4.6948242E2,1.964859E0,1.8187187E1],"tree_param":{"num_deleted":"0","num_feature":"210","num_nodes":"25","size_leaf_vector":"1"}},{"base_weights":[5.6503406E-3,-3.5745063E-1,7.4887216E-1,-4.0035E-1,3.9904337E-2,-3.8109642E-1,7.690596E-1,-3.0932385E-2,-2.371825E-1,3.6121483E-3,-2.5623832E-2,7.86784E-1,-2.4584552E-2,5.8311445E-1,-4.1569424E-1,-2.5751263E-2,8.02644E-1,7.414522E-1,-2.7498871E-2,-5.345048E-1,7.791718E-2,-2.9391767E-3,8.1013596E-1,-1.7489698E-3,3.8122725E-2,-2.856639E-2,3.9287977E-2,-3.0454159E-2,5.420232E-2,6.51925E-3,4.0665314E-2],"categories":[],"categories_nodes":[],"categories_segments":[],"categories_sizes":[],"default_left":[0,0,0,0,0,0,0,0,0,0,0,0,0,0,0,0,0,0,0,0,0,0,0,0,0,0,0,0,0,0,0],"id":40,"left_children":[1,3,5,7,-1,9,11,-1,13,-1,-1,15,-1,17,19,-1,21,23,-1,25,27,-1,29,-1,-1,-1,-1,-1,-1,-1,-1],"loss_changes":[2.3929402E2,2.9849632E1,6.931671E0,2.0335869E1,0E0,3.8108128E-1,6.7833405E0,0E0,4.8667377E1,0E0,0E0,6.24942E0,0E0,1.1086351E1,1.6003864E1,0E0,1.8524323E0,8.851986E-1,0E0,1.1120281E1,3.7761448E1,0E0,4.915619E-1,0E0,0E0,0E0,0E0,0E0,0E0,0E0,0E0],"parents":[2147483647,0,0,1,1,2,2,3,3,5,5,6,6,8,8,11,11,13,13,14,14,16,16,17,17,19,19,20,20,22,22],"right_children":[2,4,6,8,-1,10,12,-1,14,-1,-1,16,-1,18,20,-1,22,24,-1,26,28,-1,30,-1,-1,-1,-1,-1,-1,-1,-1],"split_conditions":[5.2151835E-1,1.8805408E0,-8.3491737E-1,-7.1714354E-1,3.9904337E-2,-1.0313971E0,5.7551485E-1,-3.0932385E-2,-2.6275557E-1,3.6121483E-3,-2.5623832E-2,-7.4181557E-1,-2.4584552E-2,-6.513939E-2,1.5566609E0,-2.5751263E-2,-3.206603E-1,-6.698998E-1,-2.7498871E-2,1.3691117E0,-1.0247158E0,-2.9391767E-3,-1.0552387E0,-1.7489698E-3,3.8122725E-2,-2.856639E-2,3.9287977E-2,-3.0454159E-2,5.420232E-2,6.51925E-3,4.0665314E-2],"split_indices":[94,148,114,22,0,130,176,0,106,0,0,167,0,114,95,0,0,13,0,49,5,0,102,0,0,0,0,0,0,0,0],"split_type":[0,0,0,0,0,0,0,0,0,0,0,0,0,0,0,0,0,0,0,0,0,0,0,0,0,0,0,0,0,0,0],"sum_hessian":[8.84727E2,5.947036E2,2.9002338E2,5.7404565E2,2.065793E1,4.7766867E0,2.852467E2,2.4434764E2,3.2969803E2,1.1744077E0,3.602279E0,2.8166284E2,3.5838459E0,5.852008E1,2.7117795E2,3.0113766E0,2.7865146E2,5.1648396E1,6.8716855E0,2.1850235E2,5.26756E1,2.3435583E0,2.7630792E2,1.342751E0,5.0305645E1,2.1312541E2,5.3769484E0,3.1536573E1,2.1139025E1,1.4782639E0,2.7482965E2],"tree_param":{"num_deleted":"0","num_feature":"210","num_nodes":"31","size_leaf_vector":"1"}},{"base_weights":[-2.70203E-4,6.006681E-1,-3.0970857E-2,-3.00694E-2,6.7270184E-1,-2.9305601E-2,6.980124E-1,-3.2478977E-2,7.144866E-1,7.783596E-1,4.1737035E-1,-3.1452905E-2,3.9643627E-2,-3.6618154E-2,4.125703E-2],"categories":[],"categories_nodes":[],"categories_segments":[],"categories_sizes":[],"default_left":[0,0,0,0,0,0,0,0,0,0,0,0,0,0,0],"id":41,"left_children":[1,3,-1,-1,5,-1,7,-1,9,11,13,-1,-1,-1,-1],"loss_changes":[3.327858E2,3.9705795E1,0E0,0E0,1.4067886E1,0E0,9.803879E0,0E0,7.571686E0,7.4704285E0,3.6131943E1,0E0,0E0,0E0,0E0],"parents":[2147483647,0,0,1,1,4,4,6,6,8,8,9,9,10,10],"right_children":[2,4,-1,-1,6,-1,8,-1,10,12,14,-1,-1,-1,-1],"split_conditions":[-5.2699065E-1,-5.570557E-1,-3.0970857E-2,-3.00694E-2,-3.0207145E-1,-2.9305601E-2,-1.3071569E0,-3.2478977E-2,1.3018265E0,-1.3422152E0,-9.821697E-1,-3.1452905E-2,3.9643627E-2,-3.6618154E-2,4.125703E-2],"split_indices":[110,204,0,0,167,0,138,0,84,159,117,0,0,0,0],"split_type":[0,0,0,0,0,0,0,0,0,0,0,0,0,0,0],"sum_hessian":[8.9241943E2,4.5288416E2,4.3953528E2,2.5189445E1,4.276947E2,7.993305E0,4.197014E2,4.604703E0,4.1509668E2,3.4031686E2,7.477984E1,3.0412428E0,3.372756E2,1.9369715E1,5.5410126E1],"tree_param":{"num_deleted":"0","num_feature":"210","num_nodes":"15","size_leaf_vector":"1"}},{"base_weights":[-3.4209323E-5,7.5475746E-1,-5.5133903E-1,7.906524E-1,-1.0252494E-1,5.7821184E-1,-5.804874E-1,3.9705608E-2,-4.3827374E-3,-2.8683478E-2,3.860997E-2,-1.9615926E-2,3.7569407E-2,3.503007E-2,-5.934782E-1,-5.967615E-1,1.6013335E-2,-6.0049284E-1,1.2470143E-3,-1.2984723E-2,-3.0279422E-2],"categories":[],"categories_nodes":[],"categories_segments":[],"categories_sizes":[],"default_left":[0,0,0,0,0,0,0,0,0,0,0,0,0,0,0,0,0,0,0,0,0],"id":42,"left_children":[1,3,5,7,9,11,13,-1,-1,-1,-1,-1,-1,-1,15,17,-1,19,-1,-1,-1],"loss_changes":[3.613432E2,1.1360168E1,1.6858017E1,1.1390076E0,6.878501E0,2.5007315E0,8.565567E0,0E0,0E0,0E0,0E0,0E0,0E0,0E0,1.6471558E0,1.1376038E0,0E0,6.7819214E-1,0E0,0E0,0E0],"parents":[2147483647,0,0,1,1,2,2,3,3,4,4,5,5,6,6,14,14,15,15,17,17],"right_children":[2,4,6,8,10,12,14,-1,-1,-1,-1,-1,-1,-1,16,18,-1,20,-1,-1,-1],"split_conditions":[-6.0336524E-1,5.525192E-1,3.7749666E-1,1.6813802E0,7.2763795E-1,-3.1534678E-1,-8.393775E-1,3.9705608E-2,-4.3827374E-3,-2.8683478E-2,3.860997E-2,-1.9615926E-2,3.7569407E-2,3.503007E-2,1.0117825E0,1.0536364E0,1.6013335E-2,-7.5023687E-1,1.2470143E-3,-1.2984723E-2,-3.0279422E-2],"split_indices":[34,185,171,81,40,12,107,0,0,0,0,0,0,0,12,201,0,188,0,0,0],"split_type":[0,0,0,0,0,0,0,0,0,0,0,0,0,0,0,0,0,0,0,0,0],"sum_hessian":[8.6636237E2,3.6553677E2,5.008256E2,3.509212E2,1.4615566E1,1.2124954E1,4.8870062E2,3.496398E2,1.2814199E0,9.722823E0,4.8927426E0,1.6443138E0,1.048064E1,4.3745413E0,4.8432608E2,4.8293768E2,1.3884128E0,4.800904E2,2.8472733E0,7.8380837E0,4.7225232E2],"tree_param":{"num_deleted":"0","num_feature":"210","num_nodes":"21","size_leaf_vector":"1"}},{"base_weights":[5.8755088E-3,-3.6733016E-1,7.144845E-1,-1.6915508E-1,-5.890102E-1,-2.6550418E-2,7.402714E-1,5.598976E-1,-3.5611963E-1,1.06972E-2,-5.93945E-1,-2.6132083E-2,7.5602025E-1,8.3830154E-1,-4.6213564E-1,6.500123E-1,-4.646121E-1,-3.0707002E-2,-3.595131E-1,7.7108014E-1,-3.7779766E-1,4.2909503E-2,-5.0834497E-4,-2.8788392E-2,1.843851E-2,-2.3786182E-2,3.9855625E-2,4.4954136E-2,-5.170118E-1,-5.5675465E-1,3.23125E-2,-1.905771E-3,7.7554756E-1,-2.6353983E-2,1.0419227E-3,6.151828E-2,-2.6747206E-2,9.9961064E-5,-2.9389584E-2,3.9027195E-2,9.836017E-3],"categories":[],"categories_nodes":[],"categories_segments":[],"categories_sizes":[],"default_left":[0,0,0,0,0,0,0,0,0,0,0,0,0,0,0,0,0,0,0,0,0,0,0,0,0,0,0,0,0,0,0,0,0,0,0,0,0,0,0,0,0],"id":43,"left_children":[1,3,5,7,9,-1,11,13,15,-1,17,-1,19,21,23,25,27,-1,29,31,33,-1,-1,-1,-1,-1,-1,-1,35,37,-1,-1,39,-1,-1,-1,-1,-1,-1,-1,-1],"loss_changes":[2.3216293E2,2.5162804E1,1.0119888E1,4.1775803E1,1.2009811E0,0E0,6.3047943E0,1.8212366E1,2.6868277E1,0E0,1.055748E0,0E0,5.309265E0,8.455353E-1,1.539463E0,4.3710365E0,1.6204662E1,0E0,5.080602E0,1.0791931E0,2.801658E-1,0E0,0E0,0E0,0E0,0E0,0E0,0E0,7.324703E0,3.5551643E-1,0E0,0E0,6.816864E-1,0E0,0E0,0E0,0E0,0E0,0E0,0E0,0E0],"parents":[2147483647,0,0,1,1,2,2,3,3,4,4,6,6,7,7,8,8,10,10,12,12,13,13,14,14,15,15,16,16,18,18,19,19,20,20,28,28,29,29,32,32],"right_children":[2,4,6,8,10,-1,12,14,16,-1,18,-1,20,22,24,26,28,-1,30,32,34,-1,-1,-1,-1,-1,-1,-1,36,38,-1,-1,40,-1,-1,-1,-1,-1,-1,-1,-1],"split_conditions":[5.1982105E-1,-7.147275E-2,5.208988E-1,4.7135296E-1,-5.637818E-1,-2.6550418E-2,-6.208628E-1,-1.5734382E-1,-5.9593296E-1,1.06972E-2,4.5100024E-1,-2.6132083E-2,9.474684E-1,-1.1893587E-1,6.899824E-1,-1.052185E0,-1.3071569E0,-3.0707002E-2,6.816263E-1,-8.3491737E-1,2.0655812E-1,4.2909503E-2,-5.0834497E-4,-2.8788392E-2,1.843851E-2,-2.3786182E-2,3.9855625E-2,4.4954136E-2,-1.2918153E0,-1.0560131E0,3.23125E-2,-1.905771E-3,1.0864967E0,-2.6353983E-2,1.0419227E-3,6.151828E-2,-2.6747206E-2,9.9961064E-5,-2.9389584E-2,3.9027195E-2,9.836017E-3],"split_indices":[108,12,3,17,19,0,154,40,197,0,17,0,117,44,4,158,138,0,154,114,130,0,0,0,0,0,0,0,117,116,0,0,208,0,0,0,0,0,0,0,0],"split_type":[0,0,0,0,0,0,0,0,0,0,0,0,0,0,0,0,0,0,0,0,0,0,0,0,0,0,0,0,0,0,0,0,0,0,0,0,0,0,0,0,0],"sum_hessian":[8.758933E2,5.740421E2,3.0185123E2,3.0402036E2,2.7002176E2,5.725401E0,2.9612582E2,6.1645233E1,2.423751E2,1.3906581E0,2.686311E2,3.2508562E0,2.9287497E2,4.8589207E1,1.3056027E1,2.3105856E1,2.1926926E2,2.4583412E2,2.2796963E1,2.893516E2,3.523374E0,4.746514E1,1.1240644E0,1.1755447E1,1.3005793E0,2.4121344E0,2.0693722E1,7.515716E0,2.1175354E2,1.9432472E1,3.3644922E0,1.5473235E0,2.8780426E2,2.328999E0,1.1943752E0,1.4642142E0,2.1028932E2,1.0718446E0,1.8360626E1,2.8499573E2,2.808539E0],"tree_param":{"num_deleted":"0","num_feature":"210","num_nodes":"41","size_leaf_vector":"1"}},{"base_weights":[-6.552295E-3,5.865752E-1,-3.0655934E-2,-2.9874062E-2,6.5648633E-1,-2.7789757E-2,6.819155E-1,-3.0634686E-2,6.986524E-1,7.1549463E-1,-2.7124492E-2,-3.655352E-2,3.6331043E-2],"categories":[],"categories_nodes":[],"categories_segments":[],"categories_sizes":[],"default_left":[0,0,0,0,0,0,0,0,0,0,0,0,0],"id":44,"left_children":[1,3,-1,-1,5,-1,7,-1,9,11,-1,-1,-1],"loss_changes":[3.0876758E2,3.6312332E1,0E0,0E0,1.302478E1,0E0,9.143555E0,0E0,8.69873E0,6.851288E0,0E0,0E0,0E0],"parents":[2147483647,0,0,1,1,4,4,6,6,8,8,9,9],"right_children":[2,4,-1,-1,6,-1,8,-1,10,12,-1,-1,-1],"split_conditions":[-5.2699065E-1,-5.570557E-1,-3.0655934E-2,-2.9874062E-2,-1.6361555E-1,-2.7789757E-2,-1.3071569E0,-3.0634686E-2,1.3691117E0,-1.289491E0,-2.7124492E-2,-3.655352E-2,3.6331043E-2],"split_indices":[110,204,0,0,106,0,138,0,49,103,0,0,0],"split_type":[0,0,0,0,0,0,0,0,0,0,0,0,0],"sum_hessian":[8.5623346E2,4.329291E2,4.2330435E2,2.371591E1,4.092132E2,7.978929E0,4.0123428E2,4.666538E0,3.9656775E2,3.9167624E2,4.8915024E0,2.495689E0,3.8918054E2],"tree_param":{"num_deleted":"0","num_feature":"210","num_nodes":"13","size_leaf_vector":"1"}},{"base_weights":[6.5379594E-3,7.099472E-1,-5.636279E-1,7.6906693E-1,-7.6975025E-2,3.4357123E-2,-5.8170396E-1,3.875568E-2,-1.988606E-2,6.258105E-1,-3.154494E-1,2.796799E-2,-5.865819E-1,9.17417E-3,3.5080697E-2,-4.940324E-1,5.858924E-1,1.4043388E-2,-5.914648E-1,-2.9178813E-2,9.547933E-3,1.3423517E-3,3.9583415E-2,-5.9537286E-1,-1.152609E-3,-2.9850826E-2,-4.0506336E-4],"categories":[],"categories_nodes":[],"categories_segments":[],"categories_sizes":[],"default_left":[0,0,0,0,0,0,0,0,0,0,0,0,0,0,0,0,0,0,0,0,0,0,0,0,0,0,0],"id":45,"left_children":[1,3,5,7,9,-1,11,-1,-1,13,15,-1,17,-1,-1,19,21,-1,23,-1,-1,-1,-1,25,-1,-1,-1],"loss_changes":[3.3811838E2,1.7618042E1,1.0927338E1,2.7856598E0,4.769905E0,0E0,2.8859406E0,0E0,0E0,1.1427021E-1,3.6753943E0,0E0,2.1064148E0,0E0,0E0,1.2215943E0,4.3153667E-1,0E0,9.988556E-1,0E0,0E0,0E0,0E0,4.3214417E-1,0E0,0E0,0E0],"parents":[2147483647,0,0,1,1,2,2,3,3,4,4,6,6,9,9,10,10,12,12,15,15,16,16,18,18,23,23],"right_children":[2,4,6,8,10,-1,12,-1,-1,14,16,-1,18,-1,-1,20,22,-1,24,-1,-1,-1,-1,26,-1,-1,-1],"split_conditions":[-5.8765024E-1,5.452793E-1,3.1094018E-1,7.1652365E-1,-8.3491737E-1,3.4357123E-2,-7.671908E-1,3.875568E-2,-1.988606E-2,-1.0380449E0,-2.3075706E-1,2.796799E-2,-7.250616E-1,9.17417E-3,3.5080697E-2,9.289252E-1,-1.0380645E0,1.4043388E-2,1.0536364E0,-2.9178813E-2,9.547933E-3,1.3423517E-3,3.9583415E-2,9.46815E-1,-1.152609E-3,-2.9850826E-2,-4.0506336E-4],"split_indices":[48,199,199,119,114,0,209,0,0,207,165,0,114,0,0,68,102,0,201,0,0,0,0,5,0,0,0],"split_type":[0,0,0,0,0,0,0,0,0,0,0,0,0,0,0,0,0,0,0,0,0,0,0,0,0,0,0],"sum_hessian":[8.4106415E2,3.764256E2,4.6463855E2,3.5014282E2,2.6282776E1,6.091968E0,4.5854657E2,3.4867157E2,1.4712559E0,6.247405E0,2.003537E1,1.4680212E0,4.5707855E2,1.4144335E0,4.8329716E0,1.7099361E1,2.936008E0,2.2421439E0,4.5483643E2,1.5253445E1,1.8459177E0,1.0940893E0,1.8419186E0,4.516835E2,3.152928E0,4.504063E2,1.2771815E0],"tree_param":{"num_deleted":"0","num_feature":"210","num_nodes":"27","size_leaf_vector":"1"}},{"base_weights":[2.9330078E-4,-3.629517E-1,6.984493E-1,-3.0311668E-2,-1.9423746E-1,-2.5416082E-2,7.196489E-1,5.686779E-1,-3.4228185E-1,-3.8766587E-1,7.406406E-1,7.451315E-1,-2.7034286E-2,-4.0350658E-1,3.78174E-2,3.7362825E-3,-2.5676398E-2,-2.5079174E-2,7.552246E-1,2.4786007E-3,7.6519006E-1,2.2302335E-2,-5.34316E-1,-6.3128434E-3,7.6006967E-1,8.805375E-3,3.89452E-2,4.6168618E-2,-2.6140768E-2,6.0006805E-2,-2.7657023E-2,2.20118E-2,3.8526054E-2],"categories":[],"categories_nodes":[],"categories_segments":[],"categories_sizes":[],"default_left":[0,0,0,0,0,0,0,0,0,0,0,0,0,0,0,0,0,0,0,0,0,0,0,0,0,0,0,0,0,0,0,0,0],"id":46,"left_children":[1,3,5,-1,7,-1,9,11,13,15,17,19,-1,21,-1,-1,-1,-1,23,-1,25,27,29,-1,31,-1,-1,-1,-1,-1,-1,-1,-1],"loss_changes":[2.1669707E2,2.29516E1,7.8470154E0,0E0,3.7845974E1,0E0,6.976761E0,1.1081392E1,1.9125969E1,3.8818312E-1,5.501892E0,6.245861E-1,0E0,1.4810776E1,0E0,0E0,0E0,0E0,1.2913818E0,0E0,2.3513794E-1,3.1623613E1,7.301304E0,0E0,5.917816E-1,0E0,0E0,0E0,0E0,0E0,0E0,0E0,0E0],"parents":[2147483647,0,0,1,1,2,2,4,4,6,6,7,7,8,8,9,9,10,10,11,11,13,13,18,18,20,20,21,21,22,22,24,24],"right_children":[2,4,6,-1,8,-1,10,12,14,16,18,20,-1,22,-1,-1,-1,-1,24,-1,26,28,30,-1,32,-1,-1,-1,-1,-1,-1,-1,-1],"split_conditions":[5.1982105E-1,-7.1030277E-1,5.208988E-1,-3.0311668E-2,-3.6388767E-1,-2.5416082E-2,-8.3491737E-1,-6.513939E-2,1.8805408E0,6.9364214E-1,-7.4181557E-1,-3.231153E-1,-2.7034286E-2,4.7680134E-1,3.78174E-2,3.7362825E-3,-2.5676398E-2,-2.5079174E-2,-3.5602203E-1,2.4786007E-3,-1.1030692E0,-9.903083E-1,-1.2918153E0,-6.3128434E-3,-7.0067316E-1,8.805375E-3,3.89452E-2,4.6168618E-2,-2.6140768E-2,6.0006805E-2,-2.7657023E-2,2.20118E-2,3.8526054E-2],"split_indices":[108,15,3,0,99,0,114,114,148,131,167,72,0,10,0,0,0,0,0,0,46,124,117,0,125,0,0,0,0,0,0,0,0],"split_type":[0,0,0,0,0,0,0,0,0,0,0,0,0,0,0,0,0,0,0,0,0,0,0,0,0,0,0,0,0,0,0,0,0],"sum_hessian":[8.524784E2,5.6104913E2,2.9142926E2,2.2869028E2,3.3235886E2,4.634514E0,2.8679474E2,5.355146E1,2.788074E2,5.010724E0,2.81784E2,4.648583E1,7.0656333E0,2.6468942E2,1.4117968E1,1.159018E0,3.8517063E0,2.8823307E0,2.7890167E2,1.4002862E0,4.508554E1,6.239891E1,2.0229051E2,1.3876274E0,2.7751404E2,1.3406217E0,4.374492E1,2.3258734E1,3.9140175E1,1.4981662E0,2.0079234E2,1.0146106E1,2.6736795E2],"tree_param":{"num_deleted":"0","num_feature":"210","num_nodes":"33","size_leaf_vector":"1"}},{"base_weights":[-4.8139668E-4,5.714552E-1,-3.0354977E-2,-2.9601028E-2,6.4017326E-1,-2.8023383E-2,6.685718E-1,6.966011E-1,-4.6995148E-2,7.118201E-1,-2.975643E-2,-3.4568693E-2,3.481626E-2,-2.6821544E-2,3.619158E-2],"categories":[],"categories_nodes":[],"categories_segments":[],"categories_sizes":[],"default_left":[0,0,0,0,0,0,0,0,0,0,0,0,0,0,0],"id":47,"left_children":[1,3,-1,-1,5,-1,7,9,11,13,-1,-1,-1,-1,-1],"loss_changes":[2.945957E2,3.5321793E1,0E0,0E0,1.44618225E1,0E0,8.136978E0,8.068909E0,8.225421E0,6.158066E0,0E0,0E0,0E0,0E0,0E0],"parents":[2147483647,0,0,1,1,4,4,6,6,7,7,8,8,9,9],"right_children":[2,4,-1,-1,6,-1,8,10,12,14,-1,-1,-1,-1,-1],"split_conditions":[-5.2699065E-1,-5.570557E-1,-3.0354977E-2,-2.9601028E-2,-1.6361555E-1,-2.8023383E-2,1.605473E0,1.3888856E0,1.6743715E0,-1.3422152E0,-2.975643E-2,-3.4568693E-2,3.481626E-2,-2.6821544E-2,3.619158E-2],"split_indices":[110,204,0,0,106,0,144,70,1,159,0,0,0,0,0],"split_type":[0,0,0,0,0,0,0,0,0,0,0,0,0,0,0],"sum_hessian":[8.471084E2,4.3604803E2,4.1106036E2,2.3893229E1,4.1215482E2,9.090454E0,4.0306436E2,3.8789667E2,1.5167698E1,3.8382343E2,4.0732307E0,8.162004E0,7.005694E0,3.242057E0,3.8058136E2],"tree_param":{"num_deleted":"0","num_feature":"210","num_nodes":"15","size_leaf_vector":"1"}},{"base_weights":[-9.5071085E-3,6.841251E-1,-5.64152E-1,7.42076E-1,-1.0495315E-1,2.9795265E-2,-5.792052E-1,3.7863255E-2,-3.7865645E-1,-2.6928318E-1,3.635905E-2,-5.8273387E-1,2.1190593E-2,-2.4123233E-2,8.6902187E-4,5.367882E-1,-4.8880002E-1,-5.866965E-1,8.584158E-3,3.1240685E-2,8.562802E-3,-2.8989999E-2,1.615001E-2,-5.899859E-1,8.029823E-3,-5.2196505E-3,-2.963983E-2],"categories":[],"categories_nodes":[],"categories_segments":[],"categories_sizes":[],"default_left":[0,0,0,0,0,0,0,0,0,0,0,0,0,0,0,0,0,0,0,0,0,0,0,0,0,0,0],"id":48,"left_children":[1,3,5,7,9,-1,11,-1,13,15,-1,17,-1,-1,-1,19,21,23,-1,-1,-1,-1,-1,25,-1,-1,-1],"loss_changes":[3.1893176E2,1.692186E1,8.38916E0,6.1303253E0,3.7617855E0,0E0,1.8582458E0,0E0,2.2450322E-1,4.2448764E0,0E0,1.4581451E0,0E0,0E0,0E0,6.333578E-2,1.5327272E0,1.2056427E0,0E0,0E0,0E0,0E0,0E0,5.52536E-1,0E0,0E0,0E0],"parents":[2147483647,0,0,1,1,2,2,3,3,4,4,6,6,8,8,9,9,11,11,15,15,16,16,17,17,23,23],"right_children":[2,4,6,8,10,-1,12,-1,14,16,-1,18,-1,-1,-1,20,22,24,-1,-1,-1,-1,-1,26,-1,-1,-1],"split_conditions":[-5.578783E-1,5.452793E-1,3.2134855E-1,-5.4446983E-1,-5.3511125E-1,2.9795265E-2,5.955067E-1,3.7863255E-2,-4.6103564E-1,-8.3491737E-1,3.635905E-2,1.0340825E0,2.1190593E-2,-2.4123233E-2,8.6902187E-4,-1.0318333E0,-2.3075706E-1,9.46815E-1,8.584158E-3,3.1240685E-2,8.562802E-3,-2.8989999E-2,1.615001E-2,3.6541027E-1,8.029823E-3,-5.2196505E-3,-2.963983E-2],"split_indices":[20,199,206,85,25,0,3,0,106,114,0,208,0,0,0,158,165,5,0,0,0,0,0,178,0,0,0],"split_type":[0,0,0,0,0,0,0,0,0,0,0,0,0,0,0,0,0,0,0,0,0,0,0,0,0,0,0],"sum_hessian":[8.269948E2,3.673535E2,4.5964133E2,3.422759E2,2.5077574E1,5.3937244E0,4.542476E2,3.3801907E2,4.2568207E0,2.1506802E1,3.5707731E0,4.5307266E2,1.1749276E0,3.199852E0,1.0569687E0,4.2939587E0,1.7212843E1,4.5092648E2,2.14618E0,2.8889356E0,1.4050233E0,1.5734811E1,1.4780318E0,4.4915988E2,1.766614E0,2.8043718E0,4.463555E2],"tree_param":{"num_deleted":"0","num_feature":"210","num_nodes":"27","size_leaf_vector":"1"}},{"base_weights":[6.425826E-3,-3.4172034E-1,6.913464E-1,-1.4238407E-1,-5.704589E-1,-3.757019E-1,7.1148926E-1,5.9737265E-1,-3.249657E-1,-5.999342E-1,-2.3303239E-1,-2.5125464E-2,3.848739E-3,-2.2848383E-2,7.2583526E-1,8.250873E-1,-4.1911608E-1,6.316743E-1,-4.49175E-1,-3.0138155E-2,1.0738674E-3,-2.8472695E-2,4.7529957E-1,-2.3100339E-2,7.3710704E-1,1.1011465E-2,4.1808434E-2,-2.7570311E-2,1.7865386E-2,-2.26445E-2,3.671643E-2,-4.8917684E-1,3.491102E-2,-1.6438974E-2,3.345807E-2,-2.0298073E-2,7.436647E-1,5.5738844E-2,-2.5566274E-2,3.7432697E-2,4.495467E-4],"categories":[],"categories_nodes":[],"categories_segments":[],"categories_sizes":[],"default_left":[0,0,0,0,0,0,0,0,0,0,0,0,0,0,0,0,0,0,0,0,0,0,0,0,0,0,0,0,0,0,0,0,0,0,0,0,0,0,0,0,0],"id":49,"left_children":[1,3,5,7,9,11,13,15,17,19,21,-1,-1,-1,23,25,27,29,31,-1,-1,-1,33,-1,35,-1,-1,-1,-1,-1,-1,37,-1,-1,-1,-1,39,-1,-1,-1,-1],"loss_changes":[1.9926308E2,2.5181038E1,6.3201447E0,4.0360497E1,2.4228516E0,3.7574983E-1,4.9706116E0,1.4053629E1,2.8701876E1,4.283905E-1,5.592985E0,0E0,0E0,0E0,4.0060883E0,1.4239502E-1,1.3784065E0,3.4387932E0,1.0083977E1,0E0,0E0,0E0,1.4260638E0,0E0,2.3376312E0,0E0,0E0,0E0,0E0,0E0,0E0,7.8775826E0,0E0,0E0,0E0,0E0,9.84375E-1,0E0,0E0,0E0,0E0],"parents":[2147483647,0,0,1,1,2,2,3,3,4,4,5,5,6,6,7,7,8,8,9,9,10,10,14,14,15,15,16,16,17,17,18,18,22,22,24,24,31,31,36,36],"right_children":[2,4,6,8,10,12,14,16,18,20,22,-1,-1,-1,24,26,28,30,32,-1,-1,-1,34,-1,36,-1,-1,-1,-1,-1,-1,38,-1,-1,-1,-1,40,-1,-1,-1,-1],"split_conditions":[5.2151835E-1,-7.147275E-2,-8.3491737E-1,4.7135296E-1,4.5239434E-1,-1.0496552E0,5.208988E-1,-1.4776494E-1,-6.345362E-1,1.4019691E0,-2.8125373E-1,-2.5125464E-2,3.848739E-3,-2.2848383E-2,-6.6371065E-1,-6.319419E-1,8.672031E-1,-1.052185E0,1.9096088E0,-3.0138155E-2,1.0738674E-3,-2.8472695E-2,-7.525054E-1,-2.3100339E-2,-4.164279E-1,1.1011465E-2,4.1808434E-2,-2.7570311E-2,1.7865386E-2,-2.26445E-2,3.671643E-2,-1.289491E0,3.491102E-2,-1.6438974E-2,3.345807E-2,-2.0298073E-2,9.353482E-1,5.5738844E-2,-2.5566274E-2,3.7432697E-2,4.495467E-4],"split_indices":[94,12,114,17,24,165,3,33,197,18,93,0,0,0,69,181,179,158,155,0,0,0,1,0,0,0,0,0,0,0,0,103,0,0,0,0,117,0,0,0,0],"split_type":[0,0,0,0,0,0,0,0,0,0,0,0,0,0,0,0,0,0,0,0,0,0,0,0,0,0,0,0,0,0,0,0,0,0,0,0,0,0,0,0,0],"sum_hessian":[8.336604E2,5.530469E2,2.806135E2,2.9638336E2,2.566635E2,4.872009E0,2.757415E2,5.822089E1,2.3816246E2,2.353288E2,2.1334734E1,3.7198818E0,1.1521268E0,2.9702072E0,2.727713E2,4.7719112E1,1.050178E1,2.6899712E1,2.1126276E2,2.342922E2,1.0365866E0,1.4597656E1,6.7370777E0,2.18818E0,2.705831E2,1.2340529E0,4.6485058E1,9.220557E0,1.281222E0,2.0309124E0,2.48688E1,2.0469992E2,6.5628233E0,1.1735609E0,5.563517E0,1.1960218E0,2.693871E2,2.1162243E0,2.0258371E2,2.6755106E2,1.8360244E0],"tree_param":{"num_deleted":"0","num_feature":"210","num_nodes":"41","size_leaf_vector":"1"}},{"base_weights":[-6.585171E-3,5.568248E-1,-3.0074326E-2,-2.9259527E-2,6.211437E-1,-2.8706873E-2,6.433628E-1,-2.8099341E-2,6.625681E-1,6.8006027E-1,-2.7320912E-2,-3.0429516E-2,3.4845013E-2],"categories":[],"categories_nodes":[],"categories_segments":[],"categories_sizes":[],"default_left":[0,0,0,0,0,0,0,0,0,0,0,0,0],"id":50,"left_children":[1,3,-1,-1,5,-1,7,-1,9,11,-1,-1,-1],"loss_changes":[2.7817395E2,3.1673538E1,0E0,0E0,1.1099258E1,0E0,9.565216E0,0E0,8.64769E0,8.805222E0,0E0,0E0,0E0],"parents":[2147483647,0,0,1,1,4,4,6,6,8,8,9,9],"right_children":[2,4,-1,-1,6,-1,8,-1,10,12,-1,-1,-1],"split_conditions":[-5.2699065E-1,-5.570557E-1,-3.0074326E-2,-2.9259527E-2,-4.8358908E-1,-2.8706873E-2,-5.772742E-1,-2.8099341E-2,1.3691117E0,-1.3071569E0,-2.7320912E-2,-3.0429516E-2,3.4845013E-2],"split_indices":[110,204,0,0,6,0,37,0,49,138,0,0,0],"split_type":[0,0,0,0,0,0,0,0,0,0,0,0,0],"sum_hessian":[8.279413E2,4.2525827E2,4.02683E2,2.2242004E1,4.0301627E2,6.901626E0,3.9611465E2,5.7692194E0,3.9034543E2,3.8520953E2,5.135894E0,4.5156713E0,3.8069385E2],"tree_param":{"num_deleted":"0","num_feature":"210","num_nodes":"13","size_leaf_vector":"1"}},{"base_weights":[4.6729716E-3,7.137929E-1,-5.179265E-1,7.326095E-1,-2.3519027E-1,6.520383E-2,-5.7041365E-1,3.69439E-2,2.778817E-1,-2.5997832E-2,2.6633425E-2,6.004491E-1,-2.1626817E-1,-5.8234715E-1,3.0478466E-2,-2.0894688E-2,3.227325E-2,3.7457805E-2,-1.0642626E-2,3.3317264E-2,-4.4421473E-1,-5.866381E-1,1.9009821E-3,-5.2998006E-1,2.7512489E-2,-5.890304E-1,-1.2907922E-1,-2.8611818E-2,5.395414E-3,-2.9573306E-2,-2.050686E-3,4.602091E-3,-1.56176835E-2],"categories":[],"categories_nodes":[],"categories_segments":[],"categories_sizes":[],"default_left":[0,0,0,0,0,0,0,0,0,0,0,0,0,0,0,0,0,0,0,0,0,0,0,0,0,0,0,0,0,0,0,0,0],"id":51,"left_children":[1,3,5,7,9,11,13,-1,15,-1,-1,17,19,21,-1,-1,-1,-1,-1,-1,23,25,-1,27,-1,29,31,-1,-1,-1,-1,-1,-1],"loss_changes":[2.9224268E2,6.1468964E0,1.393309E1,7.305603E-1,1.8649275E0,5.9132986E0,6.221588E0,0E0,1.82147E0,0E0,0E0,1.7915783E0,5.5054574E0,1.1216125E0,0E0,0E0,0E0,0E0,0E0,0E0,2.0979633E0,3.7297058E-1,0E0,6.0102177E-1,0E0,5.200348E-1,1.6710821E-1,0E0,0E0,0E0,0E0,0E0,0E0],"parents":[2147483647,0,0,1,1,2,2,3,3,4,4,5,5,6,6,8,8,11,11,12,12,13,13,20,20,21,21,23,23,25,25,26,26],"right_children":[2,4,6,8,10,12,14,-1,16,-1,-1,18,20,22,-1,-1,-1,-1,-1,-1,24,26,-1,28,-1,30,32,-1,-1,-1,-1,-1,-1],"split_conditions":[-7.539341E-1,5.77162E-1,-5.983299E-1,5.57735E-1,-3.1807992E-1,5.69068E-1,-9.531073E-2,3.69439E-2,5.866249E-1,-2.5997832E-2,2.6633425E-2,8.250728E-1,-8.3491737E-1,1.0340825E0,3.0478466E-2,-2.0894688E-2,3.227325E-2,3.7457805E-2,-1.0642626E-2,3.3317264E-2,7.4227387E-1,1.7431923E0,1.9009821E-3,7.4165183E-1,2.7512489E-2,3.053973E0,2.8329651E0,-2.8611818E-2,5.395414E-3,-2.9573306E-2,-2.050686E-3,4.602091E-3,-1.56176835E-2],"split_indices":[209,0,62,185,9,52,37,0,3,0,0,60,114,208,0,0,0,0,0,0,75,102,0,82,0,48,1,0,0,0,0,0,0],"split_type":[0,0,0,0,0,0,0,0,0,0,0,0,0,0,0,0,0,0,0,0,0,0,0,0,0,0,0,0,0,0,0,0,0],"sum_hessian":[7.865992E2,3.3358664E2,4.5301254E2,3.273244E2,6.2622356E0,3.7388245E1,4.156243E2,3.2225714E2,5.067258E0,4.803623E0,1.4586124E0,1.249486E1,2.4893387E1,4.1196448E2,3.659832E0,1.704344E0,3.362914E0,1.0630086E1,1.8647738E0,4.7147055E0,2.017868E1,4.0918857E2,2.775912E0,1.9006573E1,1.1721091E0,4.0677448E2,2.4140837E0,1.7922253E1,1.0843202E0,4.0489557E2,1.8789184E0,1.3196796E0,1.0944042E0],"tree_param":{"num_deleted":"0","num_feature":"210","num_nodes":"33","size_leaf_vector":"1"}},{"base_weights":[1.3272568E-2,-3.3847088E-1,6.6669476E-1,-2.9747171E-2,-1.6078237E-1,-2.314206E-2,6.811187E-1,3.7829196E-1,-3.3613038E-1,-3.7735158E-1,6.966877E-1,5.0503516E-1,-2.7188797E-2,6.797113E-2,-4.5940578E-1,1.7351125E-3,-2.542387E-2,-2.2053132E-2,7.0778066E-1,7.465186E-1,1.7329733E-4,8.366033E-1,-2.936381E-2,3.7041854E-2,-5.1036227E-1,-2.0340728E-2,7.141953E-1,3.8270812E-2,5.4174704E-3,-2.7613789E-2,3.0022725E-2,-3.9247258E-4,4.3537468E-2,5.4573663E-2,-2.6821015E-2,3.6022797E-2,-9.637233E-3],"categories":[],"categories_nodes":[],"categories_segments":[],"categories_sizes":[],"default_left":[0,0,0,0,0,0,0,0,0,0,0,0,0,0,0,0,0,0,0,0,0,0,0,0,0,0,0,0,0,0,0,0,0,0,0,0,0],"id":52,"left_children":[1,3,5,-1,7,-1,9,11,13,15,17,19,-1,21,23,-1,-1,-1,25,27,29,31,-1,-1,33,-1,35,-1,-1,-1,-1,-1,-1,-1,-1,-1,-1],"loss_changes":[1.878729E2,2.4121384E1,4.975479E0,0E0,2.9929619E1,0E0,4.923813E0,9.373101E0,1.1908829E1,2.7421385E-1,3.8345337E0,8.4077E0,0E0,2.899996E1,1.155975E1,0E0,0E0,0E0,2.2694397E0,4.7966385E-1,8.063092E0,7.698307E-1,0E0,0E0,7.930687E0,0E0,1.7034607E0,0E0,0E0,0E0,0E0,0E0,0E0,0E0,0E0,0E0,0E0],"parents":[2147483647,0,0,1,1,2,2,4,4,6,6,7,7,8,8,9,9,10,10,11,11,13,13,14,14,18,18,19,19,20,20,21,21,24,24,26,26],"right_children":[2,4,6,-1,8,-1,