{"learner":{"attributes":{"scikit_learn":"{\"_estimator_type\": \"classifier\"}"},"feature_names":[],"feature_types":[],"gradient_booster":{"model":{"gbtree_model_param":{"num_parallel_tree":"1","num_trees":"900"},"iteration_indptr":[0,3,6,9,12,15,18,21,24,27,30,33,36,39,42,45,48,51,54,57,60,63,66,69,72,75,78,81,84,87,90,93,96,99,102,105,108,111,114,117,120,123,126,129,132,135,138,141,144,147,150,153,156,159,162,165,168,171,174,177,180,183,186,189,192,195,198,201,204,207,210,213,216,219,222,225,228,231,234,237,240,243,246,249,252,255,258,261,264,267,270,273,276,279,282,285,288,291,294,297,300,303,306,309,312,315,318,321,324,327,330,333,336,339,342,345,348,351,354,357,360,363,366,369,372,375,378,381,384,387,390,393,396,399,402,405,408,411,414,417,420,423,426,429,432,435,438,441,444,447,450,453,456,459,462,465,468,471,474,477,480,483,486,489,492,495,498,501,504,507,510,513,516,519,522,525,528,531,534,537,540,543,546,549,552,555,558,561,564,567,570,573,576,579,582,585,588,591,594,597,600,603,606,609,612,615,618,621,624,627,630,633,636,639,642,645,648,651,654,657,660,663,666,669,672,675,678,681,684,687,690,693,696,699,702,705,708,711,714,717,720,723,726,729,732,735,738,741,744,747,750,753,756,759,762,765,768,771,774,777,780,783,786,789,792,795,798,801,804,807,810,813,816,819,822,825,828,831,834,837,840,843,846,849,852,855,858,861,864,867,870,873,876,879,882,885,888,891,894,897,900],"tree_info":[0,1,2,0,1,2,0,1,2,0,1,2,0,1,2,0,1,2,0,1,2,0,1,2,0,1,2,0,1,2,0,1,2,0,1,2,0,1,2,0,1,2,0,1,2,0,1,2,0,1,2,0,1,2,0,1,2,0,1,2,0,1,2,0,1,2,0,1,2,0,1,2,0,1,2,0,1,2,0,1,2,0,1,2,0,1,2,0,1,2,0,1,2,0,1,2,0,1,2,0,1,2,0,1,2,0,1,2,0,1,2,0,1,2,0,1,2,0,1,2,0,1,2,0,1,2,0,1,2,0,1,2,0,1,2,0,1,2,0,1,2,0,1,2,0,1,2,0,1,2,0,1,2,0,1,2,0,1,2,0,1,2,0,1,2,0,1,2,0,1,2,0,1,2,0,1,2,0,1,2,0,1,2,0,1,2,0,1,2,0,1,2,0,1,2,0,1,2,0,1,2,0,1,2,0,1,2,0,1,2,0,1,2,0,1,2,0,1,2,0,1,2,0,1,2,0,1,2,0,1,2,0,1,2,0,1,2,0,1,2,0,1,2,0,1,2,0,1,2,0,1,2,0,1,2,0,1,2,0,1,2,0,1,2,0,1,2,0,1,2,0,1,2,0,1,2,0,1,2,0,1,2,0,1,2,0,1,2,0,1,2,0,1,2,0,1,2,0,1,2,0,1,2,0,1,2,0,1,2,0,1,2,0,1,2,0,1,2,0,1,2,0,1,2,0,1,2,0,1,2,0,1,2,0,1,2,0,1,2,0,1,2,0,1,2,0,1,2,0,1,2,0,1,2,0,1,2,0,1,2,0,1,2,0,1,2,0,1,2,0,1,2,0,1,2,0,1,2,0,1,2,0,1,2,0,1,2,0,1,2,0,1,2,0,1,2,0,1,2,0,1,2,0,1,2,0,1,2,0,1,2,0,1,2,0,1,2,0,1,2,0,1,2,0,1,2,0,1,2,0,1,2,0,1,2,0,1,2,0,1,2,0,1,2,0,1,2,0,1,2,0,1,2,0,1,2,0,1,2,0,1,2,0,1,2,0,1,2,0,1,2,0,1,2,0,1,2,0,1,2,0,1,2,0,1,2,0,1,2,0,1,2,0,1,2,0,1,2,0,1,2,0,1,2,0,1,2,0,1,2,0,1,2,0,1,2,0,1,2,0,1,2,0,1,2,0,1,2,0,1,2,0,1,2,0,1,2,0,1,2,0,1,2,0,1,2,0,1,2,0,1,2,0,1,2,0,1,2,0,1,2,0,1,2,0,1,2,0,1,2,0,1,2,0,1,2,0,1,2,0,1,2,0,1,2,0,1,2,0,1,2,0,1,2,0,1,2,0,1,2,0,1,2,0,1,2,0,1,2,0,1,2,0,1,2,0,1,2,0,1,2,0,1,2,0,1,2,0,1,2,0,1,2,0,1,2,0,1,2,0,1,2,0,1,2,0,1,2,0,1,2,0,1,2,0,1,2,0,1,2,0,1,2,0,1,2,0,1,2,0,1,2,0,1,2,0,1,2,0,1,2,0,1,2,0,1,2,0,1,2,0,1,2,0,1,2,0,1,2,0,1,2,0,1,2,0,1,2,0,1,2,0,1,2,0,1,2,0,1,2,0,1,2,0,1,2,0,1,2,0,1,2,0,1,2,0,1,2,0,1,2,0,1,2,0,1,2,0,1,2,0,1,2,0,1,2,0,1,2,0,1,2,0,1,2,0,1,2,0,1,2,0,1,2,0,1,2,0,1,2,0,1,2,0,1,2,0,1,2,0,1,2,0,1,2,0,1,2,0,1,2,0,1,2,0,1,2,0,1,2,0,1,2,0,1,2,0,1,2,0,1,2,0,1,2,0,1,2,0,1,2,0,1,2,0,1,2,0,1,2,0,1,2,0,1,2,0,1,2,0,1,2,0,1,2,0,1,2,0,1,2,0,1,2,0,1,2,0,1,2,0,1,2,0,1,2,0,1,2,0,1,2,0,1,2,0,1,2,0,1,2,0,1,2,0,1,2,0,1,2],"trees":[{"base_weights":[-3.5014309E-3,9.861211E-1,-5.9815866E-1,1.3263268E0,-2.9075593E-1,-6.799856E-1,3.5279292E-1,1.4409449E0,4.515352E-1,7.341176E-2,-5.110915E-1,6.774194E-2,-6.8663937E-1,1.0555102E0,-3.8884127E-1,1.4674205E0,2.6989615E-1,1.2719407E0,-3.2404187E-1,3.4333956E-1,-6.688835E-1,-5.3919405E-1,-7.2640777E-1,1.2801843E0,-3.221477E-2,-5.661972E-1,6.880734E-2,1.4818802E0,4.511274E-2,6.992482E-2,-3.2727275E-2,1.4108323E0,-3.196722E-2,-5.00637E-1,6.7058824E-2,7.2413795E-2,-6.9395024E-1,5.454546E-2,-6.872574E-1,-1.9446087E-1,-6.775579E-1,-7.2846645E-1,5.1724136E-2,7.431472E-2,-3.4403674E-2,6.315789E-2,-6.6371685E-1,7.442512E-2,-3.0000001E-2,6.2264152E-2,-3.370787E-2,7.4079126E-2,-2.727273E-2,6E-2,-2.983979E-2,-3.614458E-2,-1.8292686E-2,-3.5297263E-2,5.454546E-2,-2.5331477E-2,7.2527476E-2,-3.450468E-2,5.454546E-2,4.285714E-2,-3.6485177E-2,5.1724136E-2,-3.535607E-2],"categories":[],"categories_nodes":[],"categories_segments":[],"categories_sizes":[],"default_left":[0,0,0,0,0,0,0,0,0,0,0,0,0,0,0,0,0,0,0,0,0,0,0,0,0,0,0,0,0,0,0,0,0,0,0,0,0,0,0,0,0,0,0,0,0,0,0,0,0,0,0,0,0,0,0,0,0,0,0,0,0,0,0,0,0,0,0],"id":0,"left_children":[1,3,5,7,9,11,13,15,17,-1,19,-1,21,23,25,27,29,31,33,35,37,39,41,43,-1,45,-1,47,49,-1,-1,51,-1,53,-1,-1,55,-1,57,59,61,63,-1,-1,-1,-1,65,-1,-1,-1,-1,-1,-1,-1,-1,-1,-1,-1,-1,-1,-1,-1,-1,-1,-1,-1,-1],"loss_changes":[3.1379402E3,8.698152E2,2.594193E2,1.5782642E2,1.6426112E2,4.2458252E1,1.3828595E2,4.2916992E1,1.17842575E2,0E0,5.0877945E1,0E0,1.7538696E1,5.280597E1,4.1299316E1,2.802417E1,3.44177E1,2.4764038E1,2.8804089E1,6.8881935E1,1.1014038E1,3.1036636E1,9.473755E0,4.9929398E1,0E0,2.1948814E1,0E0,1.953418E1,1.3596382E1,0E0,0E0,1.2449768E1,0E0,1.4979712E1,0E0,0E0,3.200054E-2,0E0,1.1230225E1,9.756205E1,1.10811E1,5.3394775E0,0E0,0E0,0E0,0E0,9.060684E0,0E0,0E0,0E0,0E0,0E0,0E0,0E0,0E0,0E0,0E0,0E0,0E0,0E0,0E0,0E0,0E0,0E0,0E0,0E0,0E0],"parents":[2147483647,0,0,1,1,2,2,3,3,4,4,5,5,6,6,7,7,8,8,10,10,12,12,13,13,14,14,15,15,16,16,17,17,18,18,19,19,20,20,21,21,22,22,23,23,25,25,27,27,28,28,31,31,33,33,36,36,38,38,39,39,40,40,41,41,46,46],"right_children":[2,4,6,8,10,12,14,16,18,-1,20,-1,22,24,26,28,30,32,34,36,38,40,42,44,-1,46,-1,48,50,-1,-1,52,-1,54,-1,-1,56,-1,58,60,62,64,-1,-1,-1,-1,66,-1,-1,-1,-1,-1,-1,-1,-1,-1,-1,-1,-1,-1,-1,-1,-1,-1,-1,-1,-1],"split_conditions":[-3.633509E-2,-5.943633E-1,-1.2898545E-1,7.380113E-1,1.4170112E-1,1.8974909E-1,3.4163442E-1,3.9476383E0,-6.9031525E-1,7.341176E-2,-8.840354E-1,6.774194E-2,-4.2615205E-1,1.0656974E0,1.2329889E-1,2.230119E0,-8.580082E-1,1.7579025E0,-7.164584E-1,-3.0298617E-1,-1.0660475E0,-2.4504732E-1,2.3852768E0,3.763565E0,-3.221477E-2,-1.0382144E0,6.880734E-2,4.3311753E0,-8.780764E-1,6.992482E-2,-3.2727275E-2,6.550395E-1,-3.196722E-2,6.3623264E-2,6.7058824E-2,7.2413795E-2,1.8187569E-1,5.454546E-2,2.4379302E-2,3.9677626E-1,1.5516474E0,-4.8509216E0,5.1724136E-2,7.431472E-2,-3.4403674E-2,6.315789E-2,-3.1141415E-1,7.442512E-2,-3.0000001E-2,6.2264152E-2,-3.370787E-2,7.4079126E-2,-2.727273E-2,6E-2,-2.983979E-2,-3.614458E-2,-1.8292686E-2,-3.5297263E-2,5.454546E-2,-2.5331477E-2,7.2527476E-2,-3.450468E-2,5.454546E-2,4.285714E-2,-3.6485177E-2,5.1724136E-2,-3.535607E-2],"split_indices":[262,252,263,269,264,264,262,119,77,0,269,0,252,269,244,268,262,184,193,108,202,269,8,20,0,229,0,155,89,0,0,100,0,264,0,0,36,0,254,192,103,43,0,0,0,0,200,0,0,0,0,0,0,0,0,0,0,0,0,0,0,0,0,0,0,0,0],"split_type":[0,0,0,0,0,0,0,0,0,0,0,0,0,0,0,0,0,0,0,0,0,0,0,0,0,0,0,0,0,0,0,0,0,0,0,0,0,0,0,0,0,0,0,0,0,0,0,0,0,0,0,0,0,0,0,0,0,0,0,0,0,0,0,0,0,0,0],"sum_hessian":[5.3302217E3,2.0004443E3,3.3297776E3,1.5795554E3,4.2088885E2,3.066222E3,2.6355554E2,1.3959999E3,1.8355554E2,4.622222E1,3.7466666E2,9.333333E0,3.0568887E3,1.351111E2,1.2844444E2,1.3648888E3,3.1111109E1,8.8888885E1,9.4666664E1,5.8222218E1,3.1644443E2,6.524444E2,2.4044443E3,1.1955555E2,1.5555554E1,1.1733333E2,1.1111111E1,1.3511111E3,1.3777777E1,1.3777777E1,1.7333332E1,8.311111E1,5.7777777E0,8.622221E1,8.444444E0,2.7999998E1,3.0222221E1,2.6666665E0,3.1377777E2,1.8755554E2,4.6488885E2,2.4022222E3,2.222222E0,1.08444435E2,1.1111111E1,5.333333E0,1.1199999E2,1.3471111E3,3.9999998E0,4.8888884E0,8.888888E0,8.044444E1,2.6666665E0,3.9999998E0,8.222221E1,2.6666664E1,3.5555553E0,3.1111108E2,2.6666665E0,1.5822221E2,2.9333332E1,4.622222E2,2.6666665E0,1.3333333E0,2.4008887E3,2.222222E0,1.0977777E2],"tree_param":{"num_deleted":"0","num_feature":"270","num_nodes":"67","size_leaf_vector":"1"}},{"base_weights":[6.536717E-3,-6.862601E-1,2.0748906E-1,-7.1285737E-1,4.897959E-1,5.149163E-1,-6.1325485E-1,-7.2371554E-1,7.7777773E-1,6.724138E-2,-3.4403674E-2,2.1558361E-1,8.0421096E-1,-6.8980485E-1,8.4210527E-1,-7.355618E-1,6.185567E-1,6.393443E-2,-2.5862072E-2,9.146853E-1,8.1961334E-2,1.2715186E0,4.1135694E-3,6.666666E-1,-7.161352E-1,-3.5294123E-2,7.317074E-2,-2.7522977E-2,-7.4238473E-1,-2.9268295E-2,6.461539E-2,-6.6213965E-2,1.2785943E0,-2.1414037E-1,6.445705E-1,5.813953E-1,1.3758088E0,1.2263013E0,-6.740651E-1,6.96E-2,-3.2876715E-2,6.52174E-2,-7.302193E-1,-3.311689E-2,5.8536585E-2,-4.95868E-3,-3.746701E-2,-3.664988E-2,6.268657E-2,7.045929E-2,-8.759126E-3,3.7716404E-2,-2.0218981E-2,4.3918703E-2,-1.8113978E-2,5.5680316E-2,-2.0338986E-2,-3.370787E-2,6.992526E-2,7.400631E-2,-2.168675E-2,-3.572314E-2,6.52174E-2,6.393443E-2,-3.712856E-2],"categories":[],"categories_nodes":[],"categories_segments":[],"categories_sizes":[],"default_left":[0,0,0,0,0,0,0,0,0,0,0,0,0,0,0,0,0,0,0,0,0,0,0,0,0,0,0,0,0,0,0,0,0,0,0,0,0,0,0,0,0,0,0,0,0,0,0,0,0,0,0,0,0,0,0,0,0,0,0,0,0,0,0,0,0],"id":1,"left_children":[1,3,5,7,9,11,13,15,17,-1,-1,19,21,23,25,27,29,-1,-1,31,33,35,37,39,41,-1,-1,43,45,-1,-1,47,49,51,53,55,57,59,61,-1,-1,-1,63,-1,-1,-1,-1,-1,-1,-1,-1,-1,-1,-1,-1,-1,-1,-1,-1,-1,-1,-1,-1,-1,-1],"loss_changes":[7.45568E2,3.801367E1,1.0477482E3,1.9627686E1,2.834126E1,2.6139264E2,1.2665735E2,1.9057251E1,6.499591E0,0E0,0E0,1.3873016E2,5.741676E2,3.8896362E1,5.5854412E1,5.5840454E0,9.498802E0,0E0,0E0,8.515965E1,2.0813432E2,6.897412E1,4.7097537E2,2.1085514E1,3.0993286E1,0E0,0E0,9.987974E0,5.065918E0,0E0,0E0,5.85178E1,3.3259827E1,1.5115723E2,1.01725494E2,6.8296364E1,4.0092773E1,8.608411E1,3.0139359E1,0E0,0E0,0E0,2.6979065E1,0E0,0E0,0E0,0E0,0E0,0E0,0E0,0E0,0E0,0E0,0E0,0E0,0E0,0E0,0E0,0E0,0E0,0E0,0E0,0E0,0E0,0E0],"parents":[2147483647,0,0,1,1,2,2,3,3,4,4,5,5,6,6,7,7,8,8,11,11,12,12,13,13,14,14,15,15,16,16,19,19,20,20,21,21,22,22,23,23,24,24,27,27,28,28,31,31,32,32,33,33,34,34,35,35,36,36,37,37,38,38,42,42],"right_children":[2,4,6,8,10,12,14,16,18,-1,-1,20,22,24,26,28,30,-1,-1,32,34,36,38,40,42,-1,-1,44,46,-1,-1,48,50,52,54,56,58,60,62,-1,-1,-1,64,-1,-1,-1,-1,-1,-1,-1,-1,-1,-1,-1,-1,-1,-1,-1,-1,-1,-1,-1,-1,-1,-1],"split_conditions":[1.8974909E-1,1.4068924E0,3.1156626E-1,2.6492962E-1,-4.8366556E-1,3.4097314E-1,-6.980085E-2,2.234506E0,-1.2380776E0,6.724138E-2,-3.4403674E-2,-7.894443E-1,6.0886437E-1,-6.791292E-2,3.2993445E-1,-1.079317E0,2.2865373E-1,6.393443E-2,-2.5862072E-2,8.521097E-1,-5.943633E-1,-4.2615205E-1,-3.7000507E-1,-6.3828737E-1,-1.08262E0,-3.5294123E-2,7.317074E-2,1.820508E-1,-8.9471406E-1,-2.9268295E-2,6.461539E-2,1.0411459E0,1.5076115E0,-6.1826634E-1,1.4550657E0,4.3901944E-1,-7.217743E-1,9.286525E-3,1.9910034E0,6.96E-2,-3.2876715E-2,6.52174E-2,-9.396765E-1,-3.311689E-2,5.8536585E-2,-4.95868E-3,-3.746701E-2,-3.664988E-2,6.268657E-2,7.045929E-2,-8.759126E-3,3.7716404E-2,-2.0218981E-2,4.3918703E-2,-1.8113978E-2,5.5680316E-2,-2.0338986E-2,-3.370787E-2,6.992526E-2,7.400631E-2,-2.168675E-2,-3.572314E-2,6.52174E-2,6.393443E-2,-3.712856E-2],"split_indices":[264,268,252,162,155,253,47,94,5,0,0,12,269,259,12,256,3,0,0,268,252,252,252,2,247,0,0,10,4,0,0,214,124,219,269,212,236,16,112,0,0,0,58,0,0,0,0,0,0,0,0,0,0,0,0,0,0,0,0,0,0,0,0,0,0],"split_type":[0,0,0,0,0,0,0,0,0,0,0,0,0,0,0,0,0,0,0,0,0,0,0,0,0,0,0,0,0,0,0,0,0,0,0,0,0,0,0,0,0,0,0,0,0,0,0,0,0,0,0,0,0,0,0,0,0,0,0,0,0,0,0,0,0],"sum_hessian":[5.353333E3,1.2031111E3,4.150222E3,1.1768888E3,2.6222221E1,3.0195554E3,1.1306666E3,1.1688888E3,7.9999995E0,1.5111111E1,1.1111111E1,1.4848888E3,1.5346666E3,1.0746666E3,5.5999996E1,1.1591111E3,9.777777E0,5.7777777E0,2.222222E0,2.3733331E2,1.2475555E3,9.684444E2,5.6622217E2,1.9999998E1,1.0546666E3,1.5999999E1,3.9999996E1,1.1111111E1,1.1479999E3,3.5555553E0,6.222222E0,6.444444E1,1.7288889E2,8.177777E2,4.2977774E2,1.2799999E2,8.404444E2,2.0177777E2,3.6444443E2,1.2888888E1,7.1111107E0,6.666666E0,1.0479999E3,7.5555553E0,3.5555553E0,1.2444444E1,1.1355555E3,4.3111107E1,2.1333332E1,1.5866666E2,1.4222221E1,1.3377777E2,6.8399994E2,3.4888885E2,8.0888885E1,8.311111E1,4.4888885E1,8.888888E0,8.315555E2,1.751111E2,2.6666664E1,3.5777777E2,6.666666E0,5.7777777E0,1.0422222E3],"tree_param":{"num_deleted":"0","num_feature":"270","num_nodes":"65","size_leaf_vector":"1"}},{"base_weights":[4.8159673E-3,-3.6293995E-1,1.3365765E0,-7.086296E-1,3.38137E-1,1.413786E0,-1.3714291E-1,-7.192052E-1,6.976744E-2,-2.5350967E-1,1.1898685E0,1.4305854E0,-3.3529416E-2,7.04698E-2,-3.662338E-2,-7.266274E-1,6.788321E-1,-5.382586E-1,7.2245634E-1,9.5999956E-2,1.3401831E0,-3.26087E-2,1.4440333E0,-7.361265E-1,-1.9867554E-1,6.774194E-2,-3.1132078E-2,6.589595E-2,-5.9554434E-1,1.2993063E0,-1.6792743E-1,-3.6632396E-2,7.0408165E-2,-3.4883723E-2,1.3977507E0,2.1761654E-1,1.4674699E0,-3.7147753E-2,-2.1192664E-2,-3.6521744E-2,6.923077E-2,6.6E-2,-3.1942647E-2,7.427027E-2,-3.3870973E-2,7.058824E-2,-3.162476E-2,-3.311689E-2,7.159012E-2,6.741574E-2,-3.4513276E-2,-3.1132078E-2,7.388696E-2],"categories":[],"categories_nodes":[],"categories_segments":[],"categories_sizes":[],"default_left":[0,0,0,0,0,0,0,0,0,0,0,0,0,0,0,0,0,0,0,0,0,0,0,0,0,0,0,0,0,0,0,0,0,0,0,0,0,0,0,0,0,0,0,0,0,0,0,0,0,0,0,0,0],"id":2,"left_children":[1,3,5,7,9,11,13,15,-1,17,19,21,-1,-1,-1,23,25,27,29,31,33,-1,35,37,39,-1,-1,-1,41,43,45,-1,-1,-1,47,49,51,-1,-1,-1,-1,-1,-1,-1,-1,-1,-1,-1,-1,-1,-1,-1,-1],"loss_changes":[2.6106487E3,1.01255646E3,1.3143896E2,6.3259033E1,6.957728E2,3.934082E1,5.473941E1,2.938733E1,0E0,2.2694345E2,9.29173E1,3.140625E1,0E0,0E0,0E0,1.3747192E1,1.4236162E1,6.795154E1,9.500919E1,7.65401E1,5.9332703E1,0E0,3.0751709E1,5.4871826E0,4.3388496E1,0E0,0E0,0E0,5.1734406E1,4.2248215E1,5.4791904E1,0E0,0E0,0E0,3.4908264E1,2.2944286E1,2.3683838E1,0E0,0E0,0E0,0E0,0E0,0E0,0E0,0E0,0E0,0E0,0E0,0E0,0E0,0E0,0E0,0E0],"parents":[2147483647,0,0,1,1,2,2,3,3,4,4,5,5,6,6,7,7,9,9,10,10,11,11,15,15,16,16,17,17,18,18,19,19,20,20,22,22,23,23,24,24,28,28,29,29,30,30,34,34,35,35,36,36],"right_children":[2,4,6,8,10,12,14,16,-1,18,20,22,-1,-1,-1,24,26,28,30,32,34,-1,36,38,40,-1,-1,-1,42,44,46,-1,-1,-1,48,50,52,-1,-1,-1,-1,-1,-1,-1,-1,-1,-1,-1,-1,-1,-1,-1,-1],"split_conditions":[3.1156626E-1,5.39472E-1,-6.980085E-2,4.5363913E0,-3.2634267E-1,3.500175E0,-9.334893E-1,4.600189E-1,6.976744E-2,1.7193292E0,6.0886437E-1,-9.396765E-1,-3.3529416E-2,7.04698E-2,-3.662338E-2,3.6457293E0,-1.9869088E0,-9.3732935E-1,1.8018103E0,8.099551E-1,-8.8927287E-1,-3.26087E-2,-6.791292E-2,2.2257667E0,9.098312E-1,6.774194E-2,-3.1132078E-2,6.589595E-2,-9.651909E-1,-4.3869495E-2,-8.8437665E-1,-3.6632396E-2,7.0408165E-2,-3.4883723E-2,-1.0708818E0,-2.6623723E-1,-2.6640356E-1,-3.7147753E-2,-2.1192664E-2,-3.6521744E-2,6.923077E-2,6.6E-2,-3.1942647E-2,7.427027E-2,-3.3870973E-2,7.058824E-2,-3.162476E-2,-3.311689E-2,7.159012E-2,6.741574E-2,-3.4513276E-2,-3.1132078E-2,7.388696E-2],"split_indices":[252,265,47,65,243,0,80,264,0,5,265,58,0,0,0,155,1,49,6,136,4,0,259,4,211,0,0,0,92,63,4,0,0,0,247,1,262,0,0,0,0,0,0,0,0,0,0,0,0,0,0,0,0],"split_type":[0,0,0,0,0,0,0,0,0,0,0,0,0,0,0,0,0,0,0,0,0,0,0,0,0,0,0,0,0,0,0,0,0,0,0,0,0,0,0,0,0,0,0,0,0,0,0,0,0,0,0,0,0],"sum_hessian":[5.3284443E3,4.1759995E3,1.1524443E3,2.7968887E3,1.3791111E3,1.0951111E3,5.733333E1,2.7835554E3,1.3333332E1,8.1422217E2,5.6488885E2,1.0866666E3,8.444444E0,1.5555554E1,4.1777775E1,2.7693333E3,1.4222221E1,6.306666E2,1.8355554E2,6.844444E1,4.9644443E2,6.666666E0,1.0799999E3,2.7199998E3,4.9333332E1,9.333333E0,4.8888884E0,1.8222221E1,6.124444E2,1.1111111E2,7.244444E1,4.222222E1,2.6222221E1,1.3333332E1,4.8311108E2,2.0444443E1,1.0595555E3,2.6604443E3,5.9555553E1,3.7333332E1,1.1999999E1,1.2888888E1,5.9955554E2,1.0177777E2,9.333333E0,1.5999999E1,5.6444443E1,7.5555553E0,4.7555554E2,8.888888E0,1.1555555E1,4.8888884E0,1.0546666E3],"tree_param":{"num_deleted":"0","num_feature":"270","num_nodes":"53","size_leaf_vector":"1"}},{"base_weights":[2.169577E-3,9.2633414E-1,-5.7796115E-1,1.2410647E0,-2.7071536E-1,-6.6423905E-1,3.4940138E-1,1.355469E0,5.3403753E-1,6.842404E-2,-4.8423734E-1,6.284701E-2,-6.7026216E-1,9.6433616E-1,-3.391689E-1,1.3790748E0,2.8334787E-1,1.2457198E0,-3.0107662E-1,3.99837E-1,-6.4620274E-1,-5.173417E-1,-7.103976E-1,1.185962E0,-5.534247E-1,6.539988E-2,-5.1898116E-1,1.3858575E0,-3.008529E-2,6.540116E-2,-3.1968903E-2,1.3256087E0,-2.314893E-2,-4.7162977E-1,6.373435E-2,6.9236815E-2,-3.402064E-2,5.4634232E-2,-6.641316E-1,-2.2583269E-1,-6.806051E-1,-7.1287704E-1,5.311055E-2,6.932152E-2,-3.407083E-2,4.293069E-2,-3.5193995E-2,-6.358099E-1,6.1782625E-2,6.980803E-2,6.289404E-3,6.944873E-2,-2.8905958E-2,5.694887E-2,-2.7787616E-2,-3.396013E-2,5.0324526E-2,-3.186328E-2,2.2647575E-2,-3.451219E-2,4.6243068E-2,4.413398E-2,-3.5706703E-2,-3.4797985E-2,5.664433E-2],"categories":[],"categories_nodes":[],"categories_segments":[],"categories_sizes":[],"default_left":[0,0,0,0,0,0,0,0,0,0,0,0,0,0,0,0,0,0,0,0,0,0,0,0,0,0,0,0,0,0,0,0,0,0,0,0,0,0,0,0,0,0,0,0,0,0,0,0,0,0,0,0,0,0,0,0,0,0,0,0,0,0,0,0,0],"id":3,"left_children":[1,3,5,7,9,11,13,15,17,-1,19,-1,21,23,25,27,29,31,33,35,37,39,41,43,45,-1,47,49,-1,-1,-1,51,-1,53,-1,-1,-1,-1,55,57,59,61,-1,-1,-1,-1,-1,63,-1,-1,-1,-1,-1,-1,-1,-1,-1,-1,-1,-1,-1,-1,-1,-1,-1],"loss_changes":[2.8606438E3,7.755686E2,2.6250537E2,1.3108081E2,1.5088565E2,3.5548706E1,1.1874483E2,3.5088867E1,1.3623822E2,0E0,5.4738678E1,0E0,1.7987427E1,5.0437256E1,3.9974167E1,1.9259033E1,3.0581934E1,1.7487793E1,2.908422E1,6.427793E1,1.0762772E1,2.9611252E1,1.1156738E1,4.940587E1,4.75527E0,0E0,2.5452625E1,1.7572266E1,0E0,0E0,0E0,1.5079819E1,0E0,1.3688925E1,0E0,0E0,0E0,0E0,8.722519E0,6.340975E1,6.8341675E0,5.3704834E0,0E0,0E0,0E0,0E0,0E0,1.286121E1,0E0,0E0,0E0,0E0,0E0,0E0,0E0,0E0,0E0,0E0,0E0,0E0,0E0,0E0,0E0,0E0,0E0],"parents":[2147483647,0,0,1,1,2,2,3,3,4,4,5,5,6,6,7,7,8,8,10,10,12,12,13,13,14,14,15,15,16,16,17,17,18,18,19,19,20,20,21,21,22,22,23,23,24,24,26,26,27,27,31,31,33,33,38,38,39,39,40,40,41,41,47,47],"right_children":[2,4,6,8,10,12,14,16,18,-1,20,-1,22,24,26,28,30,32,34,36,38,40,42,44,46,-1,48,50,-1,-1,-1,52,-1,54,-1,-1,-1,-1,56,58,60,62,-1,-1,-1,-1,-1,64,-1,-1,-1,-1,-1,-1,-1,-1,-1,-1,-1,-1,-1,-1,-1,-1,-1],"split_conditions":[-3.633509E-2,-5.943633E-1,-1.2898545E-1,4.9226734E-1,1.4170112E-1,1.8974909E-1,3.4163442E-1,3.9476383E0,-1.0996791E0,6.842404E-2,-8.840354E-1,6.284701E-2,-4.2615205E-1,1.0656974E0,-1.0369203E0,4.3311753E0,-8.580082E-1,1.6942712E0,-7.164584E-1,-3.0298617E-1,-4.735186E-1,2.4648198E-1,2.3852768E0,3.763565E0,-9.0858173E-1,6.539988E-2,2.1390188E-1,2.2943554E0,-3.008529E-2,6.540116E-2,-3.1968903E-2,1.5453705E0,-2.314893E-2,1.0566551E-1,6.373435E-2,6.9236815E-2,-3.402064E-2,5.4634232E-2,2.4379302E-2,-2.66663E-1,1.5516474E0,-9.495641E-1,5.311055E-2,6.932152E-2,-3.407083E-2,4.293069E-2,-3.5193995E-2,9.559484E-1,6.1782625E-2,6.980803E-2,6.289404E-3,6.944873E-2,-2.8905958E-2,5.694887E-2,-2.7787616E-2,-3.396013E-2,5.0324526E-2,-3.186328E-2,2.2647575E-2,-3.451219E-2,4.6243068E-2,4.413398E-2,-3.5706703E-2,-3.4797985E-2,5.664433E-2],"split_indices":[262,252,263,265,264,264,262,119,14,0,265,0,252,265,229,155,262,241,193,108,173,265,4,20,22,0,102,103,0,0,0,99,0,264,0,0,0,0,254,28,103,67,0,0,0,0,0,205,0,0,0,0,0,0,0,0,0,0,0,0,0,0,0,0,0],"split_type":[0,0,0,0,0,0,0,0,0,0,0,0,0,0,0,0,0,0,0,0,0,0,0,0,0,0,0,0,0,0,0,0,0,0,0,0,0,0,0,0,0,0,0,0,0,0,0,0,0,0,0,0,0,0,0,0,0,0,0,0,0,0,0,0,0],"sum_hessian":[5.333667E3,2.0566958E3,3.276971E3,1.6284927E3,4.2820312E2,2.9983052E3,2.786659E2,1.4008961E3,2.2759662E2,4.872615E1,3.79477E2,8.72154E0,2.9895837E3,1.4699236E2,1.3167352E2,1.3704357E3,3.0460375E1,1.22613785E2,1.0498284E2,5.8529583E1,3.209474E2,6.244085E2,2.365175E3,1.2845393E2,1.853843E1,1.2341869E1,1.1933166E2,1.3660583E3,4.3773785E0,1.4235012E1,1.6225363E1,1.173513E2,5.2624793E0,9.5362015E1,9.6208315E0,3.0468544E1,2.806104E1,2.6635969E0,3.1828378E2,2.2501843E2,3.9939005E2,2.3624685E3,2.7066722E0,1.1623348E2,1.2220446E1,1.331873E0,1.7206556E1,1.1248004E2,6.8516164E0,1.3548722E3,1.1186155E1,1.1383276E2,3.5185406E0,4.111123E0,9.125089E1,3.160263E2,2.257491E0,1.4013766E2,8.488077E1,3.9757324E2,1.816804E0,1.3077507E0,2.3611606E3,1.09367195E2,3.112843E0],"tree_param":{"num_deleted":"0","num_feature":"270","num_nodes":"65","size_leaf_vector":"1"}},{"base_weights":[4.7740834E-3,-6.774103E-1,2.0401967E-1,-7.128116E-1,7.997433E-1,5.0423163E-1,-6.065932E-1,-7.2945315E-1,8.396503E-2,-3.254208E-2,6.699657E-2,2.2473128E-1,7.6999927E-1,-6.75933E-1,7.427923E-1,-3.677113E-2,3.7803313E-1,6.455373E-2,-3.451622E-2,-3.3644136E-2,5.802674E-1,1.1971827E0,1.384697E-2,6.1872512E-2,-6.904569E-1,-3.469684E-2,6.80003E-2,-2.6663309E-2,5.3579528E-2,-4.7497457E-1,3.722893E-1,-1.8765196E-1,7.655995E-1,4.2414466E-1,1.2641336E0,1.1497716E0,-6.556913E-1,6.0141858E-2,-7.0240474E-1,-3.0113056E-2,6.658964E-2,3.0171668E-2,-3.133543E-2,3.4134652E-2,-3.236076E-2,4.7345348E-2,4.309567E-4,6.1878946E-2,-3.6248263E-2,-6.9956626E-3,6.43618E-2,6.904287E-2,-1.9852312E-2,-3.4860354E-2,6.337663E-2,-3.5451155E-2,5.8704067E-2],"categories":[],"categories_nodes":[],"categories_segments":[],"categories_sizes":[],"default_left":[0,0,0,0,0,0,0,0,0,0,0,0,0,0,0,0,0,0,0,0,0,0,0,0,0,0,0,0,0,0,0,0,0,0,0,0,0,0,0,0,0,0,0,0,0,0,0,0,0,0,0,0,0,0,0,0,0],"id":4,"left_children":[1,3,5,7,9,11,13,15,17,-1,-1,19,21,23,25,-1,27,-1,-1,29,31,33,35,-1,37,-1,-1,-1,-1,39,41,43,45,47,49,51,53,-1,55,-1,-1,-1,-1,-1,-1,-1,-1,-1,-1,-1,-1,-1,-1,-1,-1,-1,-1],"loss_changes":[7.2253644E2,6.3407043E1,1.0015104E3,1.5628601E1,2.3279072E1,2.2288245E2,1.0458026E2,7.8814697E0,2.4179205E1,0E0,0E0,1.3459756E2,4.9704236E2,3.0270172E1,4.957611E1,0E0,4.8860207E0,0E0,0E0,1.5234346E2,8.790222E1,5.035437E1,4.2401254E2,0E0,2.4623138E1,0E0,0E0,0E0,0E0,9.449144E1,1.02670525E2,4.8714664E1,6.819479E1,7.5560524E1,2.9516357E1,7.444815E1,2.889116E1,0E0,1.3813171E1,0E0,0E0,0E0,0E0,0E0,0E0,0E0,0E0,0E0,0E0,0E0,0E0,0E0,0E0,0E0,0E0,0E0,0E0],"parents":[2147483647,0,0,1,1,2,2,3,3,4,4,5,5,6,6,7,7,8,8,11,11,12,12,13,13,14,14,16,16,19,19,20,20,21,21,22,22,24,24,29,29,30,30,31,31,32,32,33,33,34,34,35,35,36,36,38,38],"right_children":[2,4,6,8,10,12,14,16,18,-1,-1,20,22,24,26,-1,28,-1,-1,30,32,34,36,-1,38,-1,-1,-1,-1,40,42,44,46,48,50,52,54,-1,56,-1,-1,-1,-1,-1,-1,-1,-1,-1,-1,-1,-1,-1,-1,-1,-1,-1,-1],"split_conditions":[1.8974909E-1,4.1558513E-1,3.1156626E-1,1.7741378E-2,-9.5493674E-1,3.4097314E-1,-6.980085E-2,1.6037513E0,-8.8828224E-1,-3.254208E-2,6.699657E-2,-1.71582E-1,6.0886437E-1,-9.396765E-1,3.2993445E-1,-3.677113E-2,-6.5763485E-1,6.455373E-2,-3.451622E-2,-3.4913588E-1,-8.5581255E-1,-5.1436824E-1,-3.7000507E-1,6.1872512E-2,-1.08262E0,-3.469684E-2,6.80003E-2,-2.6663309E-2,5.3579528E-2,-3.696118E-1,4.5401293E-1,-1.3499261E0,1.2555627E0,4.3430242E-1,-7.433696E-1,9.286525E-3,1.9910034E0,6.0141858E-2,1.2981889E0,-3.0113056E-2,6.658964E-2,3.0171668E-2,-3.133543E-2,3.4134652E-2,-3.236076E-2,4.7345348E-2,4.309567E-4,6.1878946E-2,-3.6248263E-2,-6.9956626E-3,6.43618E-2,6.904287E-2,-1.9852312E-2,-3.4860354E-2,6.337663E-2,-3.5451155E-2,5.8704067E-2],"split_indices":[264,262,252,207,166,253,47,268,4,0,0,11,265,62,12,0,1,0,0,265,75,252,252,0,247,0,0,0,0,243,264,201,265,82,65,16,116,0,64,0,0,0,0,0,0,0,0,0,0,0,0,0,0,0,0,0,0],"split_type":[0,0,0,0,0,0,0,0,0,0,0,0,0,0,0,0,0,0,0,0,0,0,0,0,0,0,0,0,0,0,0,0,0,0,0,0,0,0,0,0,0,0,0,0,0,0,0,0,0,0,0,0,0,0,0,0,0],"sum_hessian":[5.313792E3,1.2006301E3,4.1131616E3,1.1730348E3,2.7595352E1,3.0018127E3,1.1113489E3,1.1491185E3,2.3916168E1,7.432301E0,2.0163052E1,1.4640054E3,1.5378074E3,1.0575067E3,5.384221E1,1.1432921E3,5.8264475E0,9.085122E0,1.4831046E1,8.4837744E2,6.1562787E2,9.8228723E2,5.5552014E2,7.3324294E0,1.0501743E3,1.6142332E1,3.769988E1,2.6178458E0,3.2086017E0,4.0638547E2,4.4199194E2,1.1968852E2,4.9593936E2,7.887729E1,9.0341E2,2.0574324E2,3.4977692E2,5.960597E0,1.0442137E3,3.8026266E2,2.6122797E1,3.592631E2,8.272887E1,4.1191795E1,7.849673E1,3.999055E2,9.603389E1,4.6139194E1,3.2738094E1,1.4542431E1,8.8886755E2,1.7909479E2,2.6648449E1,3.4301E2,6.766913E0,1.0411637E3,3.0499845E0],"tree_param":{"num_deleted":"0","num_feature":"270","num_nodes":"57","size_leaf_vector":"1"}},{"base_weights":[3.936854E-3,-3.562897E-1,1.244471E0,-6.978959E-1,3.2741252E-1,1.3118821E0,-4.692269E-2,-7.0523477E-1,6.392666E-2,-2.407584E-1,1.1143328E0,1.3276299E0,-3.31202E-2,6.6507526E-2,-3.5927527E-2,-7.1224105E-1,7.151234E-1,-5.2966464E-1,7.0056957E-1,5.7914246E-2,1.24869E0,1.4697261E-1,1.3472346E0,-4.0067187E-1,-7.214688E-1,-2.9134994E-2,6.352717E-2,-3.6900066E-2,-1.2301953E-1,-3.6739203E-1,1.0923502E0,-3.5986118E-2,6.50252E-2,-3.447731E-2,1.3025706E0,-3.3766463E-2,6.2174853E-2,-3.1734657E-2,1.3587029E0,6.2010404E-2,-3.6257844E-2,-3.6492035E-2,-1.7484335E-2,2.6218368E-2,-3.0433819E-2,6.294656E-2,-3.6357377E-2,-3.3776984E-2,6.241998E-2,-3.328902E-2,6.6788495E-2,6.8410896E-2,-3.182332E-2],"categories":[],"categories_nodes":[],"categories_segments":[],"categories_sizes":[],"default_left":[0,0,0,0,0,0,0,0,0,0,0,0,0,0,0,0,0,0,0,0,0,0,0,0,0,0,0,0,0,0,0,0,0,0,0,0,0,0,0,0,0,0,0,0,0,0,0,0,0,0,0,0,0],"id":5,"left_children":[1,3,5,7,9,11,13,15,-1,17,19,21,-1,-1,-1,23,25,27,29,31,33,35,37,39,41,-1,-1,-1,43,45,47,-1,-1,-1,49,-1,-1,-1,51,-1,-1,-1,-1,-1,-1,-1,-1,-1,-1,-1,-1,-1,-1],"loss_changes":[2.3960596E3,9.70714E2,1.0510132E2,4.1096313E1,6.195536E2,3.6533203E1,5.7212086E1,2.79906E1,0E0,2.1934122E2,8.238342E1,2.614331E1,0E0,0E0,0E0,7.613159E0,1.0871085E1,5.2151535E1,7.9695724E1,6.528658E1,5.471637E1,1.861233E1,2.630371E1,4.4191704E1,8.049438E0,0E0,0E0,0E0,6.637724E1,3.111271E1,3.916359E1,0E0,0E0,0E0,3.3677246E1,0E0,0E0,0E0,2.2003906E1,0E0,0E0,0E0,0E0,0E0,0E0,0E0,0E0,0E0,0E0,0E0,0E0,0E0,0E0],"parents":[2147483647,0,0,1,1,2,2,3,3,4,4,5,5,6,6,7,7,9,9,10,10,11,11,15,15,16,16,17,17,18,18,19,19,20,20,21,21,22,22,23,23,24,24,28,28,29,29,30,30,34,34,38,38],"right_children":[2,4,6,8,10,12,14,16,-1,18,20,22,-1,-1,-1,24,26,28,30,32,34,36,38,40,42,-1,-1,-1,44,46,48,-1,-1,-1,50,-1,-1,-1,52,-1,-1,-1,-1,-1,-1,-1,-1,-1,-1,-1,-1,-1,-1],"split_conditions":[3.1156626E-1,5.39472E-1,-6.980085E-2,4.5363913E0,-3.2634267E-1,3.500175E0,-9.334893E-1,4.600189E-1,6.392666E-2,1.7193292E0,6.0886437E-1,-6.791292E-2,-3.31202E-2,6.6507526E-2,-3.5927527E-2,-1.0757699E0,1.443982E0,2.4524091E-1,-5.9374446E-1,8.099551E-1,-8.8927287E-1,-6.3828737E-1,-9.396765E-1,-1.1671234E0,2.2257667E0,-2.9134994E-2,6.352717E-2,-3.6900066E-2,-1.0014552E0,1.8158528E0,-4.2935476E0,-3.5986118E-2,6.50252E-2,-3.447731E-2,-1.0708818E0,-3.3766463E-2,6.2174853E-2,-3.1734657E-2,1.1942865E0,6.2010404E-2,-3.6257844E-2,-3.6492035E-2,-1.7484335E-2,2.6218368E-2,-3.0433819E-2,6.294656E-2,-3.6357377E-2,-3.3776984E-2,6.241998E-2,-3.328902E-2,6.6788495E-2,6.8410896E-2,-3.182332E-2],"split_indices":[252,265,47,65,243,0,76,264,0,5,265,259,0,0,0,256,2,229,74,136,4,2,58,52,4,0,0,0,166,5,16,0,0,0,247,0,0,0,253,0,0,0,0,0,0,0,0,0,0,0,0,0,0],"split_type":[0,0,0,0,0,0,0,0,0,0,0,0,0,0,0,0,0,0,0,0,0,0,0,0,0,0,0,0,0,0,0,0,0,0,0,0,0,0,0,0,0,0,0,0,0,0,0,0,0,0,0,0,0],"sum_hessian":[5.3598394E3,4.154242E3,1.205597E3,2.7701426E3,1.3840996E3,1.1457715E3,5.9825474E1,2.7605354E3,9.607236E0,8.0416895E2,5.7993066E2,1.1370295E3,8.741941E0,1.9291216E1,4.053426E1,2.7474812E3,1.3054136E1,6.156538E2,1.8851512E2,6.559597E1,5.143347E2,1.8710627E1,1.118319E3,8.030921E1,2.6671719E3,3.897625E0,9.156511E0,4.065507E2,2.0910312E2,5.0612347E1,1.3790279E2,4.060523E1,2.4990744E1,1.3592075E1,5.007426E2,1.0911802E1,7.7988243E0,6.1212234E0,1.1121978E3,1.2793255E1,6.751596E1,2.6074927E3,5.96793E1,8.9593765E1,1.1950935E2,8.715109E0,4.1897236E1,1.0915183E1,1.26987595E2,7.989676E0,4.9275293E2,1.1072316E3,4.9661965E0],"tree_param":{"num_deleted":"0","num_feature":"270","num_nodes":"53","size_leaf_vector":"1"}},{"base_weights":[-1.6353291E-3,1.1174273E0,-6.4780784E-1,1.2706025E0,3.236354E-1,6.2318947E-2,-6.59177E-1,1.2958018E0,-1.6164958E-1,6.569183E-1,-4.679032E-1,-3.3684716E-1,-7.021753E-1,1.3037976E0,-2.3932663E-1,6.093014E-2,-5.6920344E-1,-3.7645336E-2,9.4092757E-1,-5.9522575E-1,6.078906E-2,-6.1387134E-1,-2.749709E-2,-7.0602757E-1,6.590574E-2,8.217964E-1,6.5412566E-2,4.353672E-2,-3.2366343E-2,3.990909E-2,-3.469449E-2,6.2416267E-2,-3.686148E-1,3.8859892E-1,1.2168097E0,4.665966E-2,-6.38137E-1,5.6555744E-2,-6.54682E-1,7.9333764E-1,-3.932141E-1,-7.073602E-1,4.6624288E-2,-3.259118E-2,5.702564E-2,-2.8308535E-2,6.0567748E-2,5.602577E-2,-2.7665084E-2,4.6929587E-2,-1.8841187E-2,6.554221E-2,-6.869299E-3,-3.3566963E-2,4.1005276E-2,-3.366923E-2,4.5523055E-2,6.6934966E-2,-3.6071118E-3,5.982716E-2,-2.3304272E-2,-3.540102E-2,-1.0404619E-2],"categories":[],"categories_nodes":[],"categories_segments":[],"categories_sizes":[],"default_left":[0,0,0,0,0,0,0,0,0,0,0,0,0,0,0,0,0,0,0,0,0,0,0,0,0,0,0,0,0,0,0,0,0,0,0,0,0,0,0,0,0,0,0,0,0,0,0,0,0,0,0,0,0,0,0,0,0,0,0,0,0,0,0],"id":6,"left_children":[1,3,5,7,9,-1,11,13,15,17,19,21,23,25,27,-1,29,31,33,35,-1,37,39,41,43,45,-1,-1,-1,-1,-1,-1,47,49,51,-1,53,-1,55,57,59,61,-1,-1,-1,-1,-1,-1,-1,-1,-1,-1,-1,-1,-1,-1,-1,-1,-1,-1,-1,-1,-1],"loss_changes":[3.823699E3,2.3494287E2,7.301257E1,5.8757812E1,8.3258514E1,0E0,4.5955933E1,1.9881348E1,1.6971487E1,4.376606E1,2.0821375E1,3.3764515E1,8.744385E0,2.3295898E0,4.687732E0,0E0,4.4789796E0,2.8253567E1,2.3509277E1,6.3560925E0,0E0,1.554705E1,5.6531574E1,7.046875E0,1.2763609E1,9.99181E0,0E0,0E0,0E0,0E0,0E0,0E0,1.5115616E1,2.3042442E1,1.3486069E1,0E0,4.7157516E0,0E0,6.578682E0,2.7498013E1,1.56438675E1,8.162842E-1,0E0,0E0,0E0,0E0,0E0,0E0,0E0,0E0,0E0,0E0,0E0,0E0,0E0,0E0,0E0,0E0,0E0,0E0,0E0,0E0,0E0],"parents":[2147483647,0,0,1,1,2,2,3,3,4,4,6,6,7,7,8,8,9,9,10,10,11,11,12,12,13,13,14,14,16,16,17,17,18,18,19,19,21,21,22,22,23,23,24,24,25,25,32,32,33,33,34,34,36,36,38,38,39,39,40,40,41,41],"right_children":[2,4,6,8,10,-1,12,14,16,18,20,22,24,26,28,-1,30,32,34,36,-1,38,40,42,44,46,-1,-1,-1,-1,-1,-1,48,50,52,-1,54,-1,56,58,60,62,-1,-1,-1,-1,-1,-1,-1,-1,-1,-1,-1,-1,-1,-1,-1,-1,-1,-1,-1,-1,-1],"split_conditions":[-6.686511E-1,-7.4677545E-1,1.0566551E-1,5.552693E-1,-4.919749E-1,6.2318947E-2,-4.973256E-1,2.230119E0,1.2386814E0,-2.3200596E-3,1.202165E0,-5.91951E-1,2.6502672E-1,-4.0078874E0,-8.045959E-1,6.093014E-2,-9.3485487E-1,-9.6679044E-1,-9.172624E-1,-9.894732E-1,6.078906E-2,-1.7248254E0,-2.3086764E-1,2.4613345E0,-4.1759753E-1,-7.2756153E-1,6.5412566E-2,4.353672E-2,-3.2366343E-2,3.990909E-2,-3.469449E-2,6.2416267E-2,-3.8754288E-2,-7.5044256E-1,8.256305E-1,4.665966E-2,1.4338992E0,5.6555744E-2,1.5516474E0,1.9121529E-1,-1.9325221E-2,4.768416E0,4.6624288E-2,-3.259118E-2,5.702564E-2,-2.8308535E-2,6.0567748E-2,5.602577E-2,-2.7665084E-2,4.6929587E-2,-1.8841187E-2,6.554221E-2,-6.869299E-3,-3.3566963E-2,4.1005276E-2,-3.366923E-2,4.5523055E-2,6.6934966E-2,-3.6071118E-3,5.982716E-2,-2.3304272E-2,-3.540102E-2,-1.0404619E-2],"split_indices":[261,261,264,262,180,0,261,268,146,34,76,225,263,156,4,0,40,125,13,161,0,190,4,4,11,29,0,0,0,0,0,0,259,89,229,0,112,0,103,215,106,36,0,0,0,0,0,0,0,0,0,0,0,0,0,0,0,0,0,0,0,0,0],"split_type":[0,0,0,0,0,0,0,0,0,0,0,0,0,0,0,0,0,0,0,0,0,0,0,0,0,0,0,0,0,0,0,0,0,0,0,0,0,0,0,0,0,0,0,0,0,0,0,0,0,0,0,0,0,0,0,0,0,0,0,0,0,0,0],"sum_hessian":[5.2858696E3,1.9346499E3,3.3512195E3,1.6212103E3,3.1343958E2,1.934633E1,3.331873E3,1.5932733E3,2.793701E1,2.2068758E2,9.275199E1,3.9319376E2,2.9386794E3,1.5851675E3,8.105842E0,5.9149513E0,2.2022058E1,6.430147E1,1.5638611E2,8.68321E1,5.91989E0,2.0691563E2,1.8627812E2,2.9240947E3,1.4584798E1,1.6211153E1,1.5689564E3,1.8737396E0,6.2321024E0,1.388911E0,2.0633146E1,1.2594447E1,5.170702E1,5.2895493E1,1.0349061E2,1.8047076E0,8.502739E1,4.1180854E0,2.0279755E2,5.7053944E1,1.2922417E2,2.9222861E3,1.8084935E0,8.980295E0,5.6045027E0,3.4534419E0,1.275771E1,5.1461897E0,4.656083E1,3.0647535E1,2.224796E1,9.680083E1,6.689784E0,8.366214E1,1.3652532E0,2.0096588E2,1.8316613E0,3.4664288E1,2.2389654E1,4.9879246E0,1.24236244E2,2.9180095E3,4.276475E0],"tree_param":{"num_deleted":"0","num_feature":"270","num_nodes":"63","size_leaf_vector":"1"}},{"base_weights":[-4.425766E-3,-6.597577E-1,1.8291824E-1,-6.9468826E-1,7.3588115E-1,4.5958832E-1,-5.730025E-1,-7.053666E-1,7.780345E-1,-3.2209452E-2,6.28502E-2,1.9129461E-1,7.2640395E-1,-6.5517455E-1,4.4598487E-1,-7.145247E-1,6.4059067E-1,5.6663226E-2,-2.2557607E-2,-5.9692066E-2,5.535849E-1,1.1306069E0,4.9007382E-2,5.9185863E-2,-6.7156786E-1,-2.708349E-1,6.443115E-2,-1.1807233E-1,-3.610485E-2,-2.4753721E-2,5.582271E-2,-5.529661E-1,2.5092718E-1,-3.621424E-2,6.51961E-1,-1.0593676E-1,1.2024114E0,1.0881306E0,-5.7760406E-1,5.8389585E-2,-6.8636763E-1,5.9397418E-2,-3.523509E-2,-3.329486E-2,5.5520643E-2,-3.491994E-2,4.887566E-2,3.469233E-2,-1.0370972E-2,3.739988E-2,-1.8059975E-2,-3.6021195E-2,5.1609017E-2,-8.847254E-3,6.133318E-2,-3.5295557E-2,6.139166E-2,3.1050775E-2,-3.3059645E-2,-3.470027E-2,4.904424E-2],"categories":[],"categories_nodes":[],"categories_segments":[],"categories_sizes":[],"default_left":[0,0,0,0,0,0,0,0,0,0,0,0,0,0,0,0,0,0,0,0,0,0,0,0,0,0,0,0,0,0,0,0,0,0,0,0,0,0,0,0,0,0,0,0,0,0,0,0,0,0,0,0,0,0,0,0,0,0,0,0,0],"id":7,"left_children":[1,3,5,7,9,11,13,15,17,-1,-1,19,21,23,25,27,29,-1,-1,31,33,35,37,-1,39,41,-1,43,-1,-1,-1,45,47,-1,49,51,53,55,57,-1,59,-1,-1,-1,-1,-1,-1,-1,-1,-1,-1,-1,-1,-1,-1,-1,-1,-1,-1,-1,-1],"loss_changes":[6.5522363E2,5.8353516E1,8.6828296E2,1.8760437E1,2.1994534E1,2.1740161E2,9.344406E1,1.4635925E1,4.358868E0,0E0,0E0,1.3793912E2,4.1703186E2,3.18414E1,5.085292E1,5.076782E0,5.0386195E0,0E0,0E0,1.3755246E2,7.851175E1,8.483069E1,3.7197513E2,0E0,2.8606812E1,2.9955061E1,0E0,1.1186734E1,0E0,0E0,0E0,7.788385E1,1.1200125E2,0E0,5.6405975E1,3.80021E1,3.038147E1,5.4724045E1,3.6121574E1,0E0,1.3591827E1,0E0,0E0,0E0,0E0,0E0,0E0,0E0,0E0,0E0,0E0,0E0,0E0,0E0,0E0,0E0,0E0,0E0,0E0,0E0,0E0],"parents":[2147483647,0,0,1,1,2,2,3,3,4,4,5,5,6,6,7,7,8,8,11,11,12,12,13,13,14,14,15,15,16,16,19,19,20,20,21,21,22,22,24,24,25,25,27,27,31,31,32,32,34,34,35,35,36,36,37,37,38,38,40,40],"right_children":[2,4,6,8,10,12,14,16,18,-1,-1,20,22,24,26,28,30,-1,-1,32,34,36,38,-1,40,42,-1,44,-1,-1,-1,46,48,-1,50,52,54,56,58,-1,60,-1,-1,-1,-1,-1,-1,-1,-1,-1,-1,-1,-1,-1,-1,-1,-1,-1,-1,-1,-1],"split_conditions":[1.8974909E-1,4.566688E-1,3.539872E-1,2.2778077E-1,6.743448E-1,3.508765E-1,-1.4764156E-2,1.6037513E0,-1.307502E0,-3.2209452E-2,6.28502E-2,-2.003747E-1,5.857336E-1,-9.396765E-1,1.1721215E0,-8.9471406E-1,-6.5763485E-1,5.6663226E-2,-2.2557607E-2,-5.32253E-1,-1.6139475E0,-4.5547783E-1,-3.5833094E-1,5.9185863E-2,-1.08262E0,-3.400858E-1,6.443115E-2,-4.6892476E-1,-3.610485E-2,-2.4753721E-2,5.582271E-2,-2.0012386E-1,4.0596494E-1,-3.621424E-2,1.8700345E-1,9.4128346E-1,-1.0529364E0,4.0306065E-2,-9.753551E-1,5.8389585E-2,1.2867728E0,5.9397418E-2,-3.523509E-2,-3.329486E-2,5.5520643E-2,-3.491994E-2,4.887566E-2,3.469233E-2,-1.0370972E-2,3.739988E-2,-1.8059975E-2,-3.6021195E-2,5.1609017E-2,-8.847254E-3,6.133318E-2,-3.5295557E-2,6.139166E-2,3.1050775E-2,-3.3059645E-2,-3.470027E-2,4.904424E-2],"split_indices":[264,262,243,207,29,244,38,268,1,0,0,191,265,62,94,4,1,0,0,265,262,243,243,0,247,1,0,0,0,0,0,81,264,0,208,139,229,113,103,0,55,0,0,0,0,0,0,0,0,0,0,0,0,0,0,0,0,0,0,0,0],"split_type":[0,0,0,0,0,0,0,0,0,0,0,0,0,0,0,0,0,0,0,0,0,0,0,0,0,0,0,0,0,0,0,0,0,0,0,0,0,0,0,0,0,0,0,0,0,0,0,0,0,0,0,0,0,0,0,0,0,0,0,0,0],"sum_hessian":[5.3349087E3,1.1854982E3,4.1494106E3,1.1570415E3,2.845662E1,3.0379138E3,1.1114968E3,1.1492299E3,7.811737E0,7.7353144E0,2.0721304E1,1.5156176E3,1.5222963E3,1.0288838E3,8.261304E1,1.1419291E3,7.3007255E0,6.1208677E0,1.6908693E0,8.958368E2,6.197807E2,9.5298224E2,5.693141E2,8.462037E0,1.0204217E3,4.5005833E1,3.760721E1,1.4523619E1,1.1274055E3,2.143889E0,5.1568365E0,3.4584418E2,5.499926E2,4.384809E1,5.759326E2,5.2275265E1,9.00707E2,2.1388593E2,3.5542816E2,7.5231147E0,1.0128986E3,9.918611E0,3.508722E1,1.0361163E1,4.1624556E0,3.1632892E2,2.9515247E1,2.7944223E2,2.705504E2,5.263063E2,4.962637E1,3.4185165E1,1.80901E1,1.5454075E1,8.8525287E2,1.5159291E1,1.9872664E2,2.2751677E1,3.3267648E2,1.0088607E3,4.037911E0],"tree_param":{"num_deleted":"0","num_feature":"270","num_nodes":"61","size_leaf_vector":"1"}},{"base_weights":[1.5776799E-3,-4.0543574E-1,1.1859429E0,-6.8569577E-1,2.7347443E-1,1.2375283E0,2.5269094E-1,-6.9517314E-1,6.1754372E-2,-5.974086E-1,1.0451593E0,-3.144766E-2,1.247373E0,-3.533316E-2,1.0744162E0,-7.115737E-1,-3.0024788E-1,6.316549E-2,-6.521802E-1,-3.5538558E-2,1.1604522E0,-3.083388E-2,1.2559938E0,6.4605735E-2,-2.9302826E-2,-7.169386E-1,-1.9321314E-1,-3.5992745E-2,6.3799754E-2,5.3059198E-2,-6.787481E-1,9.181337E-2,1.2492356E0,1.2766305E0,5.5261356E-1,-3.615951E-2,-1.752571E-2,5.966697E-2,-3.4461122E-2,-3.5781678E-2,2.3853159E-2,-3.54251E-2,6.2779315E-2,6.4616464E-2,-3.486121E-2,6.4693674E-2,5.175481E-2,6.311474E-2,-3.3700358E-2],"categories":[],"categories_nodes":[],"categories_segments":[],"categories_sizes":[],"default_left":[0,0,0,0,0,0,0,0,0,0,0,0,0,0,0,0,0,0,0,0,0,0,0,0,0,0,0,0,0,0,0,0,0,0,0,0,0,0,0,0,0,0,0,0,0,0,0,0,0],"id":8,"left_children":[1,3,5,7,9,11,13,15,-1,17,19,-1,21,-1,23,25,27,-1,29,-1,31,-1,33,-1,-1,35,37,-1,-1,-1,39,41,43,45,47,-1,-1,-1,-1,-1,-1,-1,-1,-1,-1,-1,-1,-1,-1],"loss_changes":[2.5683184E3,7.546545E2,6.528894E1,5.1955566E1,7.7973663E2,2.4507202E1,5.8017254E1,1.788147E1,0E0,5.639644E1,1.25334595E2,0E0,2.1417603E1,0E0,1.504277E1,7.3189697E0,7.573926E1,0E0,2.4862198E1,0E0,5.4678223E1,0E0,1.7859985E1,0E0,0E0,5.8258057E0,2.0656084E1,0E0,0E0,0E0,2.2632523E1,4.315498E1,4.56203E1,3.8323975E0,3.4120655E1,0E0,0E0,0E0,0E0,0E0,0E0,0E0,0E0,0E0,0E0,0E0,0E0,0E0,0E0],"parents":[2147483647,0,0,1,1,2,2,3,3,4,4,5,5,6,6,7,7,9,9,10,10,12,12,14,14,15,15,16,16,18,18,20,20,22,22,25,25,26,26,30,30,31,31,32,32,33,33,34,34],"right_children":[2,4,6,8,10,12,14,16,-1,18,20,-1,22,-1,24,26,28,-1,30,-1,32,-1,34,-1,-1,36,38,-1,-1,-1,40,42,44,46,48,-1,-1,-1,-1,-1,-1,-1,-1,-1,-1,-1,-1,-1,-1],"split_conditions":[2.3750186E-1,6.0886437E-1,-2.9488537E-1,4.5363913E0,-4.346919E-1,-1.08262E0,1.2142569E0,5.39472E-1,6.1754372E-2,-3.437925E0,-9.814692E-2,-3.144766E-2,-9.396765E-1,-3.533316E-2,-1.8251479E-2,2.0815544E0,8.0737346E-1,6.316549E-2,-4.3873844E0,-3.5538558E-2,-9.60492E-1,-3.083388E-2,-4.0209852E-2,6.4605735E-2,-2.9302826E-2,2.2257667E0,-8.939025E-1,-3.5992745E-2,6.3799754E-2,5.3059198E-2,1.8367238E0,-7.604835E-1,1.833898E0,5.426071E-1,2.728573E-1,-3.615951E-2,-1.752571E-2,5.966697E-2,-3.4461122E-2,-3.5781678E-2,2.3853159E-2,-3.54251E-2,6.2779315E-2,6.4616464E-2,-3.486121E-2,6.4693674E-2,5.175481E-2,6.311474E-2,-3.3700358E-2],"split_indices":[261,265,263,65,261,251,229,265,0,223,61,0,58,0,7,211,145,0,93,0,98,0,56,0,0,8,16,0,0,0,265,76,112,30,1,0,0,0,0,0,0,0,0,0,0,0,0,0,0],"split_type":[0,0,0,0,0,0,0,0,0,0,0,0,0,0,0,0,0,0,0,0,0,0,0,0,0,0,0,0,0,0,0,0,0,0,0,0,0,0,0,0,0,0,0,0,0,0,0,0,0],"sum_hessian":[5.3258823E3,3.964216E3,1.3616663E3,2.8059045E3,1.1583116E3,1.2900338E3,7.163245E1,2.7927627E3,1.3141763E1,5.442855E2,6.140262E2,6.4385533E0,1.2835952E3,3.311321E1,3.851924E1,2.6806384E3,1.1212433E2,1.4932395E1,5.293531E2,3.7514164E1,5.76512E2,5.584401E0,1.2780109E3,3.4250607E1,4.2686357E0,2.6527996E3,2.7838692E1,8.8980415E1,2.3143908E1,7.4883375E0,5.218648E2,4.4379063E1,5.3213293E2,1.240792E3,3.7218822E1,2.6073416E3,4.545807E1,6.9644046E0,2.0874287E1,5.060946E2,1.5770188E1,2.6527536E1,1.7851528E1,5.209357E2,1.1197219E1,1.1540485E3,8.6743614E1,2.3559189E1,1.3659634E1],"tree_param":{"num_deleted":"0","num_feature":"270","num_nodes":"49","size_leaf_vector":"1"}},{"base_weights":[1.8208547E-3,1.0603198E0,-6.355952E-1,1.1982406E0,2.9970995E-1,-6.501346E-1,7.607098E-1,1.2201706E0,-1.6478524E-1,7.036433E-1,-6.9333386E-1,-3.1678456E-1,-6.9347095E-1,6.0242455E-2,-3.166885E-2,1.2273636E0,2.4727881E-1,-5.956478E-1,5.861112E-2,1.2012614E0,-4.2773226E-1,-2.2488538E-2,-3.5601005E-2,4.2176914E-1,-6.937609E-1,-6.945017E-1,4.604814E-2,1.2314316E0,-1.187362E-2,5.4647904E-2,-3.193953E-2,-3.3805627E-2,-1.1334756E-2,6.28409E-2,-2.9197032E-2,5.5669975E-2,-6.013384E-1,6.491163E-2,-1.0240566E-1,4.0075142E-2,-7.053221E-1,-3.4700653E-1,-6.957738E-1,6.1776575E-2,4.4712972E-2,4.772844E-2,-3.394361E-2,-1.3218351E-2,6.353732E-2,-3.5649505E-2,-6.2956265E-3,-3.2465827E-2,4.6420775E-2,-2.5883839E-2,-3.4867715E-2],"categories":[],"categories_nodes":[],"categories_segments":[],"categories_sizes":[],"default_left":[0,0,0,0,0,0,0,0,0,0,0,0,0,0,0,0,0,0,0,0,0,0,0,0,0,0,0,0,0,0,0,0,0,0,0,0,0,0,0,0,0,0,0,0,0,0,0,0,0,0,0,0,0,0,0],"id":9,"left_children":[1,3,5,7,9,11,13,15,17,19,21,23,25,-1,-1,27,29,31,-1,33,35,-1,-1,37,39,41,-1,43,-1,-1,-1,-1,-1,-1,-1,-1,45,-1,47,-1,49,51,53,-1,-1,-1,-1,-1,-1,-1,-1,-1,-1,-1,-1],"loss_changes":[3.557068E3,2.0751001E2,6.7296875E1,5.0329346E1,1.23026474E2,4.683374E1,2.2044666E1,1.1247314E1,1.6503077E1,1.23051155E2,8.40683E-2,1.0513459E2,5.4348145E0,0E0,0E0,1.0054932E1,1.0713741E1,4.8240805E-1,0E0,1.5752487E1,1.8655643E1,0E0,0E0,5.8881756E1,4.8816986E0,1.0317383E0,0E0,1.1535645E0,0E0,0E0,0E0,0E0,0E0,0E0,0E0,0E0,8.015043E0,0E0,1.833827E1,0E0,1.0134201E0,5.422593E0,4.4665527E-1,0E0,0E0,0E0,0E0,0E0,0E0,0E0,0E0,0E0,0E0,0E0,0E0],"parents":[2147483647,0,0,1,1,2,2,3,3,4,4,5,5,6,6,7,7,8,8,9,9,10,10,11,11,12,12,15,15,16,16,17,17,19,19,20,20,23,23,24,24,25,25,27,27,36,36,38,38,40,40,41,41,42,42],"right_children":[2,4,6,8,10,12,14,16,18,20,22,24,26,-1,-1,28,30,32,-1,34,36,-1,-1,38,40,42,-1,44,-1,-1,-1,-1,-1,-1,-1,-1,46,-1,48,-1,50,52,54,-1,-1,-1,-1,-1,-1,-1,-1,-1,-1,-1,-1],"split_conditions":[-6.686511E-1,-7.4677545E-1,2.6502672E-1,5.2240264E-1,9.5293486E-1,-4.973256E-1,4.8151222E-1,2.2943554E0,-1.0433896E0,9.292432E-3,-9.74871E-1,5.683855E-1,4.8894405E0,6.0242455E-2,-3.166885E-2,4.3311753E0,9.1361105E-1,-1.2608424E0,5.861112E-2,3.0476718E0,-9.088035E-2,-2.2488538E-2,-3.5601005E-2,-9.352481E-2,-7.511907E-1,1.6572547E-1,4.604814E-2,1.6776997E0,-1.187362E-2,5.4647904E-2,-3.193953E-2,-3.3805627E-2,-1.1334756E-2,6.28409E-2,-2.9197032E-2,5.5669975E-2,-5.048117E-1,6.491163E-2,1.2943642E0,4.0075142E-2,8.056298E-1,-8.7955487E-1,-7.0754445E-1,6.1776575E-2,4.4712972E-2,4.772844E-2,-3.394361E-2,-1.3218351E-2,6.353732E-2,-3.5649505E-2,-6.2956265E-3,-3.2465827E-2,4.6420775E-2,-2.5883839E-2,-3.4867715E-2],"split_indices":[261,261,263,262,265,261,46,103,256,178,125,265,81,0,0,155,7,5,0,65,43,0,0,31,262,264,0,265,0,0,0,0,0,0,0,0,160,0,22,0,232,4,11,0,0,0,0,0,0,0,0,0,0,0,0],"split_type":[0,0,0,0,0,0,0,0,0,0,0,0,0,0,0,0,0,0,0,0,0,0,0,0,0,0,0,0,0,0,0,0,0,0,0,0,0,0,0,0,0,0,0,0,0,0,0,0,0,0,0,0,0,0,0],"sum_hessian":[5.270042E3,1.9805159E3,3.2895261E3,1.6760275E3,3.044885E2,3.2561548E3,3.3371155E1,1.6495917E3,2.6435797E1,2.1665337E2,8.783511E1,3.7556427E2,2.8805906E3,2.5411196E1,7.959959E0,1.6372256E3,1.2366025E1,2.0412256E1,6.0235395E0,1.504281E2,6.622526E1,8.044898E0,7.979022E1,1.26876045E2,2.4868822E2,2.879322E3,1.2685343E0,1.6328502E3,4.375357E0,6.2077527E0,6.1582727E0,1.6074139E1,4.338117E0,1.4617503E2,4.253078E0,6.156812E0,6.0068447E1,4.6929443E1,7.9946594E1,1.3838345E0,2.4730438E2,1.1500254E1,2.8678218E3,1.6106018E3,2.2248402E1,2.314316E0,5.775413E1,7.223415E1,7.712444E0,2.4384671E2,3.4576812E0,9.693523E0,1.80673E0,2.8117502E1,2.8397043E3],"tree_param":{"num_deleted":"0","num_feature":"270","num_nodes":"55","size_leaf_vector":"1"}},{"base_weights":[2.2979707E-3,-6.647319E-1,2.589378E-1,-6.9528174E-1,7.687732E-1,6.4908934E-1,-5.7279444E-1,-7.0536983E-1,5.094349E-2,5.8963627E-2,-3.2491963E-2,8.972985E-1,2.7508327E-1,-6.3340205E-1,3.8273448E-1,-7.106984E-1,4.387156E-2,-4.3773033E-2,1.1176862E0,1.1113026E0,-4.1536394E-1,5.534179E-2,-6.461661E-1,6.186192E-2,-3.4811527E-1,-3.570543E-2,-4.0563542E-1,7.731141E-1,-6.382292E-1,-3.479437E-2,1.1485521E0,-3.502615E-2,1.2007825E0,6.1244827E-2,-5.3571427E-1,5.5334635E-2,-6.5910363E-1,-3.5163272E-2,5.7311364E-2,4.9139682E-2,-3.3507835E-2,-3.3980526E-2,5.356878E-2,-3.6388036E-2,5.311736E-2,-3.2473948E-2,5.8023777E-2,-3.3293363E-2,6.181838E-2,2.63689E-2,-3.2224268E-2,-3.4974378E-2,-5.5942787E-3],"categories":[],"categories_nodes":[],"categories_segments":[],"categories_sizes":[],"default_left":[0,0,0,0,0,0,0,0,0,0,0,0,0,0,0,0,0,0,0,0,0,0,0,0,0,0,0,0,0,0,0,0,0,0,0,0,0,0,0,0,0,0,0,0,0,0,0,0,0,0,0,0,0],"id":10,"left_children":[1,3,5,7,9,11,13,15,-1,-1,-1,17,19,21,23,25,-1,27,29,31,33,-1,35,-1,37,-1,39,41,43,-1,45,-1,47,-1,49,-1,51,-1,-1,-1,-1,-1,-1,-1,-1,-1,-1,-1,-1,-1,-1,-1,-1],"loss_changes":[9.002755E2,6.452588E1,1.2327695E3,2.5468628E1,1.8798727E1,2.3978162E2,7.0500854E1,1.2629089E1,0E0,0E0,0E0,3.2229736E2,5.968113E2,2.6064087E1,4.6010254E1,1.1868286E0,0E0,1.4412872E2,7.127283E1,7.661713E1,1.124827E2,0E0,2.643509E1,0E0,2.2097755E1,0E0,7.2712297E0,5.49058E1,2.692292E1,0E0,2.7300537E1,0E0,3.0433655E1,0E0,6.14469E1,0E0,2.4801575E1,0E0,0E0,0E0,0E0,0E0,0E0,0E0,0E0,0E0,0E0,0E0,0E0,0E0,0E0,0E0,0E0],"parents":[2147483647,0,0,1,1,2,2,3,3,4,4,5,5,6,6,7,7,11,11,12,12,13,13,14,14,15,15,17,17,18,18,19,19,20,20,22,22,24,24,26,26,27,27,28,28,30,30,32,32,34,34,36,36],"right_children":[2,4,6,8,10,12,14,16,-1,-1,-1,18,20,22,24,26,-1,28,30,32,34,-1,36,-1,38,-1,40,42,44,-1,46,-1,48,-1,50,-1,52,-1,-1,-1,-1,-1,-1,-1,-1,-1,-1,-1,-1,-1,-1,-1,-1],"split_conditions":[-7.4677545E-1,5.552693E-1,2.3750186E-1,2.230119E0,-1.0101129E-1,6.0886437E-1,-2.9488537E-1,4.3311753E0,5.094349E-2,5.8963627E-2,-3.2491963E-2,-5.431824E-1,-4.346919E-1,-9.396765E-1,2.0023277E-3,1.6776997E0,4.387156E-2,-7.3165923E-1,-1.2471138E0,-1.0512005E0,-9.814692E-2,5.534179E-2,-1.08262E0,6.186192E-2,3.3152719E0,-3.570543E-2,-5.242746E-1,1.5371275E-1,5.7609576E-1,-3.479437E-2,-7.341567E-1,-3.502615E-2,-3.448828E0,6.1244827E-2,-9.610125E-1,5.5334635E-2,1.7391114E0,-3.5163272E-2,5.7311364E-2,4.9139682E-2,-3.3507835E-2,-3.3980526E-2,5.356878E-2,-3.6388036E-2,5.311736E-2,-3.2473948E-2,5.8023777E-2,-3.3293363E-2,6.181838E-2,2.63689E-2,-3.2224268E-2,-3.4974378E-2,-5.5942787E-3],"split_indices":[261,262,261,268,205,265,263,155,0,0,0,261,261,58,83,265,0,14,221,229,61,0,251,0,2,0,128,264,265,0,191,0,133,0,98,0,121,0,0,0,0,0,0,0,0,0,0,0,0,0,0,0,0],"split_type":[0,0,0,0,0,0,0,0,0,0,0,0,0,0,0,0,0,0,0,0,0,0,0,0,0,0,0,0,0,0,0,0,0,0,0,0,0,0,0,0,0,0,0,0,0,0,0,0,0,0,0,0,0],"sum_hessian":[5.25703E3,1.4602136E3,3.7968164E3,1.4302483E3,2.996543E1,2.5846296E3,1.2121865E3,1.4224652E3,7.782977E0,2.3371273E1,6.5941563E0,1.5527488E3,1.031881E3,1.1402025E3,7.198404E1,1.4182417E3,4.22357E0,2.9478714E2,1.2579615E3,4.664008E2,5.654802E2,7.677964E0,1.1325245E3,3.2865303E1,3.9118736E1,1.4012369E3,1.7004795E1,1.2403742E2,1.7074973E2,2.0690882E1,1.2372706E3,2.1628534E1,4.4477225E2,3.802724E1,5.27453E2,7.6783094E0,1.1248463E3,3.203466E1,7.084077E0,2.286734E0,1.47180605E1,2.0910639E1,1.03126785E2,1.6275319E2,7.996541E0,7.798503E0,1.2294722E3,7.989001E0,4.3678323E2,4.8600418E1,4.7885257E2,1.0472803E3,7.756598E1],"tree_param":{"num_deleted":"0","num_feature":"270","num_nodes":"53","size_leaf_vector":"1"}},{"base_weights":[-7.43149E-4,-3.9802462E-1,1.1154381E0,-6.7807704E-1,2.4201807E-1,1.161876E0,2.4136743E-1,-6.8571395E-1,5.845795E-2,-5.867473E-1,9.379365E-1,-3.0927384E-2,1.1709896E0,-3.483265E-2,1.0379229E0,-6.983678E-1,-2.5591585E-1,5.985687E-2,-6.392299E-1,1.8835326E-1,1.1652884E0,1.1801817E0,-3.090309E-2,6.1326783E-2,-2.8146297E-2,-7.0683914E-1,-2.839879E-1,-3.526775E-2,5.783955E-2,5.5364996E-2,-6.6559535E-1,-3.7805635E-1,6.2420607E-2,6.232987E-2,2.9875904E-1,1.1984007E0,5.447807E-1,-3.5565306E-2,-1.3205198E-2,-3.536375E-2,6.545328E-2,-3.492265E-2,2.7161086E-2,5.9670072E-2,-3.5623554E-2,-3.575865E-2,5.91137E-2,4.7669068E-2,6.0982835E-2,5.9729416E-2,-3.3022612E-2],"categories":[],"categories_nodes":[],"categories_segments":[],"categories_sizes":[],"default_left":[0,0,0,0,0,0,0,0,0,0,0,0,0,0,0,0,0,0,0,0,0,0,0,0,0,0,0,0,0,0,0,0,0,0,0,0,0,0,0,0,0,0,0,0,0,0,0,0,0,0,0],"id":11,"left_children":[1,3,5,7,9,11,13,15,-1,17,19,-1,21,-1,23,25,27,-1,29,31,33,35,-1,-1,-1,37,39,-1,-1,-1,41,43,-1,-1,45,47,49,-1,-1,-1,-1,-1,-1,-1,-1,-1,-1,-1,-1,-1,-1],"loss_changes":[2.3304124E3,6.948858E2,5.571399E1,3.8840088E1,6.8136725E2,2.1975098E1,5.3665535E1,1.4428955E1,0E0,5.126584E1,1.0919415E2,0E0,2.2163086E1,0E0,1.2381268E1,8.956055E0,5.0590015E1,0E0,2.489569E1,9.0899254E1,3.43219E1,1.4361816E1,0E0,0E0,0E0,4.866211E0,3.7292114E1,0E0,0E0,0E0,2.0932465E1,5.283719E1,0E0,0E0,3.9864826E1,5.399658E0,3.0538786E1,0E0,0E0,0E0,0E0,0E0,0E0,0E0,0E0,0E0,0E0,0E0,0E0,0E0,0E0],"parents":[2147483647,0,0,1,1,2,2,3,3,4,4,5,5,6,6,7,7,9,9,10,10,12,12,14,14,15,15,16,16,18,18,19,19,20,20,21,21,25,25,26,26,30,30,31,31,34,34,35,35,36,36],"right_children":[2,4,6,8,10,12,14,16,-1,18,20,-1,22,-1,24,26,28,-1,30,32,34,36,-1,-1,-1,38,40,-1,-1,-1,42,44,-1,-1,46,48,50,-1,-1,-1,-1,-1,-1,-1,-1,-1,-1,-1,-1,-1,-1],"split_conditions":[2.3750186E-1,5.857336E-1,-2.9488537E-1,4.5363913E0,-4.346919E-1,-9.396765E-1,1.2142569E0,5.39472E-1,5.845795E-2,-3.437925E0,-4.715418E-1,-3.0927384E-2,3.500175E0,-3.483265E-2,-1.8251479E-2,2.2257667E0,8.0737346E-1,5.985687E-2,-3.4800305E0,-5.0314724E-1,-1.9343164E-5,-4.0209852E-2,-3.090309E-2,6.1326783E-2,-2.8146297E-2,2.0815544E0,5.140917E-1,-3.526775E-2,5.783955E-2,5.5364996E-2,1.8367238E0,-2.3921115E0,6.2420607E-2,6.232987E-2,5.100644E-1,-3.8754288E-2,2.728573E-1,-3.5565306E-2,-1.3205198E-2,-3.536375E-2,6.545328E-2,-3.492265E-2,2.7161086E-2,5.9670072E-2,-3.5623554E-2,-3.575865E-2,5.91137E-2,4.7669068E-2,6.0982835E-2,5.9729416E-2,-3.3022612E-2],"split_indices":[261,265,263,65,261,58,229,265,0,223,207,0,0,0,7,4,145,0,232,90,79,56,0,0,0,211,84,0,0,0,265,109,0,0,12,259,1,0,0,0,0,0,0,0,0,0,0,0,0,0,0],"split_type":[0,0,0,0,0,0,0,0,0,0,0,0,0,0,0,0,0,0,0,0,0,0,0,0,0,0,0,0,0,0,0,0,0,0,0,0,0,0,0,0,0,0,0,0,0,0,0,0,0,0,0],"sum_hessian":[5.2533257E3,3.874811E3,1.3785149E3,2.6953806E3,1.1794305E3,1.3086589E3,6.985588E1,2.6849092E3,1.0471243E1,5.384045E2,6.4102606E2,6.3241434E0,1.3023348E3,3.213695E1,3.771893E1,2.6075156E3,7.7393524E1,1.4764038E1,5.2364044E2,1.4960481E2,4.9142123E2,1.2960162E3,6.3186097E0,3.3952454E1,3.7664752E0,2.5545854E3,5.2930332E1,5.909403E1,1.8299494E1,7.1775813E0,5.164629E2,9.7924995E1,5.167982E1,4.4886435E2,4.255687E1,1.2590298E3,3.698643E1,2.5284678E3,2.6117678E1,4.2258053E1,1.06722765E1,5.032071E2,1.3255782E1,1.6731745E1,8.119325E1,1.9904625E1,2.2652243E1,1.0416477E2,1.154865E3,2.4036083E1,1.2950349E1],"tree_param":{"num_deleted":"0","num_feature":"270","num_nodes":"51","size_leaf_vector":"1"}},{"base_weights":[-1.9832957E-3,1.0088574E0,-6.285394E-1,1.132426E0,3.0289233E-1,5.598324E-2,-6.38431E-1,1.1540654E0,-1.8370482E-1,7.1077293E-1,-6.9221926E-1,-3.2537618E-1,-6.797261E-1,1.1598326E0,-1.747257E-1,-3.376418E-2,5.6686033E-2,1.1471926E0,-4.176551E-1,-1.4869893E-2,-3.5137184E-2,3.8735685E-1,-6.78695E-1,-6.835911E-1,1.9159473E-1,1.1640706E0,-1.3307869E-2,4.0766932E-2,-3.0697871E-2,5.9420418E-2,-2.7382169E-2,5.3519446E-2,-5.9402615E-1,1.0933894E0,-5.761864E-2,3.8833E-2,-6.8994194E-1,-6.8461424E-1,8.434974E-3,5.2860912E-2,-3.0455217E-2,5.836749E-2,4.4313412E-2,4.584887E-2,-3.3186916E-2,6.2379163E-2,-1.3363038E-2,6.0467433E-2,-1.6768856E-2,-3.487461E-2,5.8889217E-3,-2.6222238E-2,-3.4293234E-2,-2.6255695E-2,4.6056475E-2],"categories":[],"categories_nodes":[],"categories_segments":[],"categories_sizes":[],"default_left":[0,0,0,0,0,0,0,0,0,0,0,0,0,0,0,0,0,0,0,0,0,0,0,0,0,0,0,0,0,0,0,0,0,0,0,0,0,0,0,0,0,0,0,0,0,0,0,0,0,0,0,0,0,0,0],"id":12,"left_children":[1,3,5,7,9,-1,11,13,15,17,19,21,23,25,27,-1,-1,29,31,-1,-1,33,35,37,39,41,-1,-1,-1,-1,-1,-1,43,45,47,-1,49,51,53,-1,-1,-1,-1,-1,-1,-1,-1,-1,-1,-1,-1,-1,-1,-1,-1],"loss_changes":[3.3183242E3,1.7455042E2,5.6647217E1,4.8794678E1,1.2226256E2,0E0,4.1365967E1,1.3064941E1,1.91941E1,1.0551507E2,1.5552902E-1,9.515213E1,9.698975E0,1.0409912E1,4.0326285E0,0E0,0E0,1.1413147E1,1.6439396E1,0E0,0E0,3.9497902E1,4.6653824E0,2.008545E0,9.881686E0,4.8364258E-1,0E0,0E0,0E0,0E0,0E0,0E0,6.3471146E0,1.0524956E1,2.7835506E1,0E0,1.6121597E0,2.0605469E-1,2.9983225E0,0E0,0E0,0E0,0E0,0E0,0E0,0E0,0E0,0E0,0E0,0E0,0E0,0E0,0E0,0E0,0E0],"parents":[2147483647,0,0,1,1,2,2,3,3,4,4,6,6,7,7,8,8,9,9,10,10,11,11,12,12,13,13,14,14,17,17,18,18,21,21,22,22,23,23,24,24,25,25,32,32,33,33,34,34,36,36,37,37,38,38],"right_children":[2,4,6,8,10,-1,12,14,16,18,20,22,24,26,28,-1,-1,30,32,-1,-1,34,36,38,40,42,-1,-1,-1,-1,-1,-1,44,46,48,-1,50,52,54,-1,-1,-1,-1,-1,-1,-1,-1,-1,-1,-1,-1,-1,-1,-1,-1],"split_conditions":[-6.686511E-1,-7.4677545E-1,1.0566551E-1,5.552693E-1,9.5293486E-1,5.598324E-2,-4.973256E-1,2.230119E0,1.6771156E-1,9.292432E-3,-9.8945105E-1,5.683855E-1,2.6502672E-1,4.3311753E0,1.0456866E0,-3.376418E-2,5.6686033E-2,2.9611182E0,-2.192027E-2,-1.4869893E-2,-3.5137184E-2,-6.173536E-1,-7.511907E-1,4.768416E0,3.725949E-1,1.6776997E0,-1.3307869E-2,4.0766932E-2,-3.0697871E-2,5.9420418E-2,-2.7382169E-2,5.3519446E-2,-1.331342E-1,1.7965022E0,3.7615493E-2,3.8833E-2,-4.4494644E-1,-7.0754445E-1,4.2408445E-1,5.2860912E-2,-3.0455217E-2,5.836749E-2,4.4313412E-2,4.584887E-2,-3.3186916E-2,6.2379163E-2,-1.3363038E-2,6.0467433E-2,-1.6768856E-2,-3.487461E-2,5.8889217E-3,-2.6222238E-2,-3.4293234E-2,-2.6255695E-2,4.6056475E-2],"split_indices":[261,261,264,262,265,0,261,268,199,178,139,265,263,155,7,0,0,65,7,0,0,76,262,36,10,265,0,0,0,0,0,0,74,44,262,0,243,11,13,0,0,0,0,0,0,0,0,0,0,0,0,0,0,0,0],"split_type":[0,0,0,0,0,0,0,0,0,0,0,0,0,0,0,0,0,0,0,0,0,0,0,0,0,0,0,0,0,0,0,0,0,0,0,0,0,0,0,0,0,0,0,0,0,0,0,0,0,0,0,0,0,0,0],"sum_hessian":[5.2373335E3,2.0038522E3,3.2334814E3,1.7048411E3,2.9901117E2,1.7561369E1,3.2159202E3,1.6773853E3,2.7455824E1,2.1228473E2,8.672644E1,3.758107E2,2.8401094E3,1.6702631E3,7.1221156E0,2.0349949E1,7.105876E0,1.5306874E2,5.921598E1,3.0114145E0,8.371503E1,1.2452205E2,2.5128865E2,2.8277815E3,1.2328059E1,1.665497E3,4.7661304E0,1.9255297E0,5.1965857E0,1.4972644E2,3.3423085E0,5.7377324E0,5.347825E1,4.7576427E1,7.6945625E1,1.4051604E0,2.498835E2,2.8236174E3,4.163849E0,5.769919E0,6.55814E0,1.6429016E3,2.2595343E1,1.8224766E0,5.1655773E1,4.2808327E1,4.7680993E0,1.3232582E1,6.3713043E1,2.4770453E2,2.1789708E0,2.5130302E1,2.7984873E3,2.895711E0,1.2681379E0],"tree_param":{"num_deleted":"0","num_feature":"270","num_nodes":"55","size_leaf_vector":"1"}},{"base_weights":[-2.5202183E-3,-6.515075E-1,2.3944426E-1,-6.8255967E-1,7.1897054E-1,6.1319315E-1,-5.665226E-1,-6.9060236E-1,8.064823E-1,5.60062E-2,-3.229276E-2,8.408545E-1,2.6474154E-1,-6.2727106E-1,3.5944003E-1,-6.9727117E-1,4.500961E-2,5.5560578E-2,-2.1011638E-2,-6.846327E-2,1.048223E0,1.0532225E0,-4.0530336E-1,5.263151E-2,-6.39751E-1,1.1013783E0,-4.2105532E-1,-3.510357E-2,-3.082656E-1,6.923142E-1,-6.481425E-1,-3.43622E-2,1.0765991E0,-3.4257952E-2,1.122314E0,5.7830006E-2,-5.231969E-1,-6.516073E-1,5.222973E-2,-2.441085E-2,5.9565265E-2,-3.436218E-2,4.9249675E-2,-3.305335E-2,5.2558925E-2,-3.3590686E-2,5.0071817E-2,-3.5765115E-2,4.7811847E-2,-3.2052666E-2,5.440378E-2,-3.2348793E-2,5.7633925E-2,2.4757825E-2,-3.1424444E-2,-3.3896133E-2,6.8352185E-3],"categories":[],"categories_nodes":[],"categories_segments":[],"categories_sizes":[],"default_left":[0,0,0,0,0,0,0,0,0,0,0,0,0,0,0,0,0,0,0,0,0,0,0,0,0,0,0,0,0,0,0,0,0,0,0,0,0,0,0,0,0,0,0,0,0,0,0,0,0,0,0,0,0,0,0,0,0],"id":13,"left_children":[1,3,5,7,9,11,13,15,17,-1,-1,19,21,23,25,27,-1,-1,-1,29,31,33,35,-1,37,39,41,-1,43,45,47,-1,49,-1,51,-1,53,55,-1,-1,-1,-1,-1,-1,-1,-1,-1,-1,-1,-1,-1,-1,-1,-1,-1,-1,-1],"loss_changes":[8.275544E2,6.139807E1,1.1566958E3,1.7323486E1,1.8351393E1,2.0786322E2,6.866522E1,1.5406067E1,3.4509678E0,0E0,0E0,2.9914563E2,5.4882855E2,2.4618591E1,4.420924E1,2.374939E0,0E0,0E0,0E0,1.3075304E2,6.434534E1,5.8076904E1,1.04067726E2,0E0,2.3333649E1,6.157238E0,1.4726572E1,0E0,9.663204E0,5.47574E1,1.880867E1,0E0,2.575586E1,0E0,2.5420044E1,0E0,5.640338E1,2.3472656E1,0E0,0E0,0E0,0E0,0E0,0E0,0E0,0E0,0E0,0E0,0E0,0E0,0E0,0E0,0E0,0E0,0E0,0E0,0E0],"parents":[2147483647,0,0,1,1,2,2,3,3,4,4,5,5,6,6,7,7,8,8,11,11,12,12,13,13,14,14,15,15,19,19,20,20,21,21,22,22,24,24,25,25,26,26,28,28,29,29,30,30,32,32,34,34,36,36,37,37],"right_children":[2,4,6,8,10,12,14,16,18,-1,-1,20,22,24,26,28,-1,-1,-1,30,32,34,36,-1,38,40,42,-1,44,46,48,-1,50,-1,52,-1,54,56,-1,-1,-1,-1,-1,-1,-1,-1,-1,-1,-1,-1,-1,-1,-1,-1,-1,-1,-1],"split_conditions":[-7.498736E-1,5.552693E-1,2.3750186E-1,2.230119E0,1.6771156E-1,6.0886437E-1,-2.9488537E-1,4.3311753E0,1.2238108E-1,5.60062E-2,-3.229276E-2,-5.431824E-1,-4.346919E-1,-9.396765E-1,1.2142569E0,1.6776997E0,4.500961E-2,5.5560578E-2,-2.1011638E-2,-8.9077777E-1,-1.1854678E0,-1.0512005E0,-9.814692E-2,5.263151E-2,3.500175E0,-1.1423209E0,-1.8251479E-2,-3.510357E-2,4.8175827E-1,1.4170112E-1,2.024827E0,-3.43622E-2,-7.341567E-1,-3.4257952E-2,-2.45954E0,5.7830006E-2,-9.610125E-1,-4.0209852E-2,5.222973E-2,-2.441085E-2,5.9565265E-2,-3.436218E-2,4.9249675E-2,-3.305335E-2,5.2558925E-2,-3.3590686E-2,5.0071817E-2,-3.5765115E-2,4.7811847E-2,-3.2052666E-2,5.440378E-2,-3.2348793E-2,5.7633925E-2,2.4757825E-2,-3.1424444E-2,-3.3896133E-2,6.8352185E-3],"split_indices":[261,262,261,268,199,269,263,155,3,0,0,261,261,58,229,269,0,0,0,6,222,229,61,0,0,6,7,0,12,264,85,0,191,0,1,0,94,56,0,0,0,0,0,0,0,0,0,0,0,0,0,0,0,0,0,0,0],"split_type":[0,0,0,0,0,0,0,0,0,0,0,0,0,0,0,0,0,0,0,0,0,0,0,0,0,0,0,0,0,0,0,0,0,0,0,0,0,0,0,0,0,0,0,0,0,0,0,0,0,0,0,0,0,0,0,0,0],"sum_hessian":[5.267984E3,1.4302181E3,3.8377656E3,1.3990212E3,3.1196905E1,2.6220762E3,1.2156895E3,1.3920387E3,6.982539E0,2.4248892E1,6.9480133E0,1.5850613E3,1.037015E3,1.1411462E3,7.4543175E1,1.3867867E3,5.2519026E0,5.6685634E0,1.3139756E0,2.9447E2,1.2905912E3,4.761406E2,5.608744E2,7.800419E0,1.1333458E3,3.8004753E1,3.653842E1,1.3690878E3,1.7699017E1,1.2725924E2,1.6721075E2,2.0389078E1,1.2702021E3,1.7859816E1,4.582808E2,3.8745605E1,5.221288E2,1.1260327E3,7.3131323E0,1.7977488E0,3.6207005E1,3.1152048E1,5.386373E0,1.4460077E1,3.2389398E0,2.3293564E1,1.03965675E2,1.6102438E2,6.1863685E0,8.0663395E0,1.2621359E3,7.38969E0,4.5089108E2,4.857949E1,4.7354932E2,1.0897933E3,3.6239388E1],"tree_param":{"num_deleted":"0","num_feature":"270","num_nodes":"57","size_leaf_vector":"1"}},{"base_weights":[-7.7324873E-3,-3.9444485E-1,1.0535879E0,-6.603652E-1,2.3861524E-1,1.102203E0,1.6651183E-1,-6.7005974E-1,4.686386E-1,-5.686989E-1,9.447634E-1,-3.1120757E-2,1.1124092E0,-3.4321215E-2,9.241825E-1,-6.87187E-1,-2.7742398E-1,-3.127214E-2,5.6541603E-2,5.6769826E-2,-6.222462E-1,-3.4333806E-2,1.0378665E0,-3.0643735E-2,1.1215682E0,5.7763394E-2,-2.9167978E-2,-6.949387E-1,-2.951366E-1,-3.48714E-2,5.7328165E-2,5.444885E-2,-6.5903467E-1,7.4131794E-2,1.1215414E0,1.1372311E0,5.1955163E-1,-3.49883E-2,-1.0391969E-2,-3.4784656E-2,6.2588856E-2,-3.4512945E-2,1.8111868E-2,-3.4587856E-2,5.7359096E-2,5.7926774E-2,-3.4325473E-2,3.064308E-2,5.7299536E-2,5.637702E-2,-3.260831E-2],"categories":[],"categories_nodes":[],"categories_segments":[],"categories_sizes":[],"default_left":[0,0,0,0,0,0,0,0,0,0,0,0,0,0,0,0,0,0,0,0,0,0,0,0,0,0,0,0,0,0,0,0,0,0,0,0,0,0,0,0,0,0,0,0,0,0,0,0,0,0,0],"id":14,"left_children":[1,3,5,7,9,11,13,15,17,19,21,-1,23,-1,25,27,29,-1,-1,-1,31,-1,33,-1,35,-1,-1,37,39,-1,-1,-1,41,43,45,47,49,-1,-1,-1,-1,-1,-1,-1,-1,-1,-1,-1,-1,-1,-1],"loss_changes":[2.1492568E3,6.4628284E2,6.012744E1,2.9899658E1,6.481879E2,2.4026367E1,4.8352547E1,1.7834839E1,1.7806492E1,4.91315E1,9.281653E1,0E0,2.15177E1,0E0,1.4444874E1,7.5985107E0,6.881052E1,0E0,0E0,0E0,3.314894E1,0E0,4.620752E1,0E0,1.1776855E1,0E0,0E0,5.7735596E0,3.2796444E1,0E0,0E0,0E0,1.6351929E1,3.9361786E1,3.611914E1,5.1657715E0,2.574083E1,0E0,0E0,0E0,0E0,0E0,0E0,0E0,0E0,0E0,0E0,0E0,0E0,0E0,0E0],"parents":[2147483647,0,0,1,1,2,2,3,3,4,4,5,5,6,6,7,7,8,8,9,9,10,10,12,12,14,14,15,15,16,16,20,20,22,22,24,24,27,27,28,28,32,32,33,33,34,34,35,35,36,36],"right_children":[2,4,6,8,10,12,14,16,18,20,22,-1,24,-1,26,28,30,-1,-1,-1,32,-1,34,-1,36,-1,-1,38,40,-1,-1,-1,42,44,46,48,50,-1,-1,-1,-1,-1,-1,-1,-1,-1,-1,-1,-1,-1,-1],"split_conditions":[2.3750186E-1,6.0886437E-1,-2.9488537E-1,4.001832E0,-4.346919E-1,-9.396765E-1,1.2142569E0,5.39472E-1,-5.017186E-1,-3.437925E0,-9.814692E-2,-3.1120757E-2,-1.08262E0,-3.4321215E-2,-1.8251479E-2,2.2257667E0,8.0737346E-1,-3.127214E-2,5.6541603E-2,5.6769826E-2,-3.4800305E0,-3.4333806E-2,-9.60492E-1,-3.0643735E-2,-4.0209852E-2,5.7763394E-2,-2.9167978E-2,2.0815544E0,6.8187195E-1,-3.48714E-2,5.7328165E-2,5.444885E-2,1.8367238E0,-7.604835E-1,1.833898E0,-3.1114492E-1,2.728573E-1,-3.49883E-2,-1.0391969E-2,-3.4784656E-2,6.2588856E-2,-3.4512945E-2,1.8111868E-2,-3.4587856E-2,5.7359096E-2,5.7926774E-2,-3.4325473E-2,3.064308E-2,5.7299536E-2,5.637702E-2,-3.260831E-2],"split_indices":[261,265,263,101,261,62,229,265,37,223,61,0,247,0,7,4,145,0,0,0,232,0,94,0,56,0,0,211,256,0,0,0,265,76,112,268,1,0,0,0,0,0,0,0,0,0,0,0,0,0,0],"split_type":[0,0,0,0,0,0,0,0,0,0,0,0,0,0,0,0,0,0,0,0,0,0,0,0,0,0,0,0,0,0,0,0,0,0,0,0,0,0,0,0,0,0,0,0,0,0,0,0,0,0,0],"sum_hessian":[5.2346396E3,3.8371345E3,1.397505E3,2.7020715E3,1.135063E3,1.3246658E3,7.2839165E1,2.6794697E3,2.2601622E1,5.296862E2,6.0537683E2,7.4403152E0,1.3172255E3,3.4309643E1,3.8529526E1,2.5667546E3,1.1271527E2,8.542739E0,1.4058883E1,1.5521601E1,5.141646E2,3.2338352E1,5.7303845E2,6.607684E0,1.3106178E3,3.3611084E1,4.918441E0,2.5162307E3,5.052394E1,8.743624E1,2.5279028E1,1.0219113E1,5.039455E2,4.5929268E1,5.271092E2,1.276517E3,3.410078E1,2.4911067E3,2.5123955E1,4.0569244E1,9.954695E0,4.8930957E2,1.4635948E1,2.70078E1,1.8921469E1,5.168924E2,1.0216768E1,2.2139984E1,1.254377E3,2.2475992E1,1.1624788E1],"tree_param":{"num_deleted":"0","num_feature":"270","num_nodes":"51","size_leaf_vector":"1"}},{"base_weights":[7.885692E-4,9.547338E-1,-6.1386514E-1,1.0726227E0,2.6783657E-1,5.3928893E-2,-6.2516683E-1,1.0837243E0,-1.946365E-1,6.669185E-1,-6.8151337E-1,-2.97787E-1,-6.681087E-1,1.0894489E0,-1.9583562E-1,-3.1891856E-2,4.597408E-2,1.0232342E0,-3.5524416E-1,-3.464517E-2,-1.7540056E-2,3.9336327E-1,-6.661009E-1,-6.723366E-1,2.0010912E-1,1.0954547E0,2.3494312E-1,3.9538767E-2,-3.054435E-2,5.640762E-2,-3.392539E-1,5.198245E-2,-5.399702E-1,5.906826E-2,-1.0672622E-1,-6.8176305E-1,-1.8456914E-1,-6.734026E-1,4.4781953E-2,5.1448334E-2,-3.0157194E-2,5.4927107E-2,-1.6825398E-2,4.7820196E-2,-2.9865874E-2,-3.144681E-2,3.7170626E-2,-3.241356E-2,4.3795925E-2,-1.383616E-2,5.7807025E-2,-7.7122874E-3,-3.449484E-2,4.3515444E-2,-2.9570004E-2,-1.8904675E-2,-3.3719826E-2],"categories":[],"categories_nodes":[],"categories_segments":[],"categories_sizes":[],"default_left":[0,0,0,0,0,0,0,0,0,0,0,0,0,0,0,0,0,0,0,0,0,0,0,0,0,0,0,0,0,0,0,0,0,0,0,0,0,0,0,0,0,0,0,0,0,0,0,0,0,0,0,0,0,0,0,0,0],"id":15,"left_children":[1,3,5,7,9,-1,11,13,15,17,19,21,23,25,27,-1,-1,29,31,-1,-1,33,35,37,39,41,43,-1,-1,-1,45,-1,47,-1,49,51,53,55,-1,-1,-1,-1,-1,-1,-1,-1,-1,-1,-1,-1,-1,-1,-1,-1,-1,-1,-1],"loss_changes":[3.0291353E3,1.636388E2,6.0769043E1,2.4514038E1,1.1330715E2,0E0,4.368506E1,1.2758545E1,8.412622E0,7.6926865E1,9.0862274E-2,9.286509E1,1.0261353E1,8.493286E0,3.9538245E0,0E0,0E0,2.2702347E1,1.4754005E1,0E0,0E0,5.0209656E1,1.6667404E0,5.1921387E0,1.0034685E1,7.85437E0,8.481356E0,0E0,0E0,0E0,4.2099066E0,0E0,8.12712E0,0E0,1.720849E1,8.796921E-1,4.3163977E0,5.506592E-1,0E0,0E0,0E0,0E0,0E0,0E0,0E0,0E0,0E0,0E0,0E0,0E0,0E0,0E0,0E0,0E0,0E0,0E0,0E0],"parents":[2147483647,0,0,1,1,2,2,3,3,4,4,6,6,7,7,8,8,9,9,10,10,11,11,12,12,13,13,14,14,17,17,18,18,21,21,22,22,23,23,24,24,25,25,26,26,30,30,32,32,34,34,35,35,36,36,37,37],"right_children":[2,4,6,8,10,-1,12,14,16,18,20,22,24,26,28,-1,-1,30,32,-1,-1,34,36,38,40,42,44,-1,-1,-1,46,-1,48,-1,50,52,54,56,-1,-1,-1,-1,-1,-1,-1,-1,-1,-1,-1,-1,-1,-1,-1,-1,-1,-1,-1],"split_conditions":[-6.686511E-1,-7.4677545E-1,1.0566551E-1,1.249495E0,9.5293486E-1,5.3928893E-2,-4.973256E-1,2.230119E0,-1.2608424E0,-5.16498E-2,5.2423793E-1,5.683855E-1,2.6502672E-1,1.2738674E0,-8.045959E-1,-3.1891856E-2,4.597408E-2,1.8073272E0,-9.9123967E-1,-3.464517E-2,-1.7540056E-2,-9.352481E-2,1.0734946E0,4.8894405E0,3.725949E-1,4.3311753E0,3.1685047E0,3.9538767E-2,-3.054435E-2,5.640762E-2,-3.400858E-1,5.198245E-2,-1.9298404E-1,5.906826E-2,1.2943642E0,-2.493433E0,-2.736221E-1,1.6572547E-1,4.4781953E-2,5.1448334E-2,-3.0157194E-2,5.4927107E-2,-1.6825398E-2,4.7820196E-2,-2.9865874E-2,-3.144681E-2,3.7170626E-2,-3.241356E-2,4.3795925E-2,-1.383616E-2,5.7807025E-2,-7.7122874E-3,-3.449484E-2,4.3515444E-2,-2.9570004E-2,-1.8904675E-2,-3.3719826E-2],"split_indices":[261,261,264,217,265,0,261,268,5,268,165,265,263,136,4,0,0,130,161,0,0,31,229,81,10,155,2,0,0,0,1,0,147,0,22,82,1,264,0,0,0,0,0,0,0,0,0,0,0,0,0,0,0,0,0,0,0],"split_type":[0,0,0,0,0,0,0,0,0,0,0,0,0,0,0,0,0,0,0,0,0,0,0,0,0,0,0,0,0,0,0,0,0,0,0,0,0,0,0,0,0,0,0,0,0,0,0,0,0,0,0,0,0,0,0,0,0],"sum_hessian":[5.1641235E3,2.0233392E3,3.1407847E3,1.7264716E3,2.9686758E2,2.0207884E1,3.1205767E3,1.7116221E3,1.4849521E1,2.092161E2,8.765149E1,3.6277664E2,2.7578E3,1.7041464E3,7.4757004E0,1.0929298E1,3.9202225E0,1.5513614E2,5.407996E1,8.367448E1,3.977016E0,1.2609262E2,2.36684E2,2.7446602E3,1.3139863E1,1.6919727E3,1.2173731E1,1.945601E0,5.530099E0,1.4420375E2,1.0932391E1,5.7830744E0,4.8296886E1,4.8425385E1,7.766724E1,2.2882549E2,7.8585224E0,2.7433657E3,1.2945707E0,6.3285666E0,6.811296E0,1.6885648E3,3.4077737E0,6.4410343E0,5.7326965E0,8.95535E0,1.9770415E0,4.5368786E1,2.9281013E0,6.9140915E1,8.5263195E0,3.777806E0,2.2504768E2,1.870148E0,5.9883747E0,1.0481622E1,2.732884E3],"tree_param":{"num_deleted":"0","num_feature":"270","num_nodes":"57","size_leaf_vector":"1"}},{"base_weights":[3.0576016E-3,-6.3541496E-1,2.41396E-1,-6.706111E-1,7.121496E-1,5.893023E-1,-5.4928565E-1,5.676455E-1,-6.8135977E-1,5.3599406E-2,-3.1998098E-2,8.127515E-1,2.4540664E-1,-6.1479133E-1,3.891694E-1,5.483064E-2,-2.7346015E-2,-6.873673E-1,3.6231454E-2,-5.2898075E-2,1.0045383E0,1.0001425E0,-3.91867E-1,5.0551903E-2,-6.2849915E-1,1.0490378E0,-3.9835313E-1,-3.4539364E-2,-4.0112478E-1,6.608709E-1,-6.286158E-1,-3.3788066E-2,1.0292181E0,-3.4058806E-2,1.0700296E0,5.4977488E-2,-5.0792074E-1,5.0205644E-2,-6.415972E-1,-2.3774736E-2,5.6430608E-2,-3.3734772E-2,4.7132958E-2,-3.2752924E-2,4.6896406E-2,-3.312937E-2,4.869866E-2,-3.5154417E-2,4.1689474E-2,-3.181735E-2,5.205813E-2,-3.0933887E-2,5.4694444E-2,2.5996665E-2,-3.0743292E-2,-3.3281725E-2,6.077257E-3],"categories":[],"categories_nodes":[],"categories_segments":[],"categories_sizes":[],"default_left":[0,0,0,0,0,0,0,0,0,0,0,0,0,0,0,0,0,0,0,0,0,0,0,0,0,0,0,0,0,0,0,0,0,0,0,0,0,0,0,0,0,0,0,0,0,0,0,0,0,0,0,0,0,0,0,0,0],"id":16,"left_children":[1,3,5,7,9,11,13,15,17,-1,-1,19,21,23,25,-1,-1,27,-1,29,31,33,35,-1,37,39,41,-1,43,45,47,-1,49,-1,51,-1,53,-1,55,-1,-1,-1,-1,-1,-1,-1,-1,-1,-1,-1,-1,-1,-1,-1,-1,-1,-1],"loss_changes":[7.871089E2,6.716321E1,1.0364143E3,1.8630554E1,1.8334274E1,2.0082751E2,7.1020386E1,7.876067E0,1.1980286E1,0E0,0E0,2.6324414E2,4.9664688E2,2.4630371E1,3.97759E1,0E0,0E0,1.048584E0,0E0,1.18958046E2,5.451526E1,5.62648E1,9.750951E1,0E0,2.3488312E1,5.5692253E0,1.3700309E1,0E0,6.8616066E0,5.421724E1,1.803254E1,0E0,2.6116089E1,0E0,1.8975647E1,0E0,5.7521973E1,0E0,1.953238E1,0E0,0E0,0E0,0E0,0E0,0E0,0E0,0E0,0E0,0E0,0E0,0E0,0E0,0E0,0E0,0E0,0E0,0E0],"parents":[2147483647,0,0,1,1,2,2,3,3,4,4,5,5,6,6,7,7,8,8,11,11,12,12,13,13,14,14,17,17,19,19,20,20,21,21,22,22,24,24,25,25,26,26,28,28,29,29,30,30,32,32,34,34,36,36,38,38],"right_children":[2,4,6,8,10,12,14,16,18,-1,-1,20,22,24,26,-1,-1,28,-1,30,32,34,36,-1,38,40,42,-1,44,46,48,-1,50,-1,52,-1,54,-1,56,-1,-1,-1,-1,-1,-1,-1,-1,-1,-1,-1,-1,-1,-1,-1,-1,-1,-1],"split_conditions":[-7.498736E-1,5.552693E-1,2.3750186E-1,-2.6184998E0,-1.0101129E-1,6.0886437E-1,-2.9488537E-1,-3.4730738E-1,4.3311753E0,5.3599406E-2,-3.1998098E-2,-5.431824E-1,-4.346919E-1,-1.08262E0,1.2142569E0,5.483064E-2,-2.7346015E-2,1.6776997E0,3.6231454E-2,-7.3165923E-1,-1.2471138E0,-1.0512005E0,-9.814692E-2,5.0551903E-2,-9.396765E-1,-1.1758661E0,-1.8251479E-2,-3.4539364E-2,4.9964854E-1,1.5371275E-1,5.7609576E-1,-3.3788066E-2,-7.341567E-1,-3.4058806E-2,-2.45954E0,5.4977488E-2,-9.610125E-1,5.0205644E-2,-4.0209852E-2,-2.3774736E-2,5.6430608E-2,-3.3734772E-2,4.7132958E-2,-3.2752924E-2,4.6896406E-2,-3.312937E-2,4.869866E-2,-3.5154417E-2,4.1689474E-2,-3.181735E-2,5.205813E-2,-3.0933887E-2,5.4694444E-2,2.5996665E-2,-3.0743292E-2,-3.3281725E-2,6.077257E-3],"split_indices":[261,262,261,172,205,265,263,11,155,0,0,261,261,247,229,0,0,265,0,14,221,229,61,0,58,5,7,0,3,264,265,0,191,0,1,0,94,0,56,0,0,0,0,0,0,0,0,0,0,0,0,0,0,0,0,0,0],"split_type":[0,0,0,0,0,0,0,0,0,0,0,0,0,0,0,0,0,0,0,0,0,0,0,0,0,0,0,0,0,0,0,0,0,0,0,0,0,0,0,0,0,0,0,0,0,0,0,0,0,0,0,0,0,0,0,0,0],"sum_hessian":[5.1704688E3,1.4050055E3,3.7654634E3,1.3697327E3,3.527282E1,2.6150674E3,1.1503961E3,1.1341741E1,1.358391E3,2.8022377E1,7.250442E0,1.5842949E3,1.0307725E3,1.0756582E3,7.473783E1,7.702351E0,3.6393898E0,1.3531205E3,5.270532E0,2.8747437E2,1.2968206E3,4.7163568E2,5.5913684E2,8.385017E0,1.0672732E3,4.0484028E1,3.4253807E1,1.3357479E3,1.737249E1,1.2828278E2,1.5919157E2,1.8389723E1,1.2784308E3,1.8472988E1,4.531627E2,3.9755894E1,5.193809E2,7.892178E0,1.0593811E3,1.76146E0,3.872257E1,2.8813158E1,5.4406495E0,1.5032568E1,2.3399231E0,2.4329159E1,1.0395362E2,1.519717E2,7.219888E0,8.730749E0,1.2697001E3,5.966091E0,4.471966E2,4.8583252E1,4.707977E2,1.0271558E3,3.2225315E1],"tree_param":{"num_deleted":"0","num_feature":"270","num_nodes":"57","size_leaf_vector":"1"}},{"base_weights":[9.4203494E-4,-3.7735692E-1,1.0012399E0,-6.508482E-1,2.495023E-1,1.0449438E0,1.7442927E-1,-6.59045E-1,5.2982986E-2,-5.698664E-1,8.9298975E-1,-3.0136375E-2,1.0533762E0,-3.376537E-2,9.286601E-1,-6.768023E-1,-2.644665E-1,5.3621527E-2,-6.202377E-1,-3.378866E-2,9.802925E-1,-2.9884243E-2,1.0613621E0,5.4799844E-2,-2.7139714E-2,-6.819403E-1,-1.4790162E-1,-3.432277E-2,5.671504E-2,5.004519E-2,-6.473587E-1,8.7390624E-2,1.0557519E0,1.0774192E0,4.9335483E-1,-3.4443323E-2,-1.6718304E-2,5.4464042E-2,-3.2925986E-2,-3.4013543E-2,2.535539E-2,-3.4225415E-2,5.5484023E-2,5.4627296E-2,-3.4537468E-2,4.1356307E-2,5.4751255E-2,5.440698E-2,-3.262233E-2],"categories":[],"categories_nodes":[],"categories_segments":[],"categories_sizes":[],"default_left":[0,0,0,0,0,0,0,0,0,0,0,0,0,0,0,0,0,0,0,0,0,0,0,0,0,0,0,0,0,0,0,0,0,0,0,0,0,0,0,0,0,0,0,0,0,0,0,0,0],"id":17,"left_children":[1,3,5,7,9,11,13,15,-1,17,19,-1,21,-1,23,25,27,-1,29,-1,31,-1,33,-1,-1,35,37,-1,-1,-1,39,41,43,45,47,-1,-1,-1,-1,-1,-1,-1,-1,-1,-1,-1,-1,-1,-1],"loss_changes":[1.9494988E3,6.410239E2,5.090149E1,3.7192627E1,5.9958014E2,1.9287598E1,4.688365E1,1.797583E1,0E0,4.206151E1,8.787677E1,0E0,1.8250854E1,0E0,1.0113373E1,6.635498E0,6.761246E1,0E0,2.2022675E1,0E0,4.057953E1,0E0,1.1598389E1,0E0,0E0,5.679077E0,1.6590353E1,0E0,0E0,0E0,1.853598E1,3.8738045E1,3.6516296E1,4.790039E0,2.6885403E1,0E0,0E0,0E0,0E0,0E0,0E0,0E0,0E0,0E0,0E0,0E0,0E0,0E0,0E0],"parents":[2147483647,0,0,1,1,2,2,3,3,4,4,5,5,6,6,7,7,9,9,10,10,12,12,14,14,15,15,16,16,18,18,20,20,22,22,25,25,26,26,30,30,31,31,32,32,33,33,34,34],"right_children":[2,4,6,8,10,12,14,16,-1,18,20,-1,22,-1,24,26,28,-1,30,-1,32,-1,34,-1,-1,36,38,-1,-1,-1,40,42,44,46,48,-1,-1,-1,-1,-1,-1,-1,-1,-1,-1,-1,-1,-1,-1],"split_conditions":[2.3750186E-1,6.0886437E-1,-2.9488537E-1,4.5363913E0,-4.346919E-1,-1.08262E0,1.2142569E0,5.39472E-1,5.2982986E-2,-3.437925E0,-9.814692E-2,-3.0136375E-2,-9.396765E-1,-3.376537E-2,-1.8251479E-2,2.0815544E0,8.0737346E-1,5.3621527E-2,-2.9168396E0,-3.378866E-2,-9.60492E-1,-2.9884243E-2,-4.0209852E-2,5.4799844E-2,-2.7139714E-2,2.2257667E0,-8.939025E-1,-3.432277E-2,5.671504E-2,5.004519E-2,1.8367238E0,-7.604835E-1,1.833898E0,-6.791292E-2,2.728573E-1,-3.4443323E-2,-1.6718304E-2,5.4464042E-2,-3.2925986E-2,-3.4013543E-2,2.535539E-2,-3.4225415E-2,5.5484023E-2,5.4627296E-2,-3.4537468E-2,4.1356307E-2,5.4751255E-2,5.440698E-2,-3.262233E-2],"split_indices":[261,265,263,65,261,247,229,265,0,223,61,0,62,0,7,211,145,0,214,0,94,0,56,0,0,4,16,0,0,0,265,76,112,259,1,0,0,0,0,0,0,0,0,0,0,0,0,0,0],"split_type":[0,0,0,0,0,0,0,0,0,0,0,0,0,0,0,0,0,0,0,0,0,0,0,0,0,0,0,0,0,0,0,0,0,0,0,0,0,0,0,0,0,0,0,0,0,0,0,0,0],"sum_hessian":[5.1497954E3,3.7370984E3,1.4126968E3,2.6018875E3,1.135211E3,1.3415221E3,7.11746E1,2.5900903E3,1.1797062E1,4.994118E2,6.357992E2,6.471747E0,1.3350504E3,3.3517513E1,3.765708E1,2.4778635E3,1.1222694E2,1.4257931E1,4.8515387E2,3.316205E1,6.0263715E2,6.0709796E0,1.3289794E3,3.404103E1,3.616053E0,2.453737E3,2.4126392E1,8.6607796E1,2.5619137E1,7.392081E0,4.777618E2,4.7128567E1,5.5550854E2,1.2915712E3,3.7408287E1,2.404834E3,4.890322E1,6.717419E0,1.7408974E1,4.6491843E2,1.2843373E1,2.70411E1,2.0087467E1,5.444137E2,1.109487E1,8.803292E1,1.2035382E3,2.4658436E1,1.2749854E1],"tree_param":{"num_deleted":"0","num_feature":"270","num_nodes":"49","size_leaf_vector":"1"}},{"base_weights":[1.773815E-4,9.082976E-1,-6.0223776E-1,1.0213574E0,2.586039E-1,-2.3055074E-1,-6.536113E-1,1.0435381E0,-3.2160705E-1,6.281433E-1,-6.6014165E-1,4.4192407E-1,-6.4003587E-1,2.9005784E-1,-6.593967E-1,1.0498534E0,-3.1569973E-1,5.1240634E-2,-3.3200905E-2,1.0355511E0,-4.2976224E-1,-2.1030588E-2,-3.3950035E-2,5.5785414E-2,-6.101107E-2,4.1435048E-2,-6.5562934E-1,5.119287E-2,-3.005277E-2,-6.604733E-1,4.4955738E-2,6.870177E-1,1.0532492E0,3.4148134E-2,-3.0641546E-2,5.3569116E-2,-2.6418397E-2,5.019469E-2,-6.129187E-1,-2.112873E-1,5.523723E-2,4.1179847E-2,-6.7141247E-1,-6.630759E-1,-1.9660619E-1,-2.715112E-2,4.9284816E-2,5.281585E-2,3.924609E-2,4.2398535E-2,-3.402752E-2,5.4657847E-2,-1.6240146E-2,-3.3767797E-2,-1.517045E-2,-2.349311E-2,-3.3253968E-2,4.7453314E-2,-3.1223858E-2],"categories":[],"categories_nodes":[],"categories_segments":[],"categories_sizes":[],"default_left":[0,0,0,0,0,0,0,0,0,0,0,0,0,0,0,0,0,0,0,0,0,0,0,0,0,0,0,0,0,0,0,0,0,0,0,0,0,0,0,0,0,0,0,0,0,0,0,0,0,0,0,0,0,0,0,0,0,0,0],"id":18,"left_children":[1,3,5,7,9,11,13,15,17,19,21,23,25,27,29,31,33,-1,-1,35,37,-1,-1,-1,39,-1,41,-1,-1,43,-1,45,47,-1,-1,-1,-1,-1,49,51,-1,-1,53,55,57,-1,-1,-1,-1,-1,-1,-1,-1,-1,-1,-1,-1,-1,-1],"loss_changes":[2.819515E3,1.5071484E2,5.9014282E1,5.2476807E1,1.0430728E2,1.0431764E2,1.5050171E1,1.5114868E1,1.4144817E1,9.472226E1,1.1311722E-1,4.872192E1,5.930603E0,1.19138775E1,5.1331787E0,1.388916E0,3.0100765E0,0E0,0E0,9.432098E0,1.6770569E1,0E0,0E0,0E0,1.4801765E1,0E0,6.0000916E0,0E0,0E0,3.1342773E0,0E0,7.4322443E0,5.675049E-1,0E0,0E0,0E0,0E0,0E0,6.0285683E0,1.1387098E1,0E0,0E0,1.3089752E-1,7.281494E-1,8.685338E0,0E0,0E0,0E0,0E0,0E0,0E0,0E0,0E0,0E0,0E0,0E0,0E0,0E0,0E0],"parents":[2147483647,0,0,1,1,2,2,3,3,4,4,5,5,6,6,7,7,8,8,9,9,10,10,11,11,12,12,13,13,14,14,15,15,16,16,19,19,20,20,24,24,26,26,29,29,31,31,32,32,38,38,39,39,42,42,43,43,44,44],"right_children":[2,4,6,8,10,12,14,16,18,20,22,24,26,28,30,32,34,-1,-1,36,38,-1,-1,-1,40,-1,42,-1,-1,44,-1,46,48,-1,-1,-1,-1,-1,50,52,-1,-1,54,56,58,-1,-1,-1,-1,-1,-1,-1,-1,-1,-1,-1,-1,-1,-1],"split_conditions":[-6.686511E-1,-7.4677545E-1,-4.973256E-1,5.552693E-1,9.5293486E-1,5.683855E-1,1.4170112E-1,2.230119E0,1.2386814E0,9.292432E-3,-9.74871E-1,-9.352481E-2,-2.0501475E0,4.8151222E-1,2.4613345E0,-1.2242508E0,-8.045959E-1,5.1240634E-2,-3.3200905E-2,3.0476718E0,-2.192027E-2,-2.1030588E-2,-3.3950035E-2,5.5785414E-2,1.2943642E0,4.1435048E-2,-7.511907E-1,5.119287E-2,-3.005277E-2,1.2290417E0,4.4955738E-2,-1.9260005E0,1.6776997E0,3.4148134E-2,-3.0641546E-2,5.3569116E-2,-2.6418397E-2,5.019469E-2,-1.331342E-1,-9.7371596E-1,5.523723E-2,4.1179847E-2,-4.96378E-1,-7.0754445E-1,-7.730368E-1,-2.715112E-2,4.9284816E-2,5.281585E-2,3.924609E-2,4.2398535E-2,-3.402752E-2,5.4657847E-2,-1.6240146E-2,-3.3767797E-2,-1.517045E-2,-2.349311E-2,-3.3253968E-2,4.7453314E-2,-3.1223858E-2],"split_indices":[261,261,261,262,269,269,264,268,146,178,125,31,217,46,4,269,4,0,0,65,7,0,0,0,22,0,262,0,0,262,0,7,269,0,0,0,0,0,74,130,0,0,234,11,4,0,0,0,0,0,0,0,0,0,0,0,0,0,0],"split_type":[0,0,0,0,0,0,0,0,0,0,0,0,0,0,0,0,0,0,0,0,0,0,0,0,0,0,0,0,0,0,0,0,0,0,0,0,0,0,0,0,0,0,0,0,0,0,0,0,0,0,0,0,0,0,0,0,0,0,0],"sum_hessian":[5.1518906E3,2.054418E3,3.0974727E3,1.749413E3,3.0500513E2,3.7680215E2,2.7206704E3,1.721208E3,2.8204937E1,2.177412E2,8.726393E1,1.4257686E2,2.342253E2,1.6278648E1,2.7043918E3,1.7134745E3,7.733538E0,5.3144937E0,2.2890444E1,1.5721687E2,6.0524326E1,8.069948E0,7.9193985E1,6.0417248E1,8.215961E1,1.9128281E0,2.3231247E2,8.845629E0,7.4330206E0,2.7031008E3,1.2910174E0,1.7773108E1,1.6957013E3,1.475578E0,6.2579603E0,1.540034E2,3.213458E0,6.3487163E0,5.417561E1,7.350316E1,8.656454E0,1.9122342E0,2.3040022E2,2.6875918E3,1.5508911E1,3.3126454E0,1.4460462E1,1.6736301E3,2.2071259E1,1.886561E0,5.228905E1,5.193457E0,6.83097E1,2.2713113E2,3.2690933E0,2.9998919E1,2.657593E3,3.8858905E0,1.162302E1],"tree_param":{"num_deleted":"0","num_feature":"270","num_nodes":"59","size_leaf_vector":"1"}},{"base_weights":[-8.921039E-4,-6.2455994E-1,2.2331704E-1,-6.376649E-1,6.226084E-1,5.5809575E-1,-5.467028E-1,-6.4684546E-1,7.144006E-1,4.958719E-2,-2.6495537E-2,7.677831E-1,2.2692175E-1,-6.102182E-1,3.62234E-1,-6.5514845E-1,2.2586758E-1,-2.279279E-2,5.135503E-2,-5.4319043E-2,9.517421E-1,9.50526E-1,-4.051174E-1,-6.2128145E-1,4.7287006E-2,5.318324E-2,-3.2874635E-1,-6.688668E-1,-2.9005003E-1,-2.9209385E-2,4.7174066E-2,-4.7272575E-1,8.5191864E-1,-3.3264693E-2,9.7513777E-1,-3.3381015E-2,1.0111741E0,5.308299E-2,-5.1131314E-1,-6.4526767E-1,1.2263601E-1,-3.3501606E-2,4.9043577E-2,-1.0203269E-2,-3.3722106E-2,4.5413863E-2,-3.302737E-2,-2.8845614E-2,5.0246537E-2,-3.230896E-2,4.9953457E-2,-3.1783704E-2,4.9295973E-2,-3.132612E-2,5.1844597E-2,2.009618E-2,-3.0458853E-2,4.572159E-2,-3.272369E-2,-3.318912E-2,5.416075E-2],"categories":[],"categories_nodes":[],"categories_segments":[],"categories_sizes":[],"default_left":[0,0,0,0,0,0,0,0,0,0,0,0,0,0,0,0,0,0,0,0,0,0,0,0,0,0,0,0,0,0,0,0,0,0,0,0,0,0,0,0,0,0,0,0,0,0,0,0,0,0,0,0,0,0,0,0,0,0,0,0,0],"id":19,"left_children":[1,3,5,7,9,11,13,15,17,-1,-1,19,21,23,25,27,29,-1,-1,31,33,35,37,39,-1,-1,41,43,45,-1,-1,47,49,-1,51,-1,53,-1,55,57,59,-1,-1,-1,-1,-1,-1,-1,-1,-1,-1,-1,-1,-1,-1,-1,-1,-1,-1,-1,-1],"loss_changes":[7.185052E2,2.2604797E1,9.7463025E2,1.7158752E1,6.751814E0,1.8279279E2,6.6370026E1,9.833008E0,3.9618554E0,0E0,0E0,2.4397241E2,4.6820517E2,1.902945E1,3.6925842E1,6.4385376E0,8.305816E0,0E0,0E0,1.1258655E2,5.0511475E1,4.7506744E1,8.56994E1,1.9071716E1,0E0,0E0,1.7989988E1,3.1677246E0,2.2675045E1,0E0,0E0,3.1840183E1,2.132534E1,0E0,2.3197632E1,0E0,2.0039215E1,0E0,4.5866425E1,1.5406616E1,2.646909E1,0E0,0E0,0E0,0E0,0E0,0E0,0E0,0E0,0E0,0E0,0E0,0E0,0E0,0E0,0E0,0E0,0E0,0E0,0E0,0E0],"parents":[2147483647,0,0,1,1,2,2,3,3,4,4,5,5,6,6,7,7,8,8,11,11,12,12,13,13,14,14,15,15,16,16,19,19,20,20,21,21,22,22,23,23,26,26,27,27,28,28,31,31,32,32,34,34,36,36,38,38,39,39,40,40],"right_children":[2,4,6,8,10,12,14,16,18,-1,-1,20,22,24,26,28,30,-1,-1,32,34,36,38,40,-1,-1,42,44,46,-1,-1,48,50,-1,52,-1,54,-1,56,58,60,-1,-1,-1,-1,-1,-1,-1,-1,-1,-1,-1,-1,-1,-1,-1,-1,-1,-1,-1,-1],"split_conditions":[-7.4677545E-1,1.249495E0,2.3750186E-1,2.230119E0,-1.1842822E0,6.0886437E-1,-2.9488537E-1,1.2738674E0,-8.045959E-1,4.958719E-2,-2.6495537E-2,-5.431824E-1,-4.346919E-1,3.500175E0,2.0023277E-3,1.7465574E0,3.1685047E0,-2.279279E-2,5.135503E-2,9.292432E-3,-1.1854678E0,-1.0512005E0,-9.814692E-2,-4.0209852E-2,4.7287006E-2,5.318324E-2,3.3152719E0,-1.2242508E0,-9.381425E-1,-2.9209385E-2,4.7174066E-2,3.2515438E0,-9.8256814E-1,-3.3264693E-2,-7.217743E-1,-3.3381015E-2,-3.448828E0,5.308299E-2,-9.610125E-1,-9.396765E-1,2.728573E-1,-3.3501606E-2,4.9043577E-2,-1.0203269E-2,-3.3722106E-2,4.5413863E-2,-3.302737E-2,-2.8845614E-2,5.0246537E-2,-3.230896E-2,4.9953457E-2,-3.1783704E-2,4.9295973E-2,-3.132612E-2,5.1844597E-2,2.009618E-2,-3.0458853E-2,4.572159E-2,-3.272369E-2,-3.318912E-2,5.416075E-2],"split_indices":[261,217,261,268,6,265,263,136,4,0,0,261,261,0,83,79,2,0,0,178,222,229,61,56,0,0,2,265,58,0,0,171,1,0,236,0,133,0,94,58,1,0,0,0,0,0,0,0,0,0,0,0,0,0,0,0,0,0,0,0,0],"split_type":[0,0,0,0,0,0,0,0,0,0,0,0,0,0,0,0,0,0,0,0,0,0,0,0,0,0,0,0,0,0,0,0,0,0,0,0,0,0,0,0,0,0,0,0,0,0,0,0,0,0,0,0,0,0,0,0,0,0,0,0,0],"sum_hessian":[5.1363477E3,1.3577627E3,3.778585E3,1.3441276E3,1.3635068E1,2.6337808E3,1.1448041E3,1.3355806E3,8.547065E0,1.0433021E1,3.2020478E0,1.6118793E3,1.0219016E3,1.0703387E3,7.4465355E1,1.3232405E3,1.2340021E1,1.7057216E0,6.841343E0,2.9486215E2,1.3170171E3,4.7620438E2,5.456972E2,1.0633787E3,6.96014E0,3.668558E1,3.7779774E1,1.2745193E3,4.872123E1,5.8839936E0,6.4560275E0,2.0205325E2,9.28089E1,1.8391863E1,1.2986252E3,1.6841806E1,4.5936258E2,3.6234093E1,5.0946313E2,1.0302914E3,3.3087223E1,3.0357105E1,7.4226704E0,1.5552343E1,1.2589669E3,1.116333E1,3.75579E1,1.8931465E2,1.2738611E1,7.997481E0,8.4811424E1,8.248941E0,1.2903762E3,6.740963E0,4.526216E2,4.9009956E1,4.6045316E2,5.4686637E0,1.0248228E3,1.8362757E1,1.4724466E1],"tree_param":{"num_deleted":"0","num_feature":"270","num_nodes":"61","size_leaf_vector":"1"}},{"base_weights":[3.274442E-4,-3.7109697E-1,9.593227E-1,-6.5600616E-1,1.8650974E-1,9.9929875E-1,1.612953E-1,5.553156E-2,-6.708275E-1,-5.537146E-1,7.4620515E-1,-2.988196E-2,1.0076902E0,-3.319597E-2,8.8367623E-1,5.3681802E-2,-3.2802593E-2,-3.393751E-2,-2.8261286E-1,5.1597226E-2,-6.071265E-1,1.1072178E-1,9.324364E-1,-2.9660443E-2,1.015673E0,5.240494E-2,-2.6694465E-2,-3.380705E-2,6.569155E-2,4.878839E-2,-6.3672596E-1,-4.8808113E-1,6.774847E-1,1.855193E-1,1.0211806E0,1.0303407E0,4.6247888E-1,-3.3444706E-2,2.2753712E-2,-3.4129634E-2,5.2455645E-2,-3.309199E-2,5.3553093E-2,-3.3040334E-2,5.7344723E-2,-3.528934E-2,5.2234925E-2,5.232073E-2,4.0445756E-2,5.2282553E-2,-3.23079E-2],"categories":[],"categories_nodes":[],"categories_segments":[],"categories_sizes":[],"default_left":[0,0,0,0,0,0,0,0,0,0,0,0,0,0,0,0,0,0,0,0,0,0,0,0,0,0,0,0,0,0,0,0,0,0,0,0,0,0,0,0,0,0,0,0,0,0,0,0,0,0,0],"id":20,"left_children":[1,3,5,7,9,11,13,15,17,19,21,-1,23,-1,25,-1,-1,-1,27,-1,29,31,33,-1,35,-1,-1,-1,-1,-1,37,39,41,43,45,47,49,-1,-1,-1,-1,-1,-1,-1,-1,-1,-1,-1,-1,-1,-1],"loss_changes":[1.8198777E3,5.8520544E2,4.5343384E1,2.5744629E1,5.167083E2,1.8802124E1,4.1860023E1,3.740859E1,7.153076E0,4.611798E1,8.392917E1,0E0,1.7873291E1,0E0,9.264549E0,0E0,0E0,0E0,3.1969656E1,0E0,2.4996948E1,5.5330193E1,3.620038E1,0E0,1.04375E1,0E0,0E0,0E0,0E0,0E0,1.8262405E1,2.4451927E1,4.4816658E1,4.918806E1,2.065744E1,3.8144531E0,2.4310997E1,0E0,0E0,0E0,0E0,0E0,0E0,0E0,0E0,0E0,0E0,0E0,0E0,0E0,0E0],"parents":[2147483647,0,0,1,1,2,2,3,3,4,4,5,5,6,6,7,7,8,8,9,9,10,10,12,12,14,14,18,18,20,20,21,21,22,22,24,24,30,30,31,31,32,32,33,33,34,34,35,35,36,36],"right_children":[2,4,6,8,10,12,14,16,18,20,22,-1,24,-1,26,-1,-1,-1,28,-1,30,32,34,-1,36,-1,-1,-1,-1,-1,38,40,42,44,46,48,50,-1,-1,-1,-1,-1,-1,-1,-1,-1,-1,-1,-1,-1,-1],"split_conditions":[2.3750186E-1,5.39472E-1,-2.9488537E-1,-1.0780356E0,-4.346919E-1,-1.08262E0,1.2142569E0,-8.83171E-1,2.2257667E0,-3.437925E0,-4.5467827E-1,-2.988196E-2,-9.396765E-1,-3.319597E-2,-1.8251479E-2,5.3681802E-2,-3.2802593E-2,-3.393751E-2,5.1914835E-1,5.1597226E-2,-3.4800305E0,5.56144E-1,5.9922653E-1,-2.9660443E-2,-4.0209852E-2,5.240494E-2,-2.6694465E-2,-3.380705E-2,6.569155E-2,4.878839E-2,1.8367238E0,7.5573635E-1,-6.1400867E-1,-1.0599711E-1,-1.0593606E0,5.426071E-1,2.728573E-1,-3.3444706E-2,2.2753712E-2,-3.4129634E-2,5.2455645E-2,-3.309199E-2,5.3553093E-2,-3.3040334E-2,5.7344723E-2,-3.528934E-2,5.2234925E-2,5.232073E-2,4.0445756E-2,5.2282553E-2,-3.23079E-2],"split_indices":[261,265,263,256,261,247,233,52,4,223,207,0,58,0,7,0,0,0,111,0,232,86,265,0,56,0,0,0,0,0,265,25,47,49,233,30,1,0,0,0,0,0,0,0,0,0,0,0,0,0,0],"split_type":[0,0,0,0,0,0,0,0,0,0,0,0,0,0,0,0,0,0,0,0,0,0,0,0,0,0,0,0,0,0,0,0,0,0,0,0,0,0,0,0,0,0,0,0,0,0,0,0,0,0,0],"sum_hessian":[5.107228E3,3.6818423E3,1.4253859E3,2.4366562E3,1.2451862E3,1.3571492E3,6.8236694E1,4.966382E1,2.3869924E3,5.361338E2,7.090523E2,6.727065E0,1.3504221E3,3.1889048E1,3.634765E1,2.0222084E1,2.9441734E1,2.3385193E3,4.84732E1,1.6873806E1,5.1926E2,1.6105917E2,5.4799316E2,6.3366776E0,1.3440854E3,3.2803432E1,3.5442166E0,3.9349827E1,9.123376E0,8.944939E0,5.1031506E2,7.838343E1,8.267574E1,5.8523106E1,4.8947003E2,1.308528E3,3.5557438E1,4.96086E2,1.4229045E1,7.007262E1,8.310815E0,1.8622532E1,6.405321E1,3.1290144E1,2.7232964E1,6.186268E0,4.8328378E2,1.2164929E3,9.2035034E1,2.33379E1,1.2219536E1],"tree_param":{"num_deleted":"0","num_feature":"270","num_nodes":"51","size_leaf_vector":"1"}},{"base_weights":[-7.0291986E-3,8.740035E-1,-5.9642553E-1,9.766748E-1,2.6535124E-1,5.0348718E-2,-6.071336E-1,9.853791E-1,-6.640035E-2,6.1678207E-1,-6.478512E-1,-3.1126022E-1,-6.478612E-1,9.913374E-1,-3.0779025E-1,-3.0534988E-2,4.4029165E-2,9.836353E-1,-3.9068013E-1,-3.3599537E-2,-4.3798655E-1,3.376523E-1,-6.542816E-1,-6.524767E-1,2.378911E-1,9.9491817E-1,-1.27097955E-2,3.3056155E-2,-3.0120699E-2,5.140833E-2,-2.7778877E-2,4.851475E-2,-5.811685E-1,-1.0204183E-2,-2.8483406E-2,5.4297566E-2,-1.2185556E-1,-6.616518E-1,-5.2585006E-3,-6.5356517E-1,2.4747136E-3,4.925847E-2,-2.9136626E-2,5.0338835E-2,3.5054144E-2,-3.248412E-2,3.7659768E-2,-1.2635077E-2,5.804629E-2,-3.3489227E-2,-1.5411316E-2,-1.6023876E-2,-3.27293E-2,4.6741724E-2,-2.558322E-2],"categories":[],"categories_nodes":[],"categories_segments":[],"categories_sizes":[],"default_left":[0,0,0,0,0,0,0,0,0,0,0,0,0,0,0,0,0,0,0,0,0,0,0,0,0,0,0,0,0,0,0,0,0,0,0,0,0,0,0,0,0,0,0,0,0,0,0,0,0,0,0,0,0,0,0],"id":21,"left_children":[1,3,5,7,9,-1,11,13,15,17,19,21,23,25,27,-1,-1,29,31,-1,33,35,37,39,41,43,-1,-1,-1,-1,-1,-1,45,-1,-1,-1,47,49,-1,51,53,-1,-1,-1,-1,-1,-1,-1,-1,-1,-1,-1,-1,-1,-1],"loss_changes":[2.614869E3,1.2587488E2,5.241394E1,1.5742798E1,9.433844E1,0E0,3.5921997E1,1.3500122E1,8.386351E0,7.869355E1,1.20224E-1,8.138726E1,1.0924072E1,7.8566895E0,2.8582006E0,0E0,0E0,1.12369995E1,1.5412247E1,0E0,2.3219156E-1,4.3717728E1,8.9720154E-1,1.869873E0,9.39711E0,5.218384E0,0E0,0E0,0E0,0E0,0E0,0E0,5.1397705E0,0E0,0E0,0E0,1.3625743E1,4.7055817E-1,0E0,6.798096E-1,3.0402377E0,0E0,0E0,0E0,0E0,0E0,0E0,0E0,0E0,0E0,0E0,0E0,0E0,0E0,0E0],"parents":[2147483647,0,0,1,1,2,2,3,3,4,4,6,6,7,7,8,8,9,9,10,10,11,11,12,12,13,13,14,14,17,17,18,18,20,20,21,21,22,22,23,23,24,24,25,25,32,32,36,36,37,37,39,39,40,40],"right_children":[2,4,6,8,10,-1,12,14,16,18,20,22,24,26,28,-1,-1,30,32,-1,34,36,38,40,42,44,-1,-1,-1,-1,-1,-1,46,-1,-1,-1,48,50,-1,52,54,-1,-1,-1,-1,-1,-1,-1,-1,-1,-1,-1,-1,-1,-1],"split_conditions":[-6.686511E-1,-7.4677545E-1,1.0566551E-1,1.249495E0,9.5293486E-1,5.0348718E-2,-4.973256E-1,2.230119E0,-1.2608424E0,9.292432E-3,1.2060276E0,5.683855E-1,2.6502672E-1,4.3311753E0,-8.045959E-1,-3.0534988E-2,4.4029165E-2,3.0476718E0,-9.973382E-1,-3.3599537E-2,3.7825543E-1,-1.3592736E-1,-4.4494644E-1,4.768416E0,3.725949E-1,4.8201677E-1,-1.27097955E-2,3.3056155E-2,-3.0120699E-2,5.140833E-2,-2.7778877E-2,4.851475E-2,-5.207638E-2,-1.0204183E-2,-2.8483406E-2,5.4297566E-2,4.6176866E-1,1.0734946E0,-5.2585006E-3,1.6572547E-1,1.3331444E0,4.925847E-2,-2.9136626E-2,5.0338835E-2,3.5054144E-2,-3.248412E-2,3.7659768E-2,-1.2635077E-2,5.804629E-2,-3.3489227E-2,-1.5411316E-2,-1.6023876E-2,-3.27293E-2,4.6741724E-2,-2.558322E-2],"split_indices":[261,261,264,217,265,0,261,268,5,178,256,265,263,155,4,0,0,65,1,0,0,31,243,36,10,253,0,0,0,0,0,0,1,0,0,0,5,229,0,264,4,0,0,0,0,0,0,0,0,0,0,0,0,0,0],"split_type":[0,0,0,0,0,0,0,0,0,0,0,0,0,0,0,0,0,0,0,0,0,0,0,0,0,0,0,0,0,0,0,0,0,0,0,0,0,0,0,0,0,0,0,0,0,0,0,0,0,0,0,0,0,0,0],"sum_hessian":[5.0335874E3,2.0174337E3,3.0161533E3,1.7257233E3,2.917105E2,1.9392143E1,2.9967612E3,1.7114963E3,1.4226872E1,2.1088103E2,8.0829475E1,3.6364365E2,2.6331177E3,1.7038792E3,7.617282E0,9.259744E0,4.9671283E0,1.5460678E2,5.6274242E1,7.051638E1,1.0313097E1,1.2575728E2,2.3788635E2,2.61973E3,1.3387683E1,1.6991953E3,4.6837597E0,1.4860921E0,6.1311903E0,1.5058228E2,4.0245094E0,6.406713E0,4.9867527E1,4.633156E0,5.6799407E0,4.732546E1,7.8431816E1,2.345335E2,3.3528633E0,2.6153855E3,4.344422E0,6.9020276E0,6.4856553E0,1.6309479E3,6.824749E1,4.7920147E1,1.9473801E0,7.190081E1,6.5310073E0,2.2838301E2,6.1504927E0,8.953295E0,2.6064324E3,1.253331E0,3.091091E0],"tree_param":{"num_deleted":"0","num_feature":"270","num_nodes":"55","size_leaf_vector":"1"}},{"base_weights":[5.7560797E-3,-6.160908E-1,2.277506E-1,-6.4923424E-1,-3.5487305E-2,5.4937506E-1,-5.340364E-1,-6.5967566E-1,7.048334E-1,-3.276086E-2,5.0608225E-2,7.439638E-1,2.3908034E-1,-5.916028E-1,3.0972037E-1,-6.667549E-1,4.112115E-2,-2.246425E-2,4.9470093E-2,-4.9230825E-2,9.139932E-1,9.1333985E-1,-3.7764218E-1,-3.3551767E-2,-3.290914E-1,9.451122E-1,-4.080397E-1,-3.3523005E-2,-3.718347E-1,5.64928E-1,-6.0060483E-1,-3.2828044E-2,9.3757135E-1,-3.316447E-2,9.7628206E-1,5.0825328E-2,-4.9066743E-1,1.3253418E0,-4.9086097E-1,-2.2957198E-2,5.119027E-2,-3.2686334E-2,4.268415E-2,-3.1701233E-2,4.726609E-2,-3.236381E-2,4.266667E-2,-3.418396E-2,4.4844296E-2,-3.0567462E-2,4.7377005E-2,-3.029944E-2,4.9878288E-2,2.2867654E-2,-2.9701937E-2,7.4563645E-2,4.610564E-2,3.6822956E-2,-3.33609E-2],"categories":[],"categories_nodes":[],"categories_segments":[],"categories_sizes":[],"default_left":[0,0,0,0,0,0,0,0,0,0,0,0,0,0,0,0,0,0,0,0,0,0,0,0,0,0,0,0,0,0,0,0,0,0,0,0,0,0,0,0,0,0,0,0,0,0,0,0,0,0,0,0,0,0,0,0,0,0,0],"id":22,"left_children":[1,3,5,7,9,11,13,15,17,-1,-1,19,21,23,25,27,-1,-1,-1,29,31,33,35,-1,37,39,41,-1,43,45,47,-1,49,-1,51,-1,53,55,57,-1,-1,-1,-1,-1,-1,-1,-1,-1,-1,-1,-1,-1,-1,-1,-1,-1,-1,-1,-1],"loss_changes":[6.9672327E2,2.55271E1,9.115436E2,1.8222717E1,4.790267E1,1.5775378E2,5.3836548E1,1.3630981E1,3.75982E0,0E0,0E0,2.1678351E2,4.2015686E2,2.1348572E1,3.286006E1,1.1072998E0,0E0,0E0,0E0,9.672359E1,4.962317E1,4.8537262E1,8.369654E1,0E0,6.548613E1,4.677246E0,1.1139404E1,0E0,6.69437E0,4.7806393E1,1.9331528E1,0E0,2.0718384E1,0E0,1.6246002E1,0E0,4.8199745E1,8.666611E-2,4.841355E1,0E0,0E0,0E0,0E0,0E0,0E0,0E0,0E0,0E0,0E0,0E0,0E0,0E0,0E0,0E0,0E0,0E0,0E0,0E0,0E0],"parents":[2147483647,0,0,1,1,2,2,3,3,4,4,5,5,6,6,7,7,8,8,11,11,12,12,13,13,14,14,15,15,19,19,20,20,21,21,22,22,24,24,25,25,26,26,28,28,29,29,30,30,32,32,34,34,36,36,37,37,38,38],"right_children":[2,4,6,8,10,12,14,16,18,-1,-1,20,22,24,26,28,-1,-1,-1,30,32,34,36,-1,38,40,42,-1,44,46,48,-1,50,-1,52,-1,54,56,58,-1,-1,-1,-1,-1,-1,-1,-1,-1,-1,-1,-1,-1,-1,-1,-1,-1,-1,-1,-1],"split_conditions":[-7.4677545E-1,4.8201677E-1,2.3750186E-1,2.230119E0,-2.544737E-1,6.0886437E-1,-2.9488537E-1,4.3311753E0,1.0456866E0,-3.276086E-2,5.0608225E-2,-5.431824E-1,-4.346919E-1,1.2891678E0,1.2142569E0,1.6776997E0,4.112115E-2,-2.246425E-2,4.9470093E-2,-7.3165923E-1,-1.2471138E0,-1.0512005E0,-9.814692E-2,-3.3551767E-2,-3.684115E-1,-1.1758661E0,-1.8251479E-2,-3.3523005E-2,-3.3096093E-1,1.5371275E-1,5.683855E-1,-3.2828044E-2,-7.341567E-1,-3.316447E-2,-3.448828E0,5.0825328E-2,-9.610125E-1,2.0864615E-1,-9.0784764E-1,-2.2957198E-2,5.119027E-2,-3.2686334E-2,4.268415E-2,-3.1701233E-2,4.726609E-2,-3.236381E-2,4.266667E-2,-3.418396E-2,4.4844296E-2,-3.0567462E-2,4.7377005E-2,-3.029944E-2,4.9878288E-2,2.2867654E-2,-2.9701937E-2,7.4563645E-2,4.610564E-2,3.6822956E-2,-3.33609E-2],"split_indices":[261,253,261,268,268,269,263,155,7,0,0,261,261,125,229,269,0,0,0,14,221,229,61,0,269,5,7,0,5,264,269,0,191,0,133,0,94,0,22,0,0,0,0,0,0,0,0,0,0,0,0,0,0,0,0,0,0,0,0],"split_type":[0,0,0,0,0,0,0,0,0,0,0,0,0,0,0,0,0,0,0,0,0,0,0,0,0,0,0,0,0,0,0,0,0,0,0,0,0,0,0,0,0,0,0,0,0,0,0,0,0,0,0,0,0,0,0,0,0,0,0],"sum_hessian":[5.0449985E3,1.3267516E3,3.7182468E3,1.2549928E3,7.175884E1,2.614634E3,1.1036128E3,1.2458983E3,9.094508E0,4.5322983E1,2.6435858E1,1.6060607E3,1.0085734E3,1.0334061E3,7.020664E1,1.2405231E3,5.375212E0,1.6843792E0,7.410129E0,2.8362906E2,1.3224316E3,4.815817E2,5.269917E2,7.9215424E2,2.4125195E2,3.707209E1,3.3134552E1,1.223874E3,1.6649048E1,1.3416365E2,1.4946541E2,1.9162481E1,1.3032692E3,1.812148E1,4.634602E2,3.8920444E1,4.8807126E2,2.08477E1,2.2040425E2,1.7106929E0,3.53614E1,2.8137413E1,4.997136E0,1.4317652E1,2.331395E0,2.5546051E1,1.086176E2,1.4212442E2,7.340997E0,7.9483423E0,1.2953208E3,5.786804E0,4.576734E2,4.764976E1,4.404215E2,1.2858167E1,7.989534E0,2.7292414E1,1.9311183E2],"tree_param":{"num_deleted":"0","num_feature":"270","num_nodes":"59","size_leaf_vector":"1"}},{"base_weights":[-5.6303493E-3,-3.682854E-1,9.169942E-1,-6.2993E-1,2.1469551E-1,9.559023E-1,1.9562155E-1,-6.383333E-1,4.841594E-2,-5.449936E-1,8.14945E-1,9.634226E-1,-2.9170072E-2,-3.2707956E-2,8.50558E-1,-6.568729E-1,-2.278842E-1,4.917001E-2,-5.978569E-1,-3.278503E-2,8.9587146E-1,-2.8931493E-2,9.7054875E-1,5.016315E-2,-2.6810924E-2,-6.642304E-1,-3.0216095E-1,-3.3375923E-2,5.3577017E-2,-6.2554E-1,4.6153624E-2,4.3736987E-2,9.604865E-1,9.854555E-1,4.2988282E-1,-3.3456545E-2,-8.646597E-3,-3.335757E-2,6.34325E-2,-3.37993E-2,2.2435875E-3,-3.343233E-2,5.180644E-2,4.981328E-2,-3.519954E-2,2.4910195E-2,4.9696546E-2,5.0030924E-2,-3.193252E-2],"categories":[],"categories_nodes":[],"categories_segments":[],"categories_sizes":[],"default_left":[0,0,0,0,0,0,0,0,0,0,0,0,0,0,0,0,0,0,0,0,0,0,0,0,0,0,0,0,0,0,0,0,0,0,0,0,0,0,0,0,0,0,0,0,0,0,0,0,0],"id":23,"left_children":[1,3,5,7,9,11,13,15,-1,17,19,21,-1,-1,23,25,27,-1,29,-1,31,-1,33,-1,-1,35,37,-1,-1,39,-1,41,43,45,47,-1,-1,-1,-1,-1,-1,-1,-1,-1,-1,-1,-1,-1,-1],"loss_changes":[1.6884647E3,5.526775E2,3.9776978E1,3.420172E1,5.1248334E2,1.6198242E1,4.1810898E1,1.8783325E1,0E0,4.0680374E1,7.528873E1,1.5336792E1,0E0,0E0,9.495001E0,6.010498E0,6.301697E1,0E0,2.0797928E1,0E0,3.2738464E1,0E0,1.0366089E1,0E0,0E0,5.4959717E0,2.9626245E1,0E0,0E0,1.600206E1,0E0,3.1099138E1,3.3654877E1,4.881836E0,2.3626715E1,0E0,0E0,0E0,0E0,0E0,0E0,0E0,0E0,0E0,0E0,0E0,0E0,0E0,0E0],"parents":[2147483647,0,0,1,1,2,2,3,3,4,4,5,5,6,6,7,7,9,9,10,10,11,11,14,14,15,15,16,16,18,18,20,20,22,22,25,25,26,26,29,29,31,31,32,32,33,33,34,34],"right_children":[2,4,6,8,10,12,14,16,-1,18,20,22,-1,-1,24,26,28,-1,30,-1,32,-1,34,-1,-1,36,38,-1,-1,40,-1,42,44,46,48,-1,-1,-1,-1,-1,-1,-1,-1,-1,-1,-1,-1,-1,-1],"split_conditions":[2.3750186E-1,6.0886437E-1,-2.9488537E-1,4.5363913E0,-4.346919E-1,3.500175E0,1.2142569E0,5.39472E-1,4.841594E-2,-3.437925E0,-9.814692E-2,-9.396765E-1,-2.9170072E-2,-3.2707956E-2,-1.8251479E-2,2.2257667E0,8.0737346E-1,4.917001E-2,3.259403E0,-3.278503E-2,-9.60492E-1,-2.8931493E-2,-4.0209852E-2,5.016315E-2,-2.6810924E-2,2.0815544E0,7.061572E-1,-3.3375923E-2,5.3577017E-2,-4.503503E-1,4.6153624E-2,-7.604835E-1,1.833898E0,-3.1114492E-1,2.728573E-1,-3.3456545E-2,-8.646597E-3,-3.335757E-2,6.34325E-2,-3.37993E-2,2.2435875E-3,-3.343233E-2,5.180644E-2,4.981328E-2,-3.519954E-2,2.4910195E-2,4.9696546E-2,5.0030924E-2,-3.193252E-2],"split_indices":[261,265,263,65,261,0,229,265,0,223,61,58,0,0,7,4,145,0,223,0,94,0,56,0,0,211,260,0,0,261,0,76,112,268,1,0,0,0,0,0,0,0,0,0,0,0,0,0,0],"split_type":[0,0,0,0,0,0,0,0,0,0,0,0,0,0,0,0,0,0,0,0,0,0,0,0,0,0,0,0,0,0,0,0,0,0,0,0,0,0,0,0,0,0,0,0,0,0,0,0,0],"sum_hessian":[5.044293E3,3.6214243E3,1.4228685E3,2.4995388E3,1.1218856E3,1.3497434E3,7.3125114E1,2.4870627E3,1.2475891E1,4.9521832E2,6.2666724E2,1.3435536E3,6.1898193E0,3.1828627E1,4.1296486E1,2.379005E3,1.0805794E2,1.5967262E1,4.7925107E2,3.2315094E1,5.943522E2,5.8114023E0,1.3377422E3,3.7449303E1,3.847183E0,2.3298074E3,4.9197628E1,8.110424E1,2.6953697E1,4.7126212E2,7.9889407E0,4.2009758E1,5.523424E2,1.3010482E3,3.6693977E1,2.3064397E3,2.3367575E1,4.038835E1,8.809276E0,4.3827518E2,3.2986946E1,2.464482E1,1.7364937E1,5.4111224E2,1.1230143E1,2.326594E1,1.2777822E3,2.3959858E1,1.2734118E1],"tree_param":{"num_deleted":"0","num_feature":"270","num_nodes":"49","size_leaf_vector":"1"}},{"base_weights":[-1.2342948E-3,8.382574E-1,-5.857029E-1,9.3940026E-1,2.7260083E-1,-2.3671189E-1,-6.342677E-1,9.594327E-1,-1.5960465E-1,5.991204E-1,-6.511832E-1,6.43128E-1,-5.4345113E-1,-6.421389E-1,3.8060412E-1,9.6364236E-1,1.4608192E-1,-3.257894E-2,4.9512655E-2,9.4645137E-1,-3.745418E-1,-1.6758358E-2,-3.3131417E-2,-1.5613844E-1,5.444218E-2,4.7603235E-2,-5.8088595E-1,-6.436585E-1,5.1183697E-2,4.9074277E-2,-2.925381E-2,5.705209E-1,9.6631324E-1,4.079278E-2,-2.8153775E-2,4.9469158E-2,-2.7859315E-2,4.773039E-2,-5.7612056E-1,-6.303014E-1,4.5307264E-2,-6.040066E-1,4.4521183E-2,-6.4479554E-1,4.4838574E-2,-2.5922466E-2,4.5090597E-2,4.847045E-2,3.3692893E-2,4.274855E-2,-3.2225955E-2,-3.3176582E-2,-1.645271E-2,-1.2917975E-2,-3.303195E-2,-3.225798E-2,-1.0871463E-2],"categories":[],"categories_nodes":[],"categories_segments":[],"categories_sizes":[],"default_left":[0,0,0,0,0,0,0,0,0,0,0,0,0,0,0,0,0,0,0,0,0,0,0,0,0,0,0,0,0,0,0,0,0,0,0,0,0,0,0,0,0,0,0,0,0,0,0,0,0,0,0,0,0,0,0,0,0],"id":24,"left_children":[1,3,5,7,9,11,13,15,17,19,21,23,25,27,29,31,33,-1,-1,35,37,-1,-1,39,-1,-1,41,43,-1,-1,-1,45,47,-1,-1,-1,-1,-1,49,51,-1,53,-1,55,-1,-1,-1,-1,-1,-1,-1,-1,-1,-1,-1,-1,-1],"loss_changes":[2.4307847E3,1.16081665E2,4.935193E1,3.8121338E1,9.385132E1,9.707063E1,2.0720825E1,5.6589355E0,1.8595036E1,7.795156E1,7.23114E-2,3.3337463E1,1.5460609E1,7.098755E0,1.2385769E1,1.2180176E0,5.161863E0,0E0,0E0,1.1487091E1,1.6906168E1,0E0,0E0,1.78007E1,0E0,0E0,9.395973E0,5.031006E0,0E0,0E0,0E0,5.450403E0,8.6047363E-1,0E0,0E0,0E0,0E0,0E0,5.8007336E0,2.4312973E-2,0E0,4.859398E0,0E0,2.5512695E-1,0E0,0E0,0E0,0E0,0E0,0E0,0E0,0E0,0E0,0E0,0E0,0E0,0E0],"parents":[2147483647,0,0,1,1,2,2,3,3,4,4,5,5,6,6,7,7,8,8,9,9,10,10,11,11,12,12,13,13,14,14,15,15,16,16,19,19,20,20,23,23,26,26,27,27,31,31,32,32,38,38,39,39,41,41,43,43],"right_children":[2,4,6,8,10,12,14,16,18,20,22,24,26,28,30,32,34,-1,-1,36,38,-1,-1,40,-1,-1,42,44,-1,-1,-1,46,48,-1,-1,-1,-1,-1,50,52,-1,54,-1,56,-1,-1,-1,-1,-1,-1,-1,-1,-1,-1,-1,-1,-1],"split_conditions":[-6.686511E-1,-7.4677545E-1,-4.973256E-1,5.552693E-1,9.5293486E-1,-1.8558322E-2,2.6502672E-1,2.2943554E0,-1.0101129E-1,9.292432E-3,-2.499684E0,-7.3165923E-1,-7.511907E-1,2.4613345E0,4.8151222E-1,-4.0078874E0,6.813717E-1,-3.257894E-2,4.9512655E-2,3.4941876E0,-2.192027E-2,-1.6758358E-2,-3.3131417E-2,-8.7510474E-2,5.444218E-2,4.7603235E-2,3.5677118E0,4.8894405E0,5.1183697E-2,4.9074277E-2,-2.925381E-2,-1.9260005E0,1.6776997E0,4.079278E-2,-2.8153775E-2,4.9469158E-2,-2.7859315E-2,4.773039E-2,-1.331342E-1,2.193889E0,4.5307264E-2,5.683855E-1,4.4521183E-2,4.768416E0,4.4838574E-2,-2.5922466E-2,4.5090597E-2,4.847045E-2,3.3692893E-2,4.274855E-2,-3.2225955E-2,-3.3176582E-2,-1.645271E-2,-1.2917975E-2,-3.303195E-2,-3.225798E-2,-1.0871463E-2],"split_indices":[261,261,261,262,265,265,263,103,205,178,70,14,262,4,46,156,4,0,0,20,7,0,0,263,0,0,151,81,0,0,0,7,265,0,0,0,0,0,74,0,0,265,0,36,0,0,0,0,0,0,0,0,0,0,0,0,0],"split_type":[0,0,0,0,0,0,0,0,0,0,0,0,0,0,0,0,0,0,0,0,0,0,0,0,0,0,0,0,0,0,0,0,0,0,0,0,0,0,0,0,0,0,0,0,0,0,0,0,0,0,0,0,0,0,0,0,0],"sum_hessian":[4.9521465E3,2.0324447E3,2.919702E3,1.7235946E3,3.0885013E2,3.5738376E2,2.562318E3,1.6928644E3,3.073024E1,2.2845291E2,8.0397224E1,9.210279E1,2.6528098E2,2.5429626E3,1.9355597E1,1.6839639E3,8.900468E0,2.1825428E1,8.904813E0,1.6840599E2,6.0046917E1,3.86846E0,7.652876E1,3.3206284E1,5.8896503E1,5.8815427E0,2.5939944E2,2.541258E3,1.7046028E0,1.1921339E1,7.4342575E0,1.2811886E1,1.671152E3,4.49996E0,4.4005084E0,1.6406366E2,4.342333E0,7.415525E0,5.2631393E1,2.3239645E1,9.966638E0,2.5596658E2,3.4328606E0,2.5399646E3,1.2934139E0,2.856731E0,9.955155E0,1.651357E3,1.9794983E1,1.8761971E0,5.0755196E1,1.9847656E1,3.3919892E0,3.6817673E1,2.1914891E2,2.5372935E3,2.6711876E0],"tree_param":{"num_deleted":"0","num_feature":"270","num_nodes":"57","size_leaf_vector":"1"}},{"base_weights":[-3.174519E-3,-6.063488E-1,2.1343058E-1,-6.386711E-1,6.3374716E-1,5.2009386E-1,-5.232158E-1,-6.4929396E-1,6.941417E-1,4.7548246E-2,-3.0474996E-2,7.143359E-1,2.1036923E-1,-5.8838266E-1,3.6645502E-1,-6.7317456E-2,-6.5601444E-1,-2.2139112E-2,4.7722857E-2,-3.9235406E-2,8.746645E-1,8.683794E-1,-3.9850417E-1,-6.1722624E-1,1.6255878E-1,7.5928617E-1,-3.22047E-2,4.5362752E-2,-3.0273153E-2,-3.3054415E-2,-2.9170325E-1,5.8859795E-1,-5.8144504E-1,-3.2401156E-2,8.972746E-1,-3.271307E-2,9.281138E-1,4.8650865E-2,-5.041734E-1,4.4260778E-2,-6.2989134E-1,-3.2221936E-2,5.028975E-2,4.9305566E-2,-2.9216453E-2,-3.143836E-2,5.0850786E-2,4.13362E-2,-3.2055534E-2,-3.3697486E-2,4.4088315E-2,5.4193987E-3,4.5820035E-2,-2.9806763E-2,4.7416266E-2,1.9805351E-2,-2.9862365E-2,-3.200659E-2,4.2757493E-2],"categories":[],"categories_nodes":[],"categories_segments":[],"categories_sizes":[],"default_left":[0,0,0,0,0,0,0,0,0,0,0,0,0,0,0,0,0,0,0,0,0,0,0,0,0,0,0,0,0,0,0,0,0,0,0,0,0,0,0,0,0,0,0,0,0,0,0,0,0,0,0,0,0,0,0,0,0,0,0],"id":25,"left_children":[1,3,5,7,9,11,13,15,17,-1,-1,19,21,23,25,27,29,-1,-1,31,33,35,37,39,41,43,-1,-1,-1,-1,45,47,49,-1,51,-1,53,-1,55,-1,57,-1,-1,-1,-1,-1,-1,-1,-1,-1,-1,-1,-1,-1,-1,-1,-1,-1,-1],"loss_changes":[6.504219E2,5.3129303E1,8.2774084E2,1.8608398E1,1.3955344E1,1.5547491E2,6.26662E1,4.934143E0,3.5669293E0,0E0,0E0,1.9205853E2,4.0036343E2,2.1847443E1,2.9917416E1,8.754558E0,2.1328735E0,0E0,0E0,9.5585175E1,4.5702026E1,4.4280518E1,7.5746376E1,1.8960114E1,2.6458944E1,1.6984715E1,0E0,0E0,0E0,0E0,9.052674E0,3.86416E1,2.0982857E1,0E0,1.939209E1,0E0,1.4812408E1,0E0,4.0689796E1,0E0,1.51405945E1,0E0,0E0,0E0,0E0,0E0,0E0,0E0,0E0,0E0,0E0,0E0,0E0,0E0,0E0,0E0,0E0,0E0,0E0],"parents":[2147483647,0,0,1,1,2,2,3,3,4,4,5,5,6,6,7,7,8,8,11,11,12,12,13,13,14,14,15,15,16,16,19,19,20,20,21,21,22,22,23,23,24,24,25,25,30,30,31,31,32,32,34,34,36,36,38,38,40,40],"right_children":[2,4,6,8,10,12,14,16,18,-1,-1,20,22,24,26,28,30,-1,-1,32,34,36,38,40,42,44,-1,-1,-1,-1,46,48,50,-1,52,-1,54,-1,56,-1,58,-1,-1,-1,-1,-1,-1,-1,-1,-1,-1,-1,-1,-1,-1,-1,-1,-1,-1],"split_conditions":[-7.4677545E-1,5.552693E-1,2.3750186E-1,2.230119E0,1.6771156E-1,6.0886437E-1,-2.9488537E-1,-4.0078874E0,1.0456866E0,4.7548246E-2,-3.0474996E-2,-5.431824E-1,-4.346919E-1,-4.0209852E-2,-2.4024758E-1,-7.2756153E-1,1.6776997E0,-2.2139112E-2,4.7722857E-2,-7.3165923E-1,-1.2471138E0,-1.0512005E0,